svm_type c_svc
kernel_type rbf
gamma 1.0
nr_class 2
total_sv 1584
rho 0.6649738017368068
label 1 -1
nr_sv 395 1189
SV
1.0 5:1.0 11:1.0 15:1.0 32:1.0 39:1.0 40:1.0 52:1.0 63:1.0 67:1.0 73:1.0 74:1.0 76:1.0 78:1.0 83:1.0 
1.0 5:1.0 18:1.0 19:1.0 39:1.0 40:1.0 63:1.0 67:1.0 73:1.0 74:1.0 76:1.0 80:1.0 83:1.0 
1.0 5:1.0 6:1.0 14:1.0 27:1.0 35:1.0 42:1.0 57:1.0 64:1.0 67:1.0 73:1.0 74:1.0 76:1.0 82:1.0 83:1.0 
1.0 3:1.0 6:1.0 17:1.0 19:1.0 39:1.0 42:1.0 50:1.0 64:1.0 70:1.0 72:1.0 74:1.0 76:1.0 82:1.0 83:1.0 
1.0 4:1.0 6:1.0 14:1.0 29:1.0 39:1.0 42:1.0 47:1.0 64:1.0 67:1.0 73:1.0 74:1.0 76:1.0 79:1.0 83:1.0 
1.0 5:1.0 6:1.0 15:1.0 22:1.0 36:1.0 40:1.0 49:1.0 63:1.0 67:1.0 73:1.0 74:1.0 76:1.0 80:1.0 83:1.0 
1.0 3:1.0 6:1.0 16:1.0 21:1.0 35:1.0 40:1.0 54:1.0 63:1.0 67:1.0 73:1.0 75:1.0 76:1.0 81:1.0 83:1.0 
1.0 5:1.0 6:1.0 16:1.0 32:1.0 39:1.0 40:1.0 52:1.0 63:1.0 67:1.0 73:1.0 74:1.0 77:1.0 82:1.0 83:1.0 
1.0 5:1.0 7:1.0 18:1.0 19:1.0 39:1.0 40:1.0 50:1.0 63:1.0 67:1.0 73:1.0 74:1.0 76:1.0 80:1.0 87:1.0 
1.0 4:1.0 6:1.0 15:1.0 19:1.0 39:1.0 40:1.0 48:1.0 63:1.0 67:1.0 73:1.0 75:1.0 76:1.0 80:1.0 83:1.0 
1.0 4:1.0 7:1.0 17:1.0 29:1.0 39:1.0 40:1.0 51:1.0 63:1.0 67:1.0 73:1.0 74:1.0 76:1.0 81:1.0 83:1.0 
1.0 5:1.0 6:1.0 15:1.0 22:1.0 36:1.0 40:1.0 50:1.0 63:1.0 67:1.0 73:1.0 74:1.0 76:1.0 82:1.0 83:1.0 
1.0 5:1.0 6:1.0 15:1.0 20:1.0 37:1.0 40:1.0 57:1.0 63:1.0 67:1.0 73:1.0 74:1.0 76:1.0 78:1.0 83:1.0 
1.0 3:1.0 6:1.0 17:1.0 22:1.0 36:1.0 40:1.0 51:1.0 63:1.0 67:1.0 73:1.0 74:1.0 76:1.0 80:1.0 83:1.0 
1.0 3:1.0 6:1.0 18:1.0 22:1.0 36:1.0 40:1.0 51:1.0 63:1.0 67:1.0 73:1.0 74:1.0 76:1.0 82:1.0 83:1.0 
1.0 2:1.0 6:1.0 18:1.0 22:1.0 36:1.0 40:1.0 50:1.0 63:1.0 67:1.0 73:1.0 74:1.0 76:1.0 82:1.0 83:1.0 
1.0 4:1.0 6:1.0 16:1.0 19:1.0 39:1.0 40:1.0 52:1.0 61:1.0 67:1.0 72:1.0 75:1.0 76:1.0 78:1.0 83:1.0 
1.0 2:1.0 6:1.0 16:1.0 20:1.0 37:1.0 40:1.0 47:1.0 63:1.0 67:1.0 73:1.0 75:1.0 76:1.0 80:1.0 83:1.0 
1.0 4:1.0 6:1.0 16:1.0 22:1.0 36:1.0 40:1.0 49:1.0 61:1.0 71:1.0 72:1.0 74:1.0 76:1.0 80:1.0 83:1.0 
1.0 4:1.0 6:1.0 14:1.0 20:1.0 37:1.0 40:1.0 47:1.0 63:1.0 67:1.0 73:1.0 74:1.0 76:1.0 78:1.0 83:1.0 
1.0 5:1.0 10:1.0 16:1.0 29:1.0 39:1.0 40:1.0 52:1.0 63:1.0 67:1.0 73:1.0 74:1.0 76:1.0 80:1.0 83:1.0 
1.0 3:1.0 7:1.0 18:1.0 19:1.0 39:1.0 40:1.0 50:1.0 63:1.0 67:1.0 73:1.0 74:1.0 76:1.0 81:1.0 83:1.0 
1.0 5:1.0 6:1.0 15:1.0 19:1.0 39:1.0 40:1.0 51:1.0 63:1.0 67:1.0 73:1.0 75:1.0 76:1.0 82:1.0 83:1.0 
1.0 3:1.0 6:1.0 17:1.0 19:1.0 39:1.0 40:1.0 52:1.0 63:1.0 67:1.0 73:1.0 75:1.0 76:1.0 82:1.0 83:1.0 
1.0 5:1.0 9:1.0 14:1.0 22:1.0 36:1.0 40:1.0 51:1.0 63:1.0 67:1.0 73:1.0 75:1.0 76:1.0 80:1.0 83:1.0 
1.0 2:1.0 6:1.0 14:1.0 22:1.0 36:1.0 40:1.0 48:1.0 63:1.0 67:1.0 73:1.0 74:1.0 76:1.0 80:1.0 83:1.0 
1.0 3:1.0 6:1.0 17:1.0 19:1.0 39:1.0 40:1.0 51:1.0 63:1.0 67:1.0 73:1.0 75:1.0 76:1.0 80:1.0 83:1.0 
1.0 5:1.0 10:1.0 17:1.0 21:1.0 35:1.0 40:1.0 48:1.0 63:1.0 71:1.0 73:1.0 74:1.0 76:1.0 80:1.0 83:1.0 
1.0 4:1.0 6:1.0 15:1.0 22:1.0 36:1.0 40:1.0 50:1.0 63:1.0 67:1.0 73:1.0 74:1.0 76:1.0 82:1.0 83:1.0 
1.0 5:1.0 6:1.0 17:1.0 25:1.0 38:1.0 40:1.0 51:1.0 63:1.0 67:1.0 73:1.0 74:1.0 76:1.0 80:1.0 88:1.0 
1.0 3:1.0 6:1.0 17:1.0 29:1.0 39:1.0 40:1.0 52:1.0 63:1.0 67:1.0 73:1.0 74:1.0 76:1.0 79:1.0 83:1.0 
1.0 2:1.0 10:1.0 18:1.0 32:1.0 39:1.0 42:1.0 52:1.0 64:1.0 67:1.0 73:1.0 74:1.0 76:1.0 82:1.0 103:1.0 
1.0 4:1.0 6:1.0 16:1.0 22:1.0 36:1.0 40:1.0 48:1.0 63:1.0 67:1.0 73:1.0 75:1.0 76:1.0 81:1.0 83:1.0 
1.0 4:1.0 11:1.0 16:1.0 19:1.0 39:1.0 40:1.0 51:1.0 63:1.0 67:1.0 73:1.0 75:1.0 76:1.0 80:1.0 83:1.0 
1.0 5:1.0 7:1.0 18:1.0 19:1.0 39:1.0 40:1.0 47:1.0 61:1.0 67:1.0 72:1.0 74:1.0 76:1.0 82:1.0 83:1.0 
1.0 4:1.0 6:1.0 17:1.0 20:1.0 37:1.0 40:1.0 48:1.0 63:1.0 71:1.0 73:1.0 74:1.0 76:1.0 80:1.0 83:1.0 
1.0 3:1.0 6:1.0 16:1.0 29:1.0 39:1.0 40:1.0 50:1.0 63:1.0 67:1.0 73:1.0 74:1.0 76:1.0 82:1.0 83:1.0 
1.0 5:1.0 6:1.0 16:1.0 19:1.0 39:1.0 41:1.0 51:1.0 64:1.0 71:1.0 73:1.0 75:1.0 76:1.0 80:1.0 83:1.0 
1.0 3:1.0 6:1.0 14:1.0 20:1.0 37:1.0 40:1.0 47:1.0 63:1.0 67:1.0 73:1.0 74:1.0 76:1.0 82:1.0 83:1.0 
1.0 3:1.0 6:1.0 14:1.0 22:1.0 36:1.0 40:1.0 57:1.0 63:1.0 67:1.0 73:1.0 75:1.0 76:1.0 82:1.0 83:1.0 
1.0 4:1.0 6:1.0 17:1.0 19:1.0 39:1.0 40:1.0 52:1.0 63:1.0 67:1.0 73:1.0 74:1.0 77:1.0 80:1.0 83:1.0 
1.0 4:1.0 6:1.0 14:1.0 25:1.0 38:1.0 40:1.0 50:1.0 63:1.0 67:1.0 73:1.0 74:1.0 77:1.0 82:1.0 83:1.0 
0.548741813775948 5:1.0 9:1.0 14:1.0 22:1.0 36:1.0 40:1.0 55:1.0 63:1.0 67:1.0 73:1.0 74:1.0 76:1.0 80:1.0 83:1.0 
1.0 5:1.0 16:1.0 20:1.0 37:1.0 40:1.0 61:1.0 67:1.0 72:1.0 74:1.0 76:1.0 81:1.0 83:1.0 
1.0 5:1.0 6:1.0 14:1.0 22:1.0 36:1.0 40:1.0 53:1.0 63:1.0 67:1.0 73:1.0 74:1.0 76:1.0 80:1.0 83:1.0 
1.0 5:1.0 6:1.0 16:1.0 19:1.0 39:1.0 43:1.0 51:1.0 64:1.0 67:1.0 73:1.0 75:1.0 76:1.0 81:1.0 83:1.0 
1.0 4:1.0 6:1.0 17:1.0 22:1.0 36:1.0 40:1.0 47:1.0 63:1.0 67:1.0 73:1.0 74:1.0 76:1.0 81:1.0 83:1.0 
1.0 5:1.0 6:1.0 15:1.0 24:1.0 38:1.0 40:1.0 51:1.0 61:1.0 71:1.0 72:1.0 74:1.0 76:1.0 80:1.0 83:1.0 
1.0 2:1.0 10:1.0 15:1.0 19:1.0 39:1.0 42:1.0 52:1.0 64:1.0 71:1.0 73:1.0 75:1.0 76:1.0 81:1.0 
1.0 5:1.0 7:1.0 14:1.0 22:1.0 36:1.0 40:1.0 51:1.0 63:1.0 67:1.0 73:1.0 75:1.0 76:1.0 82:1.0 83:1.0 
1.0 4:1.0 8:1.0 15:1.0 19:1.0 39:1.0 40:1.0 50:1.0 63:1.0 67:1.0 73:1.0 74:1.0 76:1.0 82:1.0 83:1.0 
1.0 3:1.0 8:1.0 17:1.0 22:1.0 36:1.0 40:1.0 48:1.0 63:1.0 67:1.0 73:1.0 74:1.0 76:1.0 82:1.0 
1.0 4:1.0 6:1.0 18:1.0 20:1.0 37:1.0 40:1.0 57:1.0 63:1.0 67:1.0 73:1.0 74:1.0 76:1.0 82:1.0 83:1.0 
1.0 3:1.0 6:1.0 17:1.0 22:1.0 36:1.0 40:1.0 54:1.0 63:1.0 67:1.0 73:1.0 74:1.0 76:1.0 82:1.0 83:1.0 
1.0 5:1.0 10:1.0 15:1.0 19:1.0 39:1.0 40:1.0 52:1.0 63:1.0 67:1.0 73:1.0 74:1.0 77:1.0 80:1.0 83:1.0 
1.0 3:1.0 10:1.0 17:1.0 29:1.0 39:1.0 40:1.0 52:1.0 61:1.0 67:1.0 72:1.0 74:1.0 76:1.0 80:1.0 83:1.0 
1.0 1:1.0 6:1.0 16:1.0 19:1.0 39:1.0 40:1.0 51:1.0 61:1.0 67:1.0 72:1.0 74:1.0 76:1.0 78:1.0 83:1.0 
1.0 3:1.0 11:1.0 14:1.0 29:1.0 39:1.0 40:1.0 52:1.0 63:1.0 67:1.0 73:1.0 75:1.0 76:1.0 79:1.0 83:1.0 
1.0 4:1.0 6:1.0 15:1.0 20:1.0 37:1.0 40:1.0 50:1.0 63:1.0 67:1.0 73:1.0 75:1.0 76:1.0 80:1.0 83:1.0 
0.49378308964679063 5:1.0 8:1.0 17:1.0 20:1.0 37:1.0 40:1.0 51:1.0 63:1.0 67:1.0 73:1.0 74:1.0 76:1.0 80:1.0 83:1.0 
1.0 4:1.0 6:1.0 15:1.0 29:1.0 39:1.0 40:1.0 47:1.0 63:1.0 67:1.0 73:1.0 74:1.0 76:1.0 78:1.0 83:1.0 
1.0 2:1.0 6:1.0 15:1.0 20:1.0 37:1.0 40:1.0 56:1.0 63:1.0 67:1.0 73:1.0 74:1.0 76:1.0 82:1.0 83:1.0 
1.0 3:1.0 6:1.0 15:1.0 20:1.0 37:1.0 40:1.0 51:1.0 63:1.0 67:1.0 73:1.0 75:1.0 76:1.0 80:1.0 83:1.0 
1.0 3:1.0 6:1.0 17:1.0 20:1.0 37:1.0 40:1.0 55:1.0 61:1.0 67:1.0 72:1.0 74:1.0 76:1.0 79:1.0 83:1.0 
1.0 5:1.0 6:1.0 16:1.0 32:1.0 39:1.0 40:1.0 51:1.0 63:1.0 67:1.0 73:1.0 74:1.0 76:1.0 80:1.0 83:1.0 
1.0 3:1.0 7:1.0 14:1.0 19:1.0 39:1.0 40:1.0 52:1.0 63:1.0 67:1.0 73:1.0 74:1.0 76:1.0 82:1.0 83:1.0 
1.0 5:1.0 7:1.0 14:1.0 27:1.0 35:1.0 45:1.0 55:1.0 64:1.0 67:1.0 73:1.0 74:1.0 76:1.0 78:1.0 99:1.0 
1.0 2:1.0 6:1.0 16:1.0 22:1.0 36:1.0 40:1.0 54:1.0 63:1.0 67:1.0 73:1.0 74:1.0 76:1.0 80:1.0 83:1.0 
1.0 4:1.0 10:1.0 17:1.0 20:1.0 37:1.0 40:1.0 48:1.0 63:1.0 67:1.0 73:1.0 74:1.0 76:1.0 80:1.0 83:1.0 
0.45593885174379656 3:1.0 6:1.0 15:1.0 19:1.0 39:1.0 40:1.0 50:1.0 63:1.0 67:1.0 73:1.0 74:1.0 76:1.0 82:1.0 83:1.0 
1.0 5:1.0 6:1.0 18:1.0 19:1.0 39:1.0 40:1.0 51:1.0 63:1.0 67:1.0 73:1.0 74:1.0 76:1.0 82:1.0 83:1.0 
1.0 2:1.0 7:1.0 17:1.0 22:1.0 36:1.0 40:1.0 48:1.0 63:1.0 67:1.0 73:1.0 74:1.0 76:1.0 80:1.0 83:1.0 
1.0 2:1.0 6:1.0 15:1.0 20:1.0 37:1.0 40:1.0 51:1.0 63:1.0 67:1.0 73:1.0 74:1.0 76:1.0 80:1.0 83:1.0 
1.0 3:1.0 6:1.0 17:1.0 19:1.0 39:1.0 40:1.0 52:1.0 63:1.0 67:1.0 73:1.0 74:1.0 76:1.0 80:1.0 83:1.0 
1.0 1:1.0 6:1.0 18:1.0 27:1.0 35:1.0 42:1.0 49:1.0 64:1.0 67:1.0 73:1.0 74:1.0 76:1.0 82:1.0 83:1.0 
1.0 4:1.0 6:1.0 14:1.0 20:1.0 37:1.0 40:1.0 50:1.0 63:1.0 67:1.0 73:1.0 74:1.0 76:1.0 81:1.0 83:1.0 
1.0 3:1.0 6:1.0 15:1.0 19:1.0 39:1.0 40:1.0 54:1.0 63:1.0 67:1.0 73:1.0 74:1.0 76:1.0 82:1.0 83:1.0 
1.0 3:1.0 6:1.0 17:1.0 23:1.0 39:1.0 43:1.0 52:1.0 64:1.0 67:1.0 73:1.0 74:1.0 76:1.0 79:1.0 83:1.0 
1.0 2:1.0 9:1.0 18:1.0 19:1.0 39:1.0 40:1.0 51:1.0 63:1.0 67:1.0 73:1.0 74:1.0 76:1.0 80:1.0 83:1.0 
1.0 2:1.0 6:1.0 17:1.0 19:1.0 39:1.0 40:1.0 51:1.0 63:1.0 67:1.0 73:1.0 74:1.0 76:1.0 80:1.0 83:1.0 
1.0 5:1.0 8:1.0 15:1.0 23:1.0 39:1.0 40:1.0 52:1.0 63:1.0 67:1.0 73:1.0 75:1.0 76:1.0 82:1.0 83:1.0 
1.0 4:1.0 6:1.0 16:1.0 22:1.0 36:1.0 40:1.0 57:1.0 63:1.0 67:1.0 73:1.0 74:1.0 76:1.0 82:1.0 83:1.0 
1.0 4:1.0 7:1.0 16:1.0 20:1.0 37:1.0 40:1.0 48:1.0 63:1.0 67:1.0 73:1.0 74:1.0 77:1.0 80:1.0 83:1.0 
1.0 4:1.0 7:1.0 14:1.0 22:1.0 36:1.0 40:1.0 51:1.0 63:1.0 67:1.0 73:1.0 74:1.0 76:1.0 80:1.0 83:1.0 
1.0 2:1.0 6:1.0 16:1.0 19:1.0 39:1.0 46:1.0 51:1.0 61:1.0 67:1.0 72:1.0 74:1.0 76:1.0 80:1.0 83:1.0 
1.0 4:1.0 6:1.0 15:1.0 25:1.0 38:1.0 40:1.0 55:1.0 61:1.0 67:1.0 72:1.0 74:1.0 76:1.0 80:1.0 83:1.0 
1.0 5:1.0 7:1.0 16:1.0 22:1.0 36:1.0 42:1.0 56:1.0 64:1.0 67:1.0 73:1.0 75:1.0 76:1.0 80:1.0 83:1.0 
1.0 3:1.0 9:1.0 16:1.0 23:1.0 39:1.0 42:1.0 52:1.0 64:1.0 67:1.0 72:1.0 74:1.0 76:1.0 82:1.0 83:1.0 
1.0 2:1.0 7:1.0 16:1.0 22:1.0 36:1.0 40:1.0 57:1.0 63:1.0 67:1.0 73:1.0 75:1.0 76:1.0 80:1.0 83:1.0 
1.0 5:1.0 14:1.0 23:1.0 39:1.0 40:1.0 63:1.0 67:1.0 73:1.0 75:1.0 76:1.0 78:1.0 83:1.0 
1.0 4:1.0 7:1.0 14:1.0 29:1.0 39:1.0 40:1.0 56:1.0 63:1.0 67:1.0 73:1.0 74:1.0 76:1.0 80:1.0 83:1.0 
1.0 5:1.0 6:1.0 15:1.0 29:1.0 39:1.0 40:1.0 51:1.0 63:1.0 67:1.0 73:1.0 75:1.0 76:1.0 82:1.0 83:1.0 
1.0 2:1.0 6:1.0 17:1.0 22:1.0 36:1.0 40:1.0 54:1.0 63:1.0 67:1.0 73:1.0 74:1.0 76:1.0 82:1.0 83:1.0 
1.0 3:1.0 6:1.0 14:1.0 19:1.0 39:1.0 40:1.0 57:1.0 63:1.0 67:1.0 73:1.0 75:1.0 76:1.0 82:1.0 83:1.0 
1.0 3:1.0 6:1.0 18:1.0 32:1.0 39:1.0 42:1.0 52:1.0 64:1.0 67:1.0 73:1.0 74:1.0 76:1.0 80:1.0 110:1.0 
1.0 4:1.0 6:1.0 16:1.0 32:1.0 39:1.0 42:1.0 52:1.0 64:1.0 67:1.0 73:1.0 74:1.0 76:1.0 79:1.0 83:1.0 
1.0 4:1.0 6:1.0 17:1.0 19:1.0 39:1.0 40:1.0 51:1.0 63:1.0 71:1.0 73:1.0 74:1.0 76:1.0 79:1.0 83:1.0 
1.0 4:1.0 6:1.0 17:1.0 25:1.0 38:1.0 40:1.0 54:1.0 63:1.0 67:1.0 73:1.0 74:1.0 76:1.0 80:1.0 83:1.0 
1.0 4:1.0 6:1.0 14:1.0 25:1.0 38:1.0 40:1.0 51:1.0 63:1.0 67:1.0 73:1.0 75:1.0 76:1.0 82:1.0 83:1.0 
1.0 5:1.0 6:1.0 14:1.0 19:1.0 39:1.0 40:1.0 50:1.0 63:1.0 67:1.0 73:1.0 75:1.0 76:1.0 78:1.0 83:1.0 
1.0 3:1.0 6:1.0 17:1.0 19:1.0 39:1.0 40:1.0 47:1.0 63:1.0 67:1.0 73:1.0 74:1.0 76:1.0 82:1.0 83:1.0 
1.0 4:1.0 6:1.0 17:1.0 19:1.0 39:1.0 40:1.0 51:1.0 63:1.0 67:1.0 73:1.0 75:1.0 76:1.0 82:1.0 83:1.0 
1.0 3:1.0 11:1.0 17:1.0 29:1.0 39:1.0 40:1.0 52:1.0 61:1.0 67:1.0 72:1.0 75:1.0 76:1.0 79:1.0 83:1.0 
1.0 3:1.0 6:1.0 16:1.0 20:1.0 37:1.0 40:1.0 51:1.0 63:1.0 67:1.0 73:1.0 74:1.0 76:1.0 82:1.0 83:1.0 
1.0 5:1.0 11:1.0 17:1.0 32:1.0 39:1.0 40:1.0 52:1.0 63:1.0 67:1.0 73:1.0 74:1.0 76:1.0 82:1.0 112:1.0 
1.0 2:1.0 6:1.0 17:1.0 22:1.0 36:1.0 40:1.0 53:1.0 61:1.0 67:1.0 72:1.0 74:1.0 76:1.0 80:1.0 103:1.0 
1.0 5:1.0 7:1.0 14:1.0 23:1.0 39:1.0 40:1.0 52:1.0 63:1.0 67:1.0 73:1.0 74:1.0 76:1.0 82:1.0 85:1.0 
1.0 3:1.0 6:1.0 18:1.0 19:1.0 39:1.0 40:1.0 51:1.0 63:1.0 67:1.0 73:1.0 74:1.0 76:1.0 82:1.0 83:1.0 
1.0 4:1.0 10:1.0 15:1.0 29:1.0 39:1.0 41:1.0 52:1.0 66:1.0 71:1.0 72:1.0 75:1.0 76:1.0 80:1.0 83:1.0 
1.0 5:1.0 16:1.0 22:1.0 36:1.0 40:1.0 63:1.0 67:1.0 73:1.0 74:1.0 76:1.0 80:1.0 83:1.0 
1.0 2:1.0 10:1.0 17:1.0 22:1.0 36:1.0 40:1.0 59:1.0 63:1.0 67:1.0 73:1.0 74:1.0 76:1.0 81:1.0 83:1.0 
1.0 3:1.0 6:1.0 15:1.0 22:1.0 36:1.0 40:1.0 54:1.0 63:1.0 68:1.0 73:1.0 74:1.0 76:1.0 80:1.0 
1.0 4:1.0 6:1.0 16:1.0 22:1.0 36:1.0 40:1.0 54:1.0 63:1.0 67:1.0 73:1.0 74:1.0 76:1.0 81:1.0 83:1.0 
1.0 4:1.0 6:1.0 14:1.0 22:1.0 36:1.0 40:1.0 53:1.0 63:1.0 67:1.0 73:1.0 74:1.0 76:1.0 82:1.0 83:1.0 
1.0 5:1.0 6:1.0 16:1.0 22:1.0 36:1.0 40:1.0 48:1.0 63:1.0 67:1.0 73:1.0 74:1.0 76:1.0 80:1.0 83:1.0 
1.0 5:1.0 11:1.0 14:1.0 25:1.0 38:1.0 41:1.0 47:1.0 64:1.0 67:1.0 73:1.0 74:1.0 77:1.0 79:1.0 83:1.0 
1.0 4:1.0 11:1.0 15:1.0 22:1.0 36:1.0 41:1.0 55:1.0 66:1.0 67:1.0 72:1.0 74:1.0 76:1.0 82:1.0 83:1.0 
1.0 5:1.0 6:1.0 18:1.0 20:1.0 37:1.0 40:1.0 57:1.0 63:1.0 67:1.0 73:1.0 75:1.0 76:1.0 78:1.0 83:1.0 
1.0 4:1.0 10:1.0 17:1.0 22:1.0 36:1.0 40:1.0 54:1.0 63:1.0 71:1.0 73:1.0 74:1.0 76:1.0 80:1.0 83:1.0 
1.0 5:1.0 11:1.0 14:1.0 29:1.0 39:1.0 40:1.0 51:1.0 63:1.0 67:1.0 73:1.0 75:1.0 76:1.0 79:1.0 83:1.0 
1.0 5:1.0 9:1.0 16:1.0 22:1.0 36:1.0 40:1.0 47:1.0 63:1.0 67:1.0 73:1.0 74:1.0 77:1.0 80:1.0 83:1.0 
1.0 4:1.0 6:1.0 16:1.0 22:1.0 36:1.0 40:1.0 54:1.0 63:1.0 67:1.0 73:1.0 74:1.0 76:1.0 80:1.0 83:1.0 
1.0 4:1.0 6:1.0 14:1.0 29:1.0 39:1.0 40:1.0 47:1.0 63:1.0 67:1.0 73:1.0 74:1.0 77:1.0 80:1.0 83:1.0 
1.0 5:1.0 6:1.0 14:1.0 21:1.0 35:1.0 40:1.0 50:1.0 63:1.0 67:1.0 73:1.0 75:1.0 76:1.0 78:1.0 83:1.0 
1.0 3:1.0 7:1.0 14:1.0 22:1.0 36:1.0 41:1.0 56:1.0 64:1.0 67:1.0 73:1.0 75:1.0 76:1.0 80:1.0 83:1.0 
1.0 3:1.0 11:1.0 14:1.0 22:1.0 36:1.0 40:1.0 54:1.0 63:1.0 67:1.0 73:1.0 74:1.0 76:1.0 80:1.0 83:1.0 
1.0 5:1.0 6:1.0 15:1.0 22:1.0 36:1.0 40:1.0 48:1.0 63:1.0 67:1.0 73:1.0 74:1.0 76:1.0 82:1.0 83:1.0 
1.0 3:1.0 6:1.0 14:1.0 24:1.0 38:1.0 40:1.0 51:1.0 63:1.0 67:1.0 73:1.0 74:1.0 76:1.0 80:1.0 83:1.0 
1.0 3:1.0 10:1.0 14:1.0 20:1.0 37:1.0 40:1.0 55:1.0 61:1.0 67:1.0 72:1.0 74:1.0 76:1.0 80:1.0 83:1.0 
1.0 4:1.0 6:1.0 15:1.0 25:1.0 38:1.0 40:1.0 56:1.0 63:1.0 67:1.0 73:1.0 74:1.0 76:1.0 80:1.0 83:1.0 
1.0 4:1.0 6:1.0 18:1.0 20:1.0 37:1.0 40:1.0 50:1.0 63:1.0 67:1.0 73:1.0 74:1.0 76:1.0 81:1.0 83:1.0 
1.0 2:1.0 6:1.0 16:1.0 20:1.0 37:1.0 40:1.0 57:1.0 63:1.0 67:1.0 73:1.0 74:1.0 76:1.0 82:1.0 83:1.0 
0.6210607813241057 4:1.0 10:1.0 15:1.0 20:1.0 37:1.0 40:1.0 59:1.0 63:1.0 67:1.0 73:1.0 74:1.0 76:1.0 80:1.0 83:1.0 
1.0 5:1.0 6:1.0 18:1.0 22:1.0 36:1.0 40:1.0 48:1.0 63:1.0 67:1.0 73:1.0 74:1.0 76:1.0 79:1.0 83:1.0 
1.0 4:1.0 6:1.0 15:1.0 29:1.0 39:1.0 40:1.0 55:1.0 63:1.0 67:1.0 73:1.0 74:1.0 76:1.0 81:1.0 83:1.0 
1.0 3:1.0 6:1.0 18:1.0 22:1.0 36:1.0 41:1.0 51:1.0 66:1.0 67:1.0 72:1.0 74:1.0 76:1.0 80:1.0 83:1.0 
1.0 2:1.0 6:1.0 17:1.0 22:1.0 36:1.0 40:1.0 57:1.0 63:1.0 67:1.0 73:1.0 74:1.0 76:1.0 82:1.0 83:1.0 
1.0 3:1.0 10:1.0 16:1.0 26:1.0 35:1.0 40:1.0 49:1.0 61:1.0 67:1.0 72:1.0 74:1.0 76:1.0 80:1.0 118:1.0 
1.0 5:1.0 7:1.0 15:1.0 22:1.0 36:1.0 41:1.0 51:1.0 64:1.0 67:1.0 72:1.0 75:1.0 76:1.0 79:1.0 83:1.0 
1.0 4:1.0 6:1.0 16:1.0 20:1.0 37:1.0 40:1.0 50:1.0 63:1.0 67:1.0 73:1.0 74:1.0 76:1.0 80:1.0 83:1.0 
1.0 2:1.0 6:1.0 16:1.0 20:1.0 37:1.0 40:1.0 53:1.0 63:1.0 67:1.0 73:1.0 74:1.0 76:1.0 80:1.0 83:1.0 
1.0 4:1.0 6:1.0 15:1.0 32:1.0 39:1.0 40:1.0 52:1.0 63:1.0 67:1.0 73:1.0 74:1.0 76:1.0 82:1.0 83:1.0 
1.0 3:1.0 6:1.0 17:1.0 19:1.0 39:1.0 40:1.0 50:1.0 63:1.0 67:1.0 73:1.0 74:1.0 77:1.0 82:1.0 83:1.0 
1.0 3:1.0 6:1.0 17:1.0 19:1.0 39:1.0 40:1.0 47:1.0 63:1.0 67:1.0 73:1.0 74:1.0 76:1.0 80:1.0 83:1.0 
1.0 3:1.0 10:1.0 17:1.0 24:1.0 38:1.0 40:1.0 51:1.0 63:1.0 67:1.0 73:1.0 74:1.0 76:1.0 80:1.0 83:1.0 
1.0 3:1.0 6:1.0 16:1.0 25:1.0 38:1.0 40:1.0 48:1.0 63:1.0 67:1.0 73:1.0 75:1.0 76:1.0 80:1.0 83:1.0 
1.0 5:1.0 7:1.0 15:1.0 23:1.0 39:1.0 40:1.0 52:1.0 63:1.0 67:1.0 73:1.0 74:1.0 76:1.0 82:1.0 83:1.0 
0.6499873474726028 2:1.0 6:1.0 15:1.0 19:1.0 39:1.0 40:1.0 52:1.0 61:1.0 67:1.0 72:1.0 74:1.0 77:1.0 78:1.0 83:1.0 
1.0 5:1.0 6:1.0 14:1.0 19:1.0 39:1.0 42:1.0 49:1.0 64:1.0 68:1.0 72:1.0 74:1.0 76:1.0 78:1.0 91:1.0 
1.0 5:1.0 6:1.0 17:1.0 22:1.0 36:1.0 40:1.0 51:1.0 63:1.0 67:1.0 73:1.0 74:1.0 76:1.0 82:1.0 83:1.0 
1.0 3:1.0 6:1.0 15:1.0 22:1.0 36:1.0 40:1.0 54:1.0 61:1.0 67:1.0 72:1.0 74:1.0 76:1.0 81:1.0 83:1.0 
1.0 2:1.0 6:1.0 15:1.0 29:1.0 39:1.0 43:1.0 51:1.0 64:1.0 67:1.0 73:1.0 74:1.0 77:1.0 82:1.0 83:1.0 
1.0 2:1.0 6:1.0 15:1.0 23:1.0 39:1.0 40:1.0 52:1.0 61:1.0 67:1.0 72:1.0 74:1.0 76:1.0 82:1.0 83:1.0 
1.0 5:1.0 6:1.0 16:1.0 22:1.0 36:1.0 40:1.0 57:1.0 63:1.0 67:1.0 73:1.0 74:1.0 77:1.0 82:1.0 83:1.0 
1.0 4:1.0 9:1.0 14:1.0 22:1.0 36:1.0 40:1.0 55:1.0 63:1.0 67:1.0 73:1.0 74:1.0 76:1.0 80:1.0 83:1.0 
1.0 3:1.0 9:1.0 15:1.0 22:1.0 36:1.0 40:1.0 55:1.0 63:1.0 67:1.0 73:1.0 74:1.0 76:1.0 80:1.0 83:1.0 
1.0 3:1.0 6:1.0 17:1.0 22:1.0 36:1.0 40:1.0 51:1.0 63:1.0 67:1.0 73:1.0 74:1.0 76:1.0 81:1.0 83:1.0 
1.0 4:1.0 10:1.0 17:1.0 19:1.0 39:1.0 41:1.0 59:1.0 64:1.0 71:1.0 73:1.0 74:1.0 76:1.0 82:1.0 83:1.0 
1.0 5:1.0 8:1.0 14:1.0 22:1.0 36:1.0 40:1.0 51:1.0 63:1.0 67:1.0 73:1.0 75:1.0 76:1.0 82:1.0 83:1.0 
1.0 3:1.0 10:1.0 16:1.0 20:1.0 37:1.0 40:1.0 59:1.0 63:1.0 67:1.0 73:1.0 74:1.0 76:1.0 82:1.0 83:1.0 
1.0 5:1.0 7:1.0 18:1.0 19:1.0 39:1.0 40:1.0 51:1.0 63:1.0 67:1.0 73:1.0 75:1.0 76:1.0 78:1.0 83:1.0 
1.0 5:1.0 6:1.0 15:1.0 19:1.0 39:1.0 42:1.0 55:1.0 64:1.0 67:1.0 72:1.0 75:1.0 76:1.0 80:1.0 83:1.0 
1.0 3:1.0 6:1.0 14:1.0 23:1.0 39:1.0 42:1.0 52:1.0 64:1.0 67:1.0 72:1.0 75:1.0 76:1.0 82:1.0 83:1.0 
1.0 4:1.0 9:1.0 17:1.0 20:1.0 37:1.0 40:1.0 53:1.0 63:1.0 67:1.0 73:1.0 74:1.0 76:1.0 80:1.0 83:1.0 
1.0 3:1.0 6:1.0 16:1.0 20:1.0 37:1.0 40:1.0 54:1.0 63:1.0 68:1.0 73:1.0 74:1.0 76:1.0 82:1.0 83:1.0 
1.0 4:1.0 6:1.0 18:1.0 25:1.0 38:1.0 40:1.0 52:1.0 63:1.0 67:1.0 73:1.0 74:1.0 77:1.0 81:1.0 83:1.0 
1.0 5:1.0 8:1.0 18:1.0 23:1.0 39:1.0 40:1.0 52:1.0 63:1.0 67:1.0 73:1.0 74:1.0 77:1.0 82:1.0 83:1.0 
1.0 4:1.0 10:1.0 18:1.0 19:1.0 39:1.0 40:1.0 51:1.0 63:1.0 71:1.0 73:1.0 74:1.0 76:1.0 80:1.0 83:1.0 
1.0 4:1.0 9:1.0 15:1.0 20:1.0 37:1.0 40:1.0 48:1.0 63:1.0 67:1.0 73:1.0 74:1.0 76:1.0 80:1.0 83:1.0 
1.0 5:1.0 11:1.0 18:1.0 20:1.0 37:1.0 40:1.0 54:1.0 63:1.0 71:1.0 73:1.0 74:1.0 76:1.0 80:1.0 83:1.0 
1.0 3:1.0 6:1.0 17:1.0 25:1.0 38:1.0 42:1.0 51:1.0 64:1.0 67:1.0 73:1.0 74:1.0 76:1.0 82:1.0 83:1.0 
1.0 4:1.0 6:1.0 15:1.0 29:1.0 39:1.0 40:1.0 51:1.0 61:1.0 67:1.0 72:1.0 74:1.0 77:1.0 79:1.0 83:1.0 
1.0 2:1.0 8:1.0 16:1.0 22:1.0 36:1.0 40:1.0 56:1.0 63:1.0 67:1.0 73:1.0 74:1.0 77:1.0 82:1.0 83:1.0 
1.0 3:1.0 6:1.0 17:1.0 22:1.0 36:1.0 40:1.0 48:1.0 63:1.0 67:1.0 73:1.0 75:1.0 76:1.0 80:1.0 83:1.0 
1.0 4:1.0 7:1.0 18:1.0 19:1.0 39:1.0 41:1.0 49:1.0 66:1.0 68:1.0 72:1.0 74:1.0 76:1.0 82:1.0 93:1.0 
1.0 5:1.0 10:1.0 15:1.0 19:1.0 39:1.0 40:1.0 59:1.0 63:1.0 67:1.0 73:1.0 75:1.0 76:1.0 82:1.0 83:1.0 
1.0 5:1.0 6:1.0 18:1.0 19:1.0 39:1.0 40:1.0 50:1.0 63:1.0 67:1.0 73:1.0 74:1.0 76:1.0 82:1.0 83:1.0 
1.0 5:1.0 8:1.0 18:1.0 20:1.0 37:1.0 40:1.0 51:1.0 63:1.0 67:1.0 73:1.0 74:1.0 76:1.0 80:1.0 83:1.0 
1.0 3:1.0 7:1.0 17:1.0 32:1.0 39:1.0 42:1.0 52:1.0 64:1.0 67:1.0 73:1.0 74:1.0 76:1.0 81:1.0 83:1.0 
0.9902665392882843 2:1.0 6:1.0 15:1.0 19:1.0 39:1.0 40:1.0 52:1.0 61:1.0 67:1.0 72:1.0 74:1.0 77:1.0 78:1.0 83:1.0 
1.0 4:1.0 6:1.0 16:1.0 22:1.0 36:1.0 40:1.0 55:1.0 63:1.0 67:1.0 73:1.0 74:1.0 76:1.0 82:1.0 83:1.0 
1.0 2:1.0 6:1.0 15:1.0 22:1.0 36:1.0 40:1.0 48:1.0 63:1.0 67:1.0 73:1.0 74:1.0 76:1.0 80:1.0 83:1.0 
1.0 2:1.0 7:1.0 18:1.0 19:1.0 39:1.0 40:1.0 51:1.0 61:1.0 67:1.0 72:1.0 74:1.0 77:1.0 80:1.0 83:1.0 
1.0 3:1.0 6:1.0 16:1.0 24:1.0 38:1.0 40:1.0 50:1.0 63:1.0 67:1.0 73:1.0 74:1.0 76:1.0 82:1.0 83:1.0 
1.0 4:1.0 6:1.0 16:1.0 25:1.0 38:1.0 40:1.0 51:1.0 61:1.0 67:1.0 72:1.0 75:1.0 76:1.0 79:1.0 83:1.0 
1.0 4:1.0 6:1.0 17:1.0 22:1.0 36:1.0 40:1.0 48:1.0 63:1.0 67:1.0 73:1.0 74:1.0 76:1.0 80:1.0 
1.0 4:1.0 6:1.0 14:1.0 19:1.0 39:1.0 40:1.0 52:1.0 63:1.0 67:1.0 73:1.0 74:1.0 76:1.0 80:1.0 83:1.0 
1.0 4:1.0 8:1.0 15:1.0 20:1.0 37:1.0 40:1.0 52:1.0 61:1.0 67:1.0 72:1.0 74:1.0 76:1.0 80:1.0 
1.0 4:1.0 6:1.0 17:1.0 22:1.0 36:1.0 40:1.0 51:1.0 61:1.0 67:1.0 72:1.0 74:1.0 76:1.0 80:1.0 83:1.0 
1.0 2:1.0 6:1.0 16:1.0 19:1.0 39:1.0 42:1.0 52:1.0 62:1.0 67:1.0 72:1.0 74:1.0 77:1.0 80:1.0 83:1.0 
1.0 3:1.0 6:1.0 15:1.0 25:1.0 38:1.0 41:1.0 48:1.0 66:1.0 67:1.0 73:1.0 74:1.0 76:1.0 82:1.0 83:1.0 
1.0 4:1.0 10:1.0 16:1.0 29:1.0 39:1.0 40:1.0 52:1.0 63:1.0 67:1.0 73:1.0 74:1.0 76:1.0 82:1.0 83:1.0 
1.0 2:1.0 8:1.0 17:1.0 22:1.0 36:1.0 40:1.0 50:1.0 63:1.0 71:1.0 73:1.0 75:1.0 76:1.0 80:1.0 83:1.0 
1.0 4:1.0 8:1.0 14:1.0 24:1.0 38:1.0 40:1.0 52:1.0 63:1.0 67:1.0 73:1.0 74:1.0 76:1.0 82:1.0 83:1.0 
1.0 1:1.0 6:1.0 15:1.0 21:1.0 35:1.0 40:1.0 57:1.0 63:1.0 67:1.0 73:1.0 75:1.0 76:1.0 80:1.0 100:1.0 
1.0 4:1.0 10:1.0 15:1.0 29:1.0 39:1.0 40:1.0 52:1.0 63:1.0 71:1.0 73:1.0 74:1.0 76:1.0 79:1.0 83:1.0 
1.0 4:1.0 11:1.0 17:1.0 32:1.0 39:1.0 43:1.0 52:1.0 66:1.0 67:1.0 72:1.0 74:1.0 76:1.0 80:1.0 83:1.0 
1.0 4:1.0 9:1.0 18:1.0 20:1.0 37:1.0 40:1.0 51:1.0 63:1.0 71:1.0 73:1.0 74:1.0 76:1.0 80:1.0 83:1.0 
1.0 5:1.0 6:1.0 15:1.0 29:1.0 39:1.0 40:1.0 51:1.0 63:1.0 67:1.0 73:1.0 75:1.0 76:1.0 82:1.0 
1.0 3:1.0 6:1.0 14:1.0 19:1.0 39:1.0 41:1.0 51:1.0 66:1.0 67:1.0 72:1.0 74:1.0 76:1.0 82:1.0 83:1.0 
1.0 5:1.0 6:1.0 15:1.0 22:1.0 36:1.0 40:1.0 48:1.0 63:1.0 67:1.0 73:1.0 74:1.0 76:1.0 80:1.0 83:1.0 
1.0 5:1.0 6:1.0 18:1.0 19:1.0 39:1.0 40:1.0 51:1.0 63:1.0 67:1.0 73:1.0 74:1.0 76:1.0 80:1.0 83:1.0 
1.0 2:1.0 6:1.0 18:1.0 19:1.0 39:1.0 41:1.0 51:1.0 64:1.0 67:1.0 72:1.0 74:1.0 76:1.0 82:1.0 83:1.0 
1.0 5:1.0 7:1.0 14:1.0 19:1.0 39:1.0 40:1.0 51:1.0 63:1.0 67:1.0 73:1.0 74:1.0 76:1.0 82:1.0 83:1.0 
1.0 3:1.0 6:1.0 16:1.0 29:1.0 39:1.0 42:1.0 55:1.0 64:1.0 67:1.0 73:1.0 75:1.0 76:1.0 82:1.0 83:1.0 
1.0 4:1.0 10:1.0 16:1.0 19:1.0 39:1.0 40:1.0 52:1.0 61:1.0 67:1.0 72:1.0 74:1.0 76:1.0 80:1.0 83:1.0 
1.0 2:1.0 6:1.0 17:1.0 22:1.0 36:1.0 40:1.0 48:1.0 63:1.0 67:1.0 73:1.0 74:1.0 76:1.0 80:1.0 83:1.0 
1.0 4:1.0 6:1.0 15:1.0 25:1.0 38:1.0 40:1.0 47:1.0 61:1.0 67:1.0 72:1.0 74:1.0 77:1.0 78:1.0 83:1.0 
1.0 5:1.0 8:1.0 15:1.0 20:1.0 37:1.0 40:1.0 50:1.0 63:1.0 67:1.0 73:1.0 74:1.0 77:1.0 79:1.0 83:1.0 
1.0 5:1.0 6:1.0 14:1.0 22:1.0 36:1.0 40:1.0 47:1.0 63:1.0 67:1.0 73:1.0 74:1.0 76:1.0 80:1.0 83:1.0 
1.0 5:1.0 6:1.0 17:1.0 20:1.0 37:1.0 40:1.0 59:1.0 63:1.0 71:1.0 73:1.0 74:1.0 76:1.0 82:1.0 83:1.0 
1.0 4:1.0 6:1.0 15:1.0 29:1.0 39:1.0 40:1.0 51:1.0 63:1.0 67:1.0 73:1.0 74:1.0 76:1.0 80:1.0 83:1.0 
1.0 4:1.0 10:1.0 16:1.0 29:1.0 39:1.0 41:1.0 59:1.0 64:1.0 71:1.0 73:1.0 74:1.0 76:1.0 82:1.0 83:1.0 
1.0 4:1.0 6:1.0 17:1.0 19:1.0 39:1.0 40:1.0 52:1.0 61:1.0 67:1.0 72:1.0 74:1.0 76:1.0 78:1.0 95:1.0 
1.0 5:1.0 6:1.0 16:1.0 22:1.0 36:1.0 44:1.0 51:1.0 66:1.0 67:1.0 73:1.0 74:1.0 76:1.0 79:1.0 83:1.0 
1.0 3:1.0 6:1.0 17:1.0 25:1.0 38:1.0 40:1.0 48:1.0 63:1.0 67:1.0 73:1.0 75:1.0 76:1.0 81:1.0 83:1.0 
1.0 3:1.0 6:1.0 18:1.0 29:1.0 39:1.0 42:1.0 55:1.0 64:1.0 67:1.0 72:1.0 74:1.0 76:1.0 82:1.0 99:1.0 
1.0 4:1.0 11:1.0 15:1.0 22:1.0 36:1.0 42:1.0 57:1.0 64:1.0 67:1.0 72:1.0 75:1.0 76:1.0 80:1.0 83:1.0 
1.0 3:1.0 6:1.0 18:1.0 25:1.0 38:1.0 40:1.0 57:1.0 63:1.0 67:1.0 73:1.0 75:1.0 76:1.0 82:1.0 83:1.0 
1.0 4:1.0 6:1.0 14:1.0 19:1.0 39:1.0 40:1.0 48:1.0 63:1.0 67:1.0 73:1.0 74:1.0 76:1.0 81:1.0 83:1.0 
1.0 5:1.0 7:1.0 16:1.0 23:1.0 39:1.0 40:1.0 52:1.0 63:1.0 67:1.0 73:1.0 74:1.0 76:1.0 78:1.0 83:1.0 
1.0 5:1.0 7:1.0 14:1.0 22:1.0 36:1.0 40:1.0 56:1.0 63:1.0 67:1.0 73:1.0 74:1.0 76:1.0 82:1.0 83:1.0 
1.0 3:1.0 6:1.0 16:1.0 19:1.0 39:1.0 40:1.0 50:1.0 61:1.0 67:1.0 72:1.0 74:1.0 76:1.0 79:1.0 83:1.0 
1.0 4:1.0 6:1.0 15:1.0 22:1.0 36:1.0 40:1.0 53:1.0 63:1.0 67:1.0 73:1.0 74:1.0 76:1.0 80:1.0 83:1.0 
1.0 5:1.0 6:1.0 17:1.0 20:1.0 37:1.0 40:1.0 55:1.0 63:1.0 67:1.0 73:1.0 74:1.0 76:1.0 81:1.0 83:1.0 
1.0 5:1.0 10:1.0 15:1.0 22:1.0 36:1.0 40:1.0 51:1.0 63:1.0 67:1.0 73:1.0 75:1.0 76:1.0 80:1.0 83:1.0 
1.0 5:1.0 8:1.0 16:1.0 20:1.0 37:1.0 40:1.0 57:1.0 63:1.0 67:1.0 73:1.0 74:1.0 76:1.0 80:1.0 83:1.0 
1.0 4:1.0 6:1.0 18:1.0 20:1.0 37:1.0 40:1.0 48:1.0 63:1.0 71:1.0 73:1.0 74:1.0 76:1.0 81:1.0 83:1.0 
1.0 3:1.0 7:1.0 18:1.0 20:1.0 37:1.0 40:1.0 52:1.0 61:1.0 67:1.0 72:1.0 74:1.0 76:1.0 82:1.0 83:1.0 
1.0 5:1.0 10:1.0 15:1.0 22:1.0 36:1.0 40:1.0 55:1.0 61:1.0 67:1.0 72:1.0 75:1.0 76:1.0 78:1.0 83:1.0 
1.0 4:1.0 11:1.0 17:1.0 19:1.0 39:1.0 40:1.0 51:1.0 63:1.0 71:1.0 73:1.0 74:1.0 76:1.0 80:1.0 83:1.0 
1.0 1:1.0 6:1.0 14:1.0 19:1.0 39:1.0 42:1.0 52:1.0 62:1.0 67:1.0 72:1.0 74:1.0 77:1.0 80:1.0 83:1.0 
1.0 2:1.0 7:1.0 14:1.0 23:1.0 39:1.0 40:1.0 52:1.0 63:1.0 67:1.0 73:1.0 75:1.0 76:1.0 81:1.0 83:1.0 
1.0 5:1.0 6:1.0 17:1.0 29:1.0 39:1.0 40:1.0 51:1.0 63:1.0 67:1.0 73:1.0 74:1.0 76:1.0 80:1.0 83:1.0 
1.0 2:1.0 6:1.0 16:1.0 21:1.0 35:1.0 40:1.0 53:1.0 63:1.0 67:1.0 73:1.0 75:1.0 76:1.0 80:1.0 83:1.0 
1.0 3:1.0 7:1.0 18:1.0 19:1.0 39:1.0 40:1.0 50:1.0 63:1.0 67:1.0 73:1.0 75:1.0 76:1.0 82:1.0 83:1.0 
1.0 5:1.0 7:1.0 14:1.0 22:1.0 36:1.0 40:1.0 56:1.0 63:1.0 67:1.0 73:1.0 74:1.0 76:1.0 82:1.0 83:1.0 
1.0 5:1.0 14:1.0 22:1.0 36:1.0 40:1.0 63:1.0 67:1.0 73:1.0 74:1.0 76:1.0 78:1.0 83:1.0 
1.0 2:1.0 6:1.0 16:1.0 29:1.0 39:1.0 40:1.0 52:1.0 63:1.0 67:1.0 73:1.0 74:1.0 77:1.0 80:1.0 83:1.0 
1.0 5:1.0 6:1.0 14:1.0 31:1.0 35:1.0 40:1.0 50:1.0 61:1.0 68:1.0 72:1.0 74:1.0 76:1.0 78:1.0 91:1.0 
1.0 3:1.0 6:1.0 18:1.0 19:1.0 39:1.0 40:1.0 48:1.0 63:1.0 68:1.0 73:1.0 74:1.0 76:1.0 80:1.0 84:1.0 
1.0 4:1.0 7:1.0 14:1.0 19:1.0 39:1.0 40:1.0 56:1.0 63:1.0 67:1.0 73:1.0 74:1.0 76:1.0 82:1.0 83:1.0 
1.0 4:1.0 8:1.0 14:1.0 19:1.0 39:1.0 40:1.0 50:1.0 63:1.0 67:1.0 73:1.0 74:1.0 76:1.0 82:1.0 83:1.0 
0.988487312054105 3:1.0 6:1.0 15:1.0 19:1.0 39:1.0 40:1.0 50:1.0 63:1.0 67:1.0 73:1.0 74:1.0 76:1.0 82:1.0 83:1.0 
1.0 4:1.0 11:1.0 17:1.0 19:1.0 39:1.0 40:1.0 51:1.0 63:1.0 67:1.0 73:1.0 74:1.0 76:1.0 80:1.0 83:1.0 
1.0 3:1.0 10:1.0 18:1.0 19:1.0 39:1.0 40:1.0 55:1.0 63:1.0 67:1.0 73:1.0 74:1.0 76:1.0 80:1.0 83:1.0 
1.0 4:1.0 6:1.0 17:1.0 22:1.0 36:1.0 40:1.0 53:1.0 63:1.0 67:1.0 73:1.0 74:1.0 76:1.0 82:1.0 83:1.0 
1.0 3:1.0 6:1.0 16:1.0 29:1.0 39:1.0 40:1.0 52:1.0 63:1.0 67:1.0 73:1.0 74:1.0 77:1.0 80:1.0 83:1.0 
1.0 4:1.0 6:1.0 18:1.0 24:1.0 38:1.0 40:1.0 50:1.0 63:1.0 67:1.0 73:1.0 74:1.0 76:1.0 82:1.0 83:1.0 
1.0 4:1.0 10:1.0 18:1.0 24:1.0 38:1.0 40:1.0 51:1.0 63:1.0 71:1.0 73:1.0 74:1.0 76:1.0 82:1.0 83:1.0 
1.0 5:1.0 6:1.0 17:1.0 22:1.0 36:1.0 40:1.0 54:1.0 63:1.0 67:1.0 73:1.0 74:1.0 76:1.0 80:1.0 83:1.0 
1.0 5:1.0 10:1.0 14:1.0 19:1.0 39:1.0 40:1.0 55:1.0 61:1.0 67:1.0 72:1.0 74:1.0 76:1.0 80:1.0 83:1.0 
1.0 3:1.0 6:1.0 14:1.0 19:1.0 39:1.0 40:1.0 51:1.0 63:1.0 67:1.0 73:1.0 74:1.0 76:1.0 80:1.0 83:1.0 
1.0 5:1.0 6:1.0 15:1.0 22:1.0 36:1.0 40:1.0 57:1.0 63:1.0 67:1.0 73:1.0 74:1.0 76:1.0 82:1.0 83:1.0 
1.0 5:1.0 8:1.0 14:1.0 19:1.0 39:1.0 40:1.0 56:1.0 63:1.0 67:1.0 73:1.0 74:1.0 77:1.0 82:1.0 83:1.0 
1.0 4:1.0 9:1.0 18:1.0 20:1.0 37:1.0 40:1.0 48:1.0 63:1.0 67:1.0 73:1.0 74:1.0 76:1.0 80:1.0 83:1.0 
1.0 4:1.0 6:1.0 17:1.0 19:1.0 39:1.0 40:1.0 50:1.0 63:1.0 67:1.0 73:1.0 75:1.0 76:1.0 80:1.0 83:1.0 
1.0 4:1.0 10:1.0 14:1.0 19:1.0 39:1.0 40:1.0 51:1.0 63:1.0 67:1.0 73:1.0 74:1.0 76:1.0 82:1.0 83:1.0 
1.0 2:1.0 6:1.0 16:1.0 19:1.0 39:1.0 42:1.0 51:1.0 64:1.0 67:1.0 72:1.0 74:1.0 76:1.0 81:1.0 83:1.0 
1.0 4:1.0 7:1.0 17:1.0 23:1.0 39:1.0 40:1.0 52:1.0 63:1.0 67:1.0 73:1.0 74:1.0 77:1.0 82:1.0 83:1.0 
1.0 5:1.0 10:1.0 15:1.0 22:1.0 36:1.0 40:1.0 48:1.0 63:1.0 67:1.0 73:1.0 74:1.0 77:1.0 79:1.0 83:1.0 
1.0 2:1.0 6:1.0 14:1.0 19:1.0 39:1.0 40:1.0 50:1.0 63:1.0 67:1.0 73:1.0 74:1.0 76:1.0 82:1.0 83:1.0 
1.0 5:1.0 10:1.0 17:1.0 23:1.0 39:1.0 40:1.0 55:1.0 63:1.0 68:1.0 73:1.0 74:1.0 76:1.0 80:1.0 98:1.0 
1.0 5:1.0 11:1.0 17:1.0 32:1.0 39:1.0 40:1.0 52:1.0 63:1.0 67:1.0 73:1.0 74:1.0 76:1.0 80:1.0 83:1.0 
1.0 5:1.0 8:1.0 15:1.0 24:1.0 38:1.0 40:1.0 50:1.0 63:1.0 67:1.0 73:1.0 74:1.0 76:1.0 82:1.0 83:1.0 
1.0 4:1.0 6:1.0 14:1.0 25:1.0 38:1.0 40:1.0 48:1.0 63:1.0 67:1.0 73:1.0 74:1.0 76:1.0 80:1.0 87:1.0 
1.0 4:1.0 9:1.0 14:1.0 25:1.0 38:1.0 40:1.0 55:1.0 63:1.0 67:1.0 73:1.0 75:1.0 76:1.0 80:1.0 83:1.0 
1.0 5:1.0 6:1.0 17:1.0 22:1.0 36:1.0 40:1.0 48:1.0 63:1.0 67:1.0 73:1.0 74:1.0 76:1.0 80:1.0 83:1.0 
1.0 5:1.0 6:1.0 14:1.0 19:1.0 39:1.0 40:1.0 51:1.0 63:1.0 67:1.0 73:1.0 74:1.0 76:1.0 80:1.0 83:1.0 
1.0 4:1.0 7:1.0 16:1.0 23:1.0 39:1.0 40:1.0 52:1.0 63:1.0 67:1.0 73:1.0 75:1.0 76:1.0 82:1.0 83:1.0 
1.0 3:1.0 6:1.0 16:1.0 19:1.0 39:1.0 40:1.0 51:1.0 63:1.0 67:1.0 73:1.0 74:1.0 76:1.0 82:1.0 83:1.0 
1.0 5:1.0 8:1.0 18:1.0 19:1.0 39:1.0 40:1.0 54:1.0 63:1.0 68:1.0 73:1.0 75:1.0 76:1.0 80:1.0 
1.0 4:1.0 8:1.0 17:1.0 29:1.0 39:1.0 40:1.0 51:1.0 63:1.0 67:1.0 73:1.0 75:1.0 76:1.0 82:1.0 83:1.0 
1.0 5:1.0 6:1.0 15:1.0 25:1.0 38:1.0 40:1.0 47:1.0 63:1.0 67:1.0 73:1.0 75:1.0 76:1.0 80:1.0 83:1.0 
1.0 2:1.0 6:1.0 17:1.0 19:1.0 39:1.0 40:1.0 51:1.0 61:1.0 67:1.0 72:1.0 74:1.0 76:1.0 80:1.0 83:1.0 
1.0 5:1.0 8:1.0 17:1.0 20:1.0 37:1.0 40:1.0 51:1.0 63:1.0 67:1.0 73:1.0 74:1.0 76:1.0 80:1.0 83:1.0 
1.0 3:1.0 6:1.0 15:1.0 19:1.0 39:1.0 40:1.0 51:1.0 63:1.0 67:1.0 73:1.0 74:1.0 77:1.0 82:1.0 83:1.0 
1.0 3:1.0 6:1.0 17:1.0 31:1.0 35:1.0 40:1.0 51:1.0 63:1.0 67:1.0 73:1.0 74:1.0 76:1.0 80:1.0 83:1.0 
1.0 5:1.0 9:1.0 17:1.0 20:1.0 37:1.0 40:1.0 51:1.0 63:1.0 67:1.0 73:1.0 75:1.0 76:1.0 80:1.0 83:1.0 
1.0 5:1.0 6:1.0 15:1.0 19:1.0 39:1.0 40:1.0 51:1.0 63:1.0 68:1.0 73:1.0 74:1.0 76:1.0 80:1.0 98:1.0 
1.0 5:1.0 6:1.0 15:1.0 20:1.0 37:1.0 40:1.0 48:1.0 63:1.0 67:1.0 73:1.0 75:1.0 76:1.0 82:1.0 83:1.0 
1.0 4:1.0 6:1.0 14:1.0 29:1.0 39:1.0 40:1.0 51:1.0 63:1.0 67:1.0 73:1.0 74:1.0 76:1.0 80:1.0 83:1.0 
1.0 5:1.0 9:1.0 18:1.0 20:1.0 37:1.0 40:1.0 55:1.0 63:1.0 67:1.0 73:1.0 74:1.0 76:1.0 80:1.0 83:1.0 
1.0 3:1.0 6:1.0 14:1.0 20:1.0 37:1.0 40:1.0 48:1.0 63:1.0 67:1.0 73:1.0 74:1.0 76:1.0 80:1.0 83:1.0 
1.0 5:1.0 6:1.0 18:1.0 25:1.0 38:1.0 40:1.0 52:1.0 63:1.0 67:1.0 73:1.0 75:1.0 76:1.0 80:1.0 83:1.0 
1.0 3:1.0 7:1.0 15:1.0 23:1.0 39:1.0 40:1.0 52:1.0 63:1.0 67:1.0 73:1.0 74:1.0 76:1.0 82:1.0 83:1.0 
1.0 4:1.0 7:1.0 18:1.0 32:1.0 39:1.0 40:1.0 52:1.0 63:1.0 67:1.0 73:1.0 74:1.0 77:1.0 82:1.0 83:1.0 
1.0 3:1.0 18:1.0 19:1.0 39:1.0 40:1.0 61:1.0 67:1.0 72:1.0 74:1.0 76:1.0 78:1.0 83:1.0 
1.0 4:1.0 6:1.0 16:1.0 22:1.0 36:1.0 41:1.0 48:1.0 64:1.0 71:1.0 73:1.0 75:1.0 76:1.0 81:1.0 83:1.0 
1.0 2:1.0 6:1.0 14:1.0 19:1.0 39:1.0 40:1.0 51:1.0 63:1.0 67:1.0 73:1.0 74:1.0 76:1.0 80:1.0 83:1.0 
1.0 2:1.0 6:1.0 16:1.0 24:1.0 38:1.0 40:1.0 52:1.0 63:1.0 67:1.0 73:1.0 74:1.0 76:1.0 81:1.0 83:1.0 
1.0 2:1.0 6:1.0 15:1.0 19:1.0 39:1.0 40:1.0 52:1.0 63:1.0 67:1.0 73:1.0 74:1.0 77:1.0 80:1.0 83:1.0 
1.0 5:1.0 8:1.0 15:1.0 19:1.0 39:1.0 40:1.0 51:1.0 63:1.0 67:1.0 73:1.0 74:1.0 77:1.0 82:1.0 83:1.0 
1.0 3:1.0 6:1.0 15:1.0 22:1.0 36:1.0 40:1.0 50:1.0 63:1.0 67:1.0 73:1.0 74:1.0 76:1.0 80:1.0 83:1.0 
1.0 4:1.0 6:1.0 18:1.0 20:1.0 37:1.0 40:1.0 52:1.0 63:1.0 67:1.0 73:1.0 75:1.0 76:1.0 80:1.0 83:1.0 
1.0 2:1.0 6:1.0 17:1.0 23:1.0 39:1.0 40:1.0 52:1.0 63:1.0 67:1.0 73:1.0 74:1.0 76:1.0 78:1.0 83:1.0 
1.0 4:1.0 6:1.0 16:1.0 22:1.0 36:1.0 40:1.0 50:1.0 63:1.0 67:1.0 73:1.0 74:1.0 76:1.0 82:1.0 83:1.0 
1.0 3:1.0 8:1.0 14:1.0 25:1.0 38:1.0 40:1.0 50:1.0 63:1.0 67:1.0 73:1.0 74:1.0 76:1.0 80:1.0 83:1.0 
1.0 4:1.0 6:1.0 15:1.0 32:1.0 39:1.0 42:1.0 52:1.0 64:1.0 67:1.0 73:1.0 75:1.0 76:1.0 78:1.0 83:1.0 
1.0 3:1.0 11:1.0 18:1.0 32:1.0 39:1.0 40:1.0 52:1.0 63:1.0 67:1.0 73:1.0 74:1.0 76:1.0 81:1.0 88:1.0 
1.0 4:1.0 6:1.0 14:1.0 19:1.0 39:1.0 40:1.0 51:1.0 63:1.0 67:1.0 73:1.0 75:1.0 76:1.0 82:1.0 83:1.0 
1.0 5:1.0 8:1.0 15:1.0 19:1.0 39:1.0 40:1.0 51:1.0 63:1.0 67:1.0 73:1.0 75:1.0 76:1.0 82:1.0 83:1.0 
1.0 3:1.0 6:1.0 15:1.0 29:1.0 39:1.0 40:1.0 52:1.0 61:1.0 67:1.0 72:1.0 74:1.0 77:1.0 78:1.0 83:1.0 
1.0 5:1.0 7:1.0 17:1.0 20:1.0 37:1.0 40:1.0 57:1.0 63:1.0 67:1.0 73:1.0 74:1.0 76:1.0 81:1.0 83:1.0 
1.0 4:1.0 6:1.0 18:1.0 20:1.0 37:1.0 43:1.0 50:1.0 64:1.0 67:1.0 73:1.0 74:1.0 76:1.0 82:1.0 83:1.0 
1.0 4:1.0 6:1.0 14:1.0 22:1.0 36:1.0 40:1.0 48:1.0 63:1.0 67:1.0 73:1.0 74:1.0 77:1.0 80:1.0 83:1.0 
1.0 3:1.0 10:1.0 16:1.0 19:1.0 39:1.0 42:1.0 59:1.0 64:1.0 67:1.0 72:1.0 75:1.0 76:1.0 81:1.0 83:1.0 
1.0 3:1.0 11:1.0 14:1.0 20:1.0 37:1.0 40:1.0 51:1.0 61:1.0 67:1.0 72:1.0 75:1.0 76:1.0 79:1.0 83:1.0 
1.0 5:1.0 6:1.0 16:1.0 22:1.0 36:1.0 40:1.0 57:1.0 63:1.0 67:1.0 73:1.0 74:1.0 76:1.0 80:1.0 83:1.0 
1.0 4:1.0 6:1.0 17:1.0 25:1.0 38:1.0 40:1.0 52:1.0 63:1.0 67:1.0 73:1.0 74:1.0 76:1.0 80:1.0 83:1.0 
1.0 5:1.0 8:1.0 14:1.0 29:1.0 39:1.0 40:1.0 51:1.0 63:1.0 67:1.0 73:1.0 75:1.0 76:1.0 80:1.0 83:1.0 
1.0 4:1.0 11:1.0 14:1.0 22:1.0 36:1.0 40:1.0 48:1.0 63:1.0 67:1.0 73:1.0 74:1.0 76:1.0 80:1.0 83:1.0 
1.0 2:1.0 6:1.0 17:1.0 19:1.0 39:1.0 40:1.0 51:1.0 63:1.0 67:1.0 73:1.0 74:1.0 76:1.0 81:1.0 83:1.0 
1.0 5:1.0 8:1.0 16:1.0 19:1.0 39:1.0 40:1.0 50:1.0 63:1.0 67:1.0 73:1.0 74:1.0 76:1.0 78:1.0 83:1.0 
1.0 3:1.0 7:1.0 17:1.0 32:1.0 39:1.0 40:1.0 52:1.0 63:1.0 67:1.0 73:1.0 74:1.0 76:1.0 82:1.0 83:1.0 
1.0 3:1.0 10:1.0 14:1.0 32:1.0 39:1.0 40:1.0 52:1.0 63:1.0 67:1.0 73:1.0 74:1.0 77:1.0 82:1.0 83:1.0 
1.0 4:1.0 10:1.0 16:1.0 19:1.0 39:1.0 40:1.0 52:1.0 61:1.0 71:1.0 72:1.0 74:1.0 76:1.0 80:1.0 83:1.0 
1.0 2:1.0 7:1.0 14:1.0 22:1.0 36:1.0 40:1.0 56:1.0 63:1.0 67:1.0 73:1.0 74:1.0 76:1.0 82:1.0 83:1.0 
1.0 4:1.0 6:1.0 16:1.0 22:1.0 36:1.0 40:1.0 55:1.0 61:1.0 67:1.0 72:1.0 74:1.0 76:1.0 80:1.0 83:1.0 
1.0 2:1.0 6:1.0 14:1.0 22:1.0 36:1.0 40:1.0 52:1.0 63:1.0 67:1.0 73:1.0 74:1.0 76:1.0 79:1.0 83:1.0 
1.0 2:1.0 9:1.0 18:1.0 29:1.0 39:1.0 40:1.0 52:1.0 63:1.0 67:1.0 73:1.0 74:1.0 76:1.0 80:1.0 83:1.0 
1.0 3:1.0 11:1.0 16:1.0 22:1.0 36:1.0 40:1.0 48:1.0 63:1.0 67:1.0 73:1.0 74:1.0 77:1.0 80:1.0 83:1.0 
1.0 4:1.0 7:1.0 16:1.0 22:1.0 36:1.0 40:1.0 56:1.0 63:1.0 67:1.0 73:1.0 74:1.0 76:1.0 82:1.0 83:1.0 
1.0 5:1.0 8:1.0 15:1.0 25:1.0 38:1.0 40:1.0 51:1.0 63:1.0 67:1.0 73:1.0 74:1.0 76:1.0 80:1.0 92:1.0 
1.0 3:1.0 6:1.0 18:1.0 22:1.0 36:1.0 40:1.0 51:1.0 63:1.0 67:1.0 73:1.0 75:1.0 76:1.0 82:1.0 83:1.0 
1.0 3:1.0 6:1.0 14:1.0 23:1.0 39:1.0 40:1.0 52:1.0 63:1.0 67:1.0 73:1.0 75:1.0 76:1.0 82:1.0 83:1.0 
1.0 4:1.0 6:1.0 15:1.0 32:1.0 39:1.0 40:1.0 52:1.0 63:1.0 67:1.0 73:1.0 74:1.0 77:1.0 82:1.0 83:1.0 
1.0 2:1.0 10:1.0 17:1.0 22:1.0 36:1.0 40:1.0 59:1.0 63:1.0 67:1.0 73:1.0 74:1.0 76:1.0 80:1.0 83:1.0 
1.0 2:1.0 6:1.0 18:1.0 22:1.0 36:1.0 40:1.0 51:1.0 63:1.0 67:1.0 73:1.0 74:1.0 76:1.0 80:1.0 83:1.0 
1.0 5:1.0 6:1.0 14:1.0 29:1.0 39:1.0 40:1.0 52:1.0 63:1.0 68:1.0 73:1.0 74:1.0 76:1.0 81:1.0 90:1.0 
1.0 5:1.0 9:1.0 14:1.0 29:1.0 39:1.0 40:1.0 51:1.0 63:1.0 67:1.0 73:1.0 74:1.0 76:1.0 80:1.0 104:1.0 
1.0 3:1.0 6:1.0 18:1.0 29:1.0 39:1.0 42:1.0 51:1.0 64:1.0 71:1.0 72:1.0 74:1.0 76:1.0 80:1.0 83:1.0 
1.0 4:1.0 7:1.0 17:1.0 23:1.0 39:1.0 40:1.0 52:1.0 63:1.0 67:1.0 73:1.0 74:1.0 76:1.0 79:1.0 83:1.0 
1.0 5:1.0 9:1.0 14:1.0 22:1.0 36:1.0 40:1.0 55:1.0 63:1.0 67:1.0 73:1.0 74:1.0 76:1.0 80:1.0 83:1.0 
1.0 3:1.0 6:1.0 18:1.0 19:1.0 39:1.0 40:1.0 50:1.0 63:1.0 67:1.0 73:1.0 74:1.0 76:1.0 80:1.0 83:1.0 
1.0 5:1.0 6:1.0 15:1.0 23:1.0 39:1.0 40:1.0 51:1.0 63:1.0 67:1.0 73:1.0 74:1.0 76:1.0 82:1.0 83:1.0 
1.0 5:1.0 6:1.0 18:1.0 29:1.0 39:1.0 40:1.0 51:1.0 63:1.0 67:1.0 73:1.0 74:1.0 76:1.0 82:1.0 83:1.0 
1.0 5:1.0 6:1.0 16:1.0 19:1.0 39:1.0 40:1.0 47:1.0 63:1.0 67:1.0 73:1.0 74:1.0 76:1.0 82:1.0 83:1.0 
1.0 3:1.0 6:1.0 15:1.0 22:1.0 36:1.0 40:1.0 50:1.0 63:1.0 67:1.0 73:1.0 74:1.0 77:1.0 80:1.0 83:1.0 
1.0 4:1.0 6:1.0 16:1.0 19:1.0 39:1.0 43:1.0 51:1.0 66:1.0 67:1.0 73:1.0 75:1.0 76:1.0 80:1.0 83:1.0 
1.0 4:1.0 7:1.0 18:1.0 20:1.0 37:1.0 40:1.0 48:1.0 63:1.0 67:1.0 73:1.0 74:1.0 77:1.0 82:1.0 83:1.0 
1.0 5:1.0 10:1.0 17:1.0 19:1.0 39:1.0 44:1.0 52:1.0 66:1.0 67:1.0 72:1.0 74:1.0 76:1.0 82:1.0 83:1.0 
1.0 4:1.0 6:1.0 17:1.0 20:1.0 37:1.0 40:1.0 52:1.0 63:1.0 67:1.0 73:1.0 74:1.0 76:1.0 80:1.0 83:1.0 
1.0 5:1.0 6:1.0 14:1.0 29:1.0 39:1.0 40:1.0 52:1.0 63:1.0 67:1.0 73:1.0 74:1.0 76:1.0 79:1.0 87:1.0 
1.0 2:1.0 7:1.0 15:1.0 19:1.0 39:1.0 40:1.0 54:1.0 63:1.0 67:1.0 73:1.0 74:1.0 76:1.0 82:1.0 83:1.0 
1.0 3:1.0 6:1.0 18:1.0 19:1.0 39:1.0 40:1.0 51:1.0 63:1.0 67:1.0 73:1.0 75:1.0 76:1.0 80:1.0 83:1.0 
1.0 4:1.0 8:1.0 17:1.0 32:1.0 39:1.0 40:1.0 52:1.0 63:1.0 67:1.0 73:1.0 74:1.0 76:1.0 82:1.0 83:1.0 
1.0 5:1.0 7:1.0 18:1.0 24:1.0 38:1.0 40:1.0 51:1.0 61:1.0 67:1.0 72:1.0 75:1.0 76:1.0 78:1.0 83:1.0 
1.0 2:1.0 10:1.0 15:1.0 22:1.0 36:1.0 40:1.0 51:1.0 63:1.0 67:1.0 73:1.0 74:1.0 76:1.0 82:1.0 83:1.0 
1.0 4:1.0 11:1.0 17:1.0 32:1.0 39:1.0 40:1.0 52:1.0 63:1.0 67:1.0 73:1.0 74:1.0 76:1.0 80:1.0 83:1.0 
1.0 4:1.0 6:1.0 18:1.0 19:1.0 39:1.0 42:1.0 50:1.0 64:1.0 67:1.0 73:1.0 74:1.0 76:1.0 82:1.0 83:1.0 
1.0 3:1.0 6:1.0 18:1.0 22:1.0 36:1.0 40:1.0 48:1.0 63:1.0 67:1.0 73:1.0 74:1.0 76:1.0 80:1.0 83:1.0 
1.0 4:1.0 10:1.0 16:1.0 19:1.0 39:1.0 40:1.0 48:1.0 63:1.0 67:1.0 73:1.0 74:1.0 76:1.0 79:1.0 83:1.0 
1.0 5:1.0 8:1.0 14:1.0 20:1.0 37:1.0 40:1.0 51:1.0 63:1.0 67:1.0 73:1.0 75:1.0 76:1.0 82:1.0 83:1.0 
1.0 2:1.0 6:1.0 16:1.0 19:1.0 39:1.0 40:1.0 52:1.0 63:1.0 67:1.0 73:1.0 75:1.0 76:1.0 82:1.0 83:1.0 
1.0 3:1.0 6:1.0 15:1.0 20:1.0 37:1.0 41:1.0 51:1.0 64:1.0 67:1.0 72:1.0 74:1.0 76:1.0 80:1.0 83:1.0 
1.0 2:1.0 8:1.0 14:1.0 19:1.0 39:1.0 40:1.0 50:1.0 63:1.0 67:1.0 73:1.0 75:1.0 76:1.0 82:1.0 83:1.0 
1.0 2:1.0 8:1.0 16:1.0 22:1.0 36:1.0 41:1.0 51:1.0 64:1.0 67:1.0 73:1.0 74:1.0 76:1.0 82:1.0 83:1.0 
1.0 4:1.0 10:1.0 17:1.0 29:1.0 39:1.0 40:1.0 55:1.0 63:1.0 67:1.0 73:1.0 74:1.0 76:1.0 80:1.0 99:1.0 
1.0 5:1.0 9:1.0 15:1.0 20:1.0 37:1.0 40:1.0 55:1.0 63:1.0 67:1.0 73:1.0 75:1.0 76:1.0 80:1.0 83:1.0 
1.0 3:1.0 6:1.0 17:1.0 22:1.0 36:1.0 41:1.0 52:1.0 62:1.0 67:1.0 72:1.0 74:1.0 76:1.0 80:1.0 83:1.0 
1.0 2:1.0 6:1.0 15:1.0 29:1.0 39:1.0 40:1.0 51:1.0 63:1.0 67:1.0 73:1.0 74:1.0 76:1.0 81:1.0 83:1.0 
1.0 4:1.0 6:1.0 17:1.0 22:1.0 36:1.0 40:1.0 48:1.0 63:1.0 67:1.0 73:1.0 74:1.0 76:1.0 82:1.0 83:1.0 
1.0 1:1.0 6:1.0 18:1.0 20:1.0 37:1.0 40:1.0 55:1.0 63:1.0 67:1.0 73:1.0 74:1.0 76:1.0 80:1.0 83:1.0 
1.0 3:1.0 6:1.0 14:1.0 19:1.0 39:1.0 40:1.0 52:1.0 63:1.0 67:1.0 73:1.0 75:1.0 76:1.0 82:1.0 83:1.0 
1.0 4:1.0 9:1.0 17:1.0 23:1.0 39:1.0 40:1.0 52:1.0 63:1.0 67:1.0 73:1.0 74:1.0 76:1.0 82:1.0 90:1.0 
1.0 5:1.0 11:1.0 15:1.0 22:1.0 36:1.0 40:1.0 51:1.0 63:1.0 67:1.0 73:1.0 74:1.0 77:1.0 80:1.0 83:1.0 
1.0 5:1.0 6:1.0 16:1.0 22:1.0 36:1.0 40:1.0 54:1.0 63:1.0 67:1.0 73:1.0 74:1.0 76:1.0 81:1.0 83:1.0 
1.0 5:1.0 6:1.0 15:1.0 31:1.0 35:1.0 40:1.0 48:1.0 63:1.0 67:1.0 73:1.0 75:1.0 76:1.0 80:1.0 83:1.0 
1.0 3:1.0 10:1.0 14:1.0 19:1.0 39:1.0 40:1.0 52:1.0 61:1.0 67:1.0 72:1.0 74:1.0 76:1.0 81:1.0 83:1.0 
1.0 4:1.0 6:1.0 14:1.0 19:1.0 39:1.0 40:1.0 52:1.0 63:1.0 67:1.0 73:1.0 74:1.0 76:1.0 82:1.0 83:1.0 
1.0 3:1.0 6:1.0 17:1.0 19:1.0 39:1.0 40:1.0 55:1.0 63:1.0 67:1.0 73:1.0 74:1.0 76:1.0 82:1.0 83:1.0 
1.0 5:1.0 6:1.0 16:1.0 25:1.0 38:1.0 40:1.0 48:1.0 63:1.0 67:1.0 73:1.0 74:1.0 76:1.0 80:1.0 83:1.0 
1.0 5:1.0 7:1.0 14:1.0 20:1.0 37:1.0 40:1.0 51:1.0 63:1.0 67:1.0 73:1.0 74:1.0 76:1.0 82:1.0 83:1.0 
1.0 4:1.0 8:1.0 16:1.0 19:1.0 39:1.0 40:1.0 51:1.0 63:1.0 67:1.0 73:1.0 75:1.0 76:1.0 82:1.0 83:1.0 
1.0 3:1.0 6:1.0 18:1.0 22:1.0 36:1.0 40:1.0 51:1.0 61:1.0 67:1.0 72:1.0 75:1.0 76:1.0 80:1.0 83:1.0 
1.0 3:1.0 6:1.0 15:1.0 22:1.0 36:1.0 40:1.0 52:1.0 63:1.0 67:1.0 73:1.0 74:1.0 76:1.0 81:1.0 109:1.0 
1.0 5:1.0 7:1.0 14:1.0 19:1.0 39:1.0 41:1.0 56:1.0 64:1.0 67:1.0 73:1.0 75:1.0 76:1.0 82:1.0 83:1.0 
1.0 5:1.0 6:1.0 16:1.0 22:1.0 36:1.0 40:1.0 53:1.0 63:1.0 67:1.0 73:1.0 74:1.0 76:1.0 80:1.0 83:1.0 
1.0 4:1.0 6:1.0 15:1.0 19:1.0 39:1.0 40:1.0 50:1.0 63:1.0 67:1.0 73:1.0 74:1.0 76:1.0 80:1.0 83:1.0 
0.9974411442609621 4:1.0 10:1.0 15:1.0 20:1.0 37:1.0 40:1.0 59:1.0 63:1.0 67:1.0 73:1.0 74:1.0 76:1.0 80:1.0 83:1.0 
1.0 4:1.0 6:1.0 18:1.0 20:1.0 37:1.0 40:1.0 51:1.0 63:1.0 67:1.0 73:1.0 74:1.0 76:1.0 82:1.0 83:1.0 
1.0 5:1.0 7:1.0 18:1.0 19:1.0 39:1.0 40:1.0 52:1.0 63:1.0 67:1.0 73:1.0 74:1.0 76:1.0 81:1.0 83:1.0 
1.0 4:1.0 6:1.0 18:1.0 29:1.0 39:1.0 40:1.0 52:1.0 63:1.0 67:1.0 73:1.0 74:1.0 76:1.0 81:1.0 83:1.0 
1.0 4:1.0 6:1.0 17:1.0 22:1.0 36:1.0 40:1.0 50:1.0 63:1.0 67:1.0 73:1.0 74:1.0 76:1.0 82:1.0 83:1.0 
1.0 3:1.0 11:1.0 16:1.0 19:1.0 39:1.0 40:1.0 59:1.0 63:1.0 67:1.0 73:1.0 75:1.0 76:1.0 82:1.0 83:1.0 
1.0 2:1.0 6:1.0 15:1.0 19:1.0 39:1.0 42:1.0 51:1.0 64:1.0 67:1.0 73:1.0 74:1.0 76:1.0 82:1.0 83:1.0 
1.0 5:1.0 18:1.0 22:1.0 36:1.0 40:1.0 63:1.0 67:1.0 73:1.0 74:1.0 76:1.0 80:1.0 83:1.0 
1.0 3:1.0 6:1.0 16:1.0 19:1.0 39:1.0 40:1.0 51:1.0 63:1.0 67:1.0 73:1.0 75:1.0 76:1.0 82:1.0 83:1.0 
1.0 4:1.0 8:1.0 15:1.0 29:1.0 39:1.0 40:1.0 51:1.0 63:1.0 67:1.0 73:1.0 74:1.0 76:1.0 82:1.0 83:1.0 
1.0 4:1.0 9:1.0 18:1.0 20:1.0 37:1.0 42:1.0 55:1.0 64:1.0 67:1.0 73:1.0 75:1.0 76:1.0 82:1.0 83:1.0 
1.0 4:1.0 8:1.0 15:1.0 20:1.0 37:1.0 40:1.0 51:1.0 63:1.0 67:1.0 73:1.0 74:1.0 76:1.0 82:1.0 83:1.0 
1.0 4:1.0 6:1.0 18:1.0 22:1.0 36:1.0 40:1.0 49:1.0 63:1.0 67:1.0 73:1.0 74:1.0 77:1.0 80:1.0 83:1.0 
1.0 5:1.0 10:1.0 14:1.0 32:1.0 39:1.0 40:1.0 51:1.0 63:1.0 67:1.0 73:1.0 74:1.0 76:1.0 82:1.0 83:1.0 
1.0 4:1.0 8:1.0 14:1.0 29:1.0 39:1.0 40:1.0 50:1.0 63:1.0 67:1.0 73:1.0 74:1.0 76:1.0 82:1.0 
-0.3336638591292609 3:1.0 11:1.0 14:1.0 19:1.0 39:1.0 42:1.0 55:1.0 64:1.0 67:1.0 73:1.0 75:1.0 76:1.0 80:1.0 83:1.0 
-0.3344988367855417 3:1.0 6:1.0 17:1.0 27:1.0 35:1.0 40:1.0 57:1.0 63:1.0 69:1.0 73:1.0 74:1.0 76:1.0 81:1.0 103:1.0 
-0.2952328915861788 4:1.0 6:1.0 15:1.0 21:1.0 35:1.0 40:1.0 57:1.0 63:1.0 67:1.0 73:1.0 74:1.0 77:1.0 80:1.0 83:1.0 
-0.31534390098599774 5:1.0 6:1.0 15:1.0 22:1.0 36:1.0 41:1.0 47:1.0 66:1.0 67:1.0 72:1.0 74:1.0 76:1.0 80:1.0 83:1.0 
-0.2887733813051434 2:1.0 6:1.0 16:1.0 22:1.0 36:1.0 40:1.0 54:1.0 63:1.0 67:1.0 73:1.0 75:1.0 76:1.0 80:1.0 83:1.0 
-0.31124600752299514 2:1.0 6:1.0 14:1.0 20:1.0 37:1.0 41:1.0 47:1.0 64:1.0 67:1.0 73:1.0 74:1.0 76:1.0 82:1.0 83:1.0 
-0.3127876286619123 1:1.0 6:1.0 14:1.0 22:1.0 36:1.0 42:1.0 49:1.0 64:1.0 67:1.0 72:1.0 74:1.0 77:1.0 80:1.0 83:1.0 
-0.24579037563829997 1:1.0 6:1.0 17:1.0 19:1.0 39:1.0 42:1.0 53:1.0 64:1.0 67:1.0 73:1.0 74:1.0 76:1.0 80:1.0 83:1.0 
-0.3178795225464744 2:1.0 6:1.0 18:1.0 20:1.0 37:1.0 42:1.0 48:1.0 64:1.0 71:1.0 73:1.0 74:1.0 76:1.0 81:1.0 83:1.0 
-0.32810193228282736 5:1.0 16:1.0 30:1.0 35:1.0 41:1.0 64:1.0 67:1.0 73:1.0 74:1.0 76:1.0 80:1.0 83:1.0 
-0.5374315998092305 5:1.0 6:1.0 15:1.0 20:1.0 37:1.0 40:1.0 50:1.0 63:1.0 67:1.0 73:1.0 75:1.0 76:1.0 80:1.0 83:1.0 
-0.34851764712399064 5:1.0 7:1.0 16:1.0 29:1.0 39:1.0 40:1.0 48:1.0 63:1.0 67:1.0 73:1.0 74:1.0 76:1.0 78:1.0 83:1.0 
-0.3285351580392536 1:1.0 11:1.0 18:1.0 20:1.0 37:1.0 42:1.0 59:1.0 62:1.0 71:1.0 72:1.0 74:1.0 76:1.0 80:1.0 83:1.0 
-0.34468431776669456 2:1.0 11:1.0 18:1.0 20:1.0 37:1.0 40:1.0 54:1.0 63:1.0 67:1.0 73:1.0 74:1.0 76:1.0 80:1.0 83:1.0 
-0.3207985494814026 1:1.0 6:1.0 17:1.0 22:1.0 36:1.0 42:1.0 53:1.0 64:1.0 67:1.0 73:1.0 74:1.0 76:1.0 82:1.0 107:1.0 
-0.43596855578814564 1:1.0 6:1.0 14:1.0 20:1.0 37:1.0 40:1.0 55:1.0 63:1.0 67:1.0 73:1.0 74:1.0 76:1.0 80:1.0 83:1.0 
-0.32286920027387056 4:1.0 6:1.0 18:1.0 22:1.0 36:1.0 44:1.0 51:1.0 66:1.0 71:1.0 72:1.0 74:1.0 76:1.0 80:1.0 83:1.0 
-0.32816549353772273 3:1.0 6:1.0 16:1.0 19:1.0 39:1.0 42:1.0 48:1.0 62:1.0 67:1.0 73:1.0 74:1.0 76:1.0 78:1.0 83:1.0 
-0.33184083873972625 1:1.0 10:1.0 18:1.0 22:1.0 36:1.0 42:1.0 56:1.0 64:1.0 67:1.0 73:1.0 74:1.0 76:1.0 80:1.0 100:1.0 
-0.2824222143391107 5:1.0 6:1.0 14:1.0 20:1.0 37:1.0 41:1.0 55:1.0 64:1.0 67:1.0 72:1.0 74:1.0 76:1.0 78:1.0 83:1.0 
-0.32934834654291073 3:1.0 6:1.0 14:1.0 22:1.0 36:1.0 40:1.0 54:1.0 63:1.0 67:1.0 73:1.0 74:1.0 76:1.0 80:1.0 83:1.0 
-0.33318455273078684 3:1.0 10:1.0 18:1.0 22:1.0 36:1.0 43:1.0 51:1.0 64:1.0 71:1.0 73:1.0 74:1.0 76:1.0 80:1.0 83:1.0 
-0.5821359203472259 5:1.0 8:1.0 14:1.0 19:1.0 39:1.0 40:1.0 50:1.0 63:1.0 67:1.0 73:1.0 74:1.0 76:1.0 82:1.0 83:1.0 
-0.21084677223445347 3:1.0 7:1.0 18:1.0 22:1.0 36:1.0 40:1.0 50:1.0 63:1.0 67:1.0 73:1.0 74:1.0 76:1.0 82:1.0 83:1.0 
-0.33070506871156213 2:1.0 6:1.0 14:1.0 20:1.0 37:1.0 40:1.0 48:1.0 63:1.0 67:1.0 73:1.0 74:1.0 76:1.0 81:1.0 83:1.0 
-0.5099612497456705 5:1.0 6:1.0 14:1.0 22:1.0 36:1.0 40:1.0 48:1.0 63:1.0 67:1.0 73:1.0 74:1.0 76:1.0 78:1.0 83:1.0 
-0.6401473750962665 5:1.0 15:1.0 22:1.0 36:1.0 40:1.0 63:1.0 67:1.0 73:1.0 74:1.0 76:1.0 82:1.0 83:1.0 
-0.33503522910254135 1:1.0 15:1.0 21:1.0 35:1.0 45:1.0 62:1.0 68:1.0 72:1.0 74:1.0 77:1.0 80:1.0 93:1.0 
-0.3137314526937384 3:1.0 6:1.0 14:1.0 20:1.0 37:1.0 41:1.0 55:1.0 66:1.0 71:1.0 72:1.0 74:1.0 76:1.0 80:1.0 83:1.0 
-0.2960796607224994 2:1.0 6:1.0 17:1.0 22:1.0 36:1.0 40:1.0 49:1.0 63:1.0 67:1.0 73:1.0 74:1.0 76:1.0 80:1.0 103:1.0 
-0.31746405355399265 5:1.0 6:1.0 16:1.0 20:1.0 37:1.0 41:1.0 55:1.0 64:1.0 68:1.0 72:1.0 74:1.0 76:1.0 80:1.0 83:1.0 
-0.34064863588485533 2:1.0 6:1.0 16:1.0 25:1.0 38:1.0 40:1.0 55:1.0 63:1.0 67:1.0 73:1.0 74:1.0 77:1.0 81:1.0 83:1.0 
-0.31226481984080656 5:1.0 6:1.0 15:1.0 22:1.0 36:1.0 42:1.0 50:1.0 64:1.0 67:1.0 73:1.0 74:1.0 76:1.0 79:1.0 83:1.0 
-0.4861918073445126 5:1.0 7:1.0 14:1.0 22:1.0 36:1.0 40:1.0 56:1.0 63:1.0 67:1.0 73:1.0 74:1.0 77:1.0 82:1.0 83:1.0 
-0.3175712569099733 1:1.0 6:1.0 17:1.0 22:1.0 36:1.0 42:1.0 50:1.0 64:1.0 67:1.0 72:1.0 75:1.0 76:1.0 80:1.0 83:1.0 
-0.28884324229939384 3:1.0 6:1.0 15:1.0 22:1.0 36:1.0 42:1.0 57:1.0 62:1.0 67:1.0 73:1.0 74:1.0 76:1.0 80:1.0 83:1.0 
-0.3311482376329287 4:1.0 6:1.0 14:1.0 26:1.0 35:1.0 41:1.0 54:1.0 64:1.0 67:1.0 72:1.0 74:1.0 76:1.0 80:1.0 83:1.0 
-0.24500076610493152 1:1.0 6:1.0 14:1.0 22:1.0 36:1.0 42:1.0 53:1.0 62:1.0 67:1.0 72:1.0 74:1.0 76:1.0 80:1.0 83:1.0 
-0.26875113293105646 3:1.0 6:1.0 15:1.0 22:1.0 36:1.0 40:1.0 48:1.0 63:1.0 67:1.0 73:1.0 74:1.0 76:1.0 78:1.0 83:1.0 
-0.23078228705493303 1:1.0 6:1.0 18:1.0 22:1.0 36:1.0 42:1.0 49:1.0 62:1.0 67:1.0 72:1.0 74:1.0 76:1.0 78:1.0 83:1.0 
-0.3203904481366668 1:1.0 6:1.0 17:1.0 20:1.0 37:1.0 42:1.0 51:1.0 64:1.0 67:1.0 72:1.0 75:1.0 76:1.0 80:1.0 83:1.0 
-0.3336054623928542 5:1.0 7:1.0 15:1.0 22:1.0 36:1.0 42:1.0 56:1.0 66:1.0 67:1.0 73:1.0 74:1.0 76:1.0 81:1.0 83:1.0 
-0.40151840761285584 3:1.0 6:1.0 16:1.0 29:1.0 39:1.0 40:1.0 52:1.0 63:1.0 67:1.0 73:1.0 74:1.0 76:1.0 78:1.0 83:1.0 
-0.288125017328165 3:1.0 6:1.0 15:1.0 22:1.0 36:1.0 42:1.0 49:1.0 64:1.0 67:1.0 73:1.0 74:1.0 76:1.0 82:1.0 83:1.0 
-0.24636248646053427 1:1.0 6:1.0 14:1.0 20:1.0 37:1.0 42:1.0 50:1.0 64:1.0 67:1.0 72:1.0 74:1.0 76:1.0 82:1.0 83:1.0 
-0.3521060444780229 5:1.0 6:1.0 15:1.0 22:1.0 36:1.0 40:1.0 54:1.0 63:1.0 67:1.0 73:1.0 75:1.0 76:1.0 80:1.0 83:1.0 
-0.33435756045024895 2:1.0 6:1.0 15:1.0 19:1.0 39:1.0 42:1.0 50:1.0 64:1.0 71:1.0 72:1.0 74:1.0 77:1.0 80:1.0 83:1.0 
-0.23901191495432908 3:1.0 6:1.0 15:1.0 22:1.0 36:1.0 41:1.0 48:1.0 64:1.0 67:1.0 73:1.0 74:1.0 76:1.0 80:1.0 83:1.0 
-0.39355794594029436 4:1.0 6:1.0 18:1.0 25:1.0 38:1.0 40:1.0 57:1.0 63:1.0 67:1.0 73:1.0 74:1.0 76:1.0 82:1.0 83:1.0 
-0.8742858385300976 4:1.0 6:1.0 17:1.0 22:1.0 36:1.0 40:1.0 57:1.0 63:1.0 67:1.0 73:1.0 74:1.0 76:1.0 82:1.0 83:1.0 
-0.2987593816941459 3:1.0 16:1.0 22:1.0 36:1.0 41:1.0 64:1.0 67:1.0 72:1.0 74:1.0 76:1.0 80:1.0 83:1.0 
-0.3450511637157648 5:1.0 7:1.0 17:1.0 20:1.0 37:1.0 40:1.0 50:1.0 63:1.0 67:1.0 73:1.0 74:1.0 76:1.0 82:1.0 83:1.0 
-0.5882159192153523 5:1.0 6:1.0 18:1.0 22:1.0 36:1.0 40:1.0 48:1.0 63:1.0 67:1.0 73:1.0 74:1.0 76:1.0 82:1.0 83:1.0 
-0.17923399821461242 1:1.0 6:1.0 16:1.0 20:1.0 37:1.0 42:1.0 49:1.0 62:1.0 67:1.0 72:1.0 74:1.0 76:1.0 78:1.0 83:1.0 
-0.3075032255357702 5:1.0 6:1.0 14:1.0 20:1.0 37:1.0 40:1.0 48:1.0 63:1.0 67:1.0 73:1.0 74:1.0 76:1.0 80:1.0 83:1.0 
-0.30713262874908687 5:1.0 6:1.0 16:1.0 22:1.0 36:1.0 44:1.0 55:1.0 62:1.0 67:1.0 72:1.0 74:1.0 76:1.0 80:1.0 83:1.0 
-0.3648176883762538 4:1.0 7:1.0 16:1.0 20:1.0 37:1.0 40:1.0 56:1.0 63:1.0 67:1.0 73:1.0 74:1.0 76:1.0 82:1.0 83:1.0 
-0.2971606999220845 4:1.0 6:1.0 14:1.0 20:1.0 37:1.0 42:1.0 55:1.0 62:1.0 67:1.0 72:1.0 74:1.0 76:1.0 80:1.0 83:1.0 
-0.31631488160805826 5:1.0 6:1.0 18:1.0 22:1.0 36:1.0 43:1.0 55:1.0 64:1.0 67:1.0 72:1.0 74:1.0 76:1.0 78:1.0 83:1.0 
-0.12433540820009088 1:1.0 6:1.0 15:1.0 20:1.0 37:1.0 42:1.0 55:1.0 62:1.0 67:1.0 73:1.0 74:1.0 76:1.0 78:1.0 83:1.0 
-0.3124777985844072 3:1.0 11:1.0 14:1.0 20:1.0 37:1.0 40:1.0 51:1.0 63:1.0 67:1.0 73:1.0 74:1.0 76:1.0 80:1.0 83:1.0 
-0.3258306875418424 3:1.0 6:1.0 17:1.0 24:1.0 38:1.0 42:1.0 55:1.0 62:1.0 67:1.0 72:1.0 74:1.0 76:1.0 81:1.0 83:1.0 
-0.3073019908091167 1:1.0 6:1.0 18:1.0 22:1.0 36:1.0 41:1.0 48:1.0 64:1.0 67:1.0 73:1.0 74:1.0 76:1.0 82:1.0 83:1.0 
-0.3300754226714219 3:1.0 6:1.0 14:1.0 20:1.0 37:1.0 40:1.0 48:1.0 63:1.0 67:1.0 73:1.0 74:1.0 77:1.0 81:1.0 83:1.0 
-0.3325846241851461 1:1.0 6:1.0 14:1.0 25:1.0 38:1.0 42:1.0 59:1.0 64:1.0 67:1.0 73:1.0 74:1.0 76:1.0 82:1.0 83:1.0 
-0.3122267435780477 1:1.0 6:1.0 17:1.0 21:1.0 35:1.0 42:1.0 55:1.0 62:1.0 68:1.0 72:1.0 74:1.0 76:1.0 78:1.0 83:1.0 
-0.32009601096748336 2:1.0 6:1.0 14:1.0 20:1.0 37:1.0 41:1.0 51:1.0 66:1.0 67:1.0 72:1.0 74:1.0 76:1.0 80:1.0 83:1.0 
-0.3246229820995089 5:1.0 11:1.0 14:1.0 22:1.0 36:1.0 41:1.0 51:1.0 64:1.0 67:1.0 72:1.0 74:1.0 76:1.0 82:1.0 83:1.0 
-0.3190472788576978 4:1.0 6:1.0 14:1.0 22:1.0 36:1.0 42:1.0 49:1.0 64:1.0 71:1.0 72:1.0 74:1.0 76:1.0 81:1.0 83:1.0 
-0.33409724942386404 5:1.0 6:1.0 15:1.0 26:1.0 35:1.0 41:1.0 49:1.0 64:1.0 67:1.0 72:1.0 74:1.0 76:1.0 79:1.0 87:1.0 
-0.2805847189682484 2:1.0 6:1.0 17:1.0 22:1.0 36:1.0 42:1.0 49:1.0 64:1.0 67:1.0 72:1.0 74:1.0 76:1.0 79:1.0 83:1.0 
-0.23953588462148837 3:1.0 6:1.0 17:1.0 22:1.0 36:1.0 42:1.0 54:1.0 64:1.0 67:1.0 72:1.0 74:1.0 76:1.0 80:1.0 83:1.0 
-0.2775745072614492 1:1.0 6:1.0 16:1.0 22:1.0 36:1.0 42:1.0 48:1.0 65:1.0 67:1.0 73:1.0 74:1.0 76:1.0 80:1.0 83:1.0 
-0.327816626458054 2:1.0 11:1.0 16:1.0 19:1.0 39:1.0 42:1.0 55:1.0 64:1.0 67:1.0 73:1.0 74:1.0 76:1.0 79:1.0 83:1.0 
-0.320294544209015 2:1.0 6:1.0 18:1.0 20:1.0 37:1.0 41:1.0 55:1.0 64:1.0 67:1.0 72:1.0 74:1.0 76:1.0 81:1.0 83:1.0 
-0.3288050529428454 1:1.0 6:1.0 18:1.0 22:1.0 36:1.0 42:1.0 49:1.0 66:1.0 67:1.0 73:1.0 74:1.0 76:1.0 80:1.0 119:1.0 
-0.3242714118184053 2:1.0 6:1.0 16:1.0 20:1.0 37:1.0 42:1.0 50:1.0 64:1.0 71:1.0 72:1.0 74:1.0 76:1.0 79:1.0 83:1.0 
-0.32133426029455564 3:1.0 6:1.0 14:1.0 22:1.0 36:1.0 42:1.0 48:1.0 66:1.0 67:1.0 73:1.0 74:1.0 76:1.0 79:1.0 83:1.0 
-0.3264594835152651 2:1.0 6:1.0 18:1.0 22:1.0 36:1.0 42:1.0 56:1.0 62:1.0 71:1.0 73:1.0 74:1.0 76:1.0 78:1.0 83:1.0 
-0.3343437542279024 5:1.0 6:1.0 16:1.0 20:1.0 37:1.0 42:1.0 55:1.0 65:1.0 71:1.0 72:1.0 74:1.0 76:1.0 80:1.0 101:1.0 
-0.331970324130728 4:1.0 10:1.0 15:1.0 29:1.0 39:1.0 41:1.0 52:1.0 64:1.0 67:1.0 72:1.0 74:1.0 76:1.0 78:1.0 83:1.0 
-0.3335598388182726 2:1.0 7:1.0 17:1.0 25:1.0 38:1.0 41:1.0 50:1.0 66:1.0 67:1.0 73:1.0 74:1.0 76:1.0 82:1.0 83:1.0 
-0.33895774832583475 2:1.0 9:1.0 16:1.0 24:1.0 38:1.0 40:1.0 55:1.0 63:1.0 67:1.0 73:1.0 74:1.0 76:1.0 82:1.0 83:1.0 
-0.12180894888485166 1:1.0 6:1.0 16:1.0 20:1.0 37:1.0 42:1.0 55:1.0 64:1.0 67:1.0 72:1.0 74:1.0 76:1.0 80:1.0 83:1.0 
-0.31012336729434564 1:1.0 6:1.0 18:1.0 31:1.0 35:1.0 42:1.0 50:1.0 65:1.0 67:1.0 72:1.0 74:1.0 76:1.0 78:1.0 83:1.0 
-0.3195870110502657 5:1.0 6:1.0 15:1.0 20:1.0 37:1.0 44:1.0 48:1.0 64:1.0 67:1.0 73:1.0 74:1.0 76:1.0 80:1.0 83:1.0 
-0.3350125702633866 5:1.0 10:1.0 16:1.0 19:1.0 39:1.0 43:1.0 52:1.0 64:1.0 67:1.0 73:1.0 74:1.0 76:1.0 78:1.0 
-0.32379722961884433 4:1.0 6:1.0 15:1.0 22:1.0 36:1.0 42:1.0 50:1.0 64:1.0 71:1.0 72:1.0 74:1.0 76:1.0 81:1.0 83:1.0 
-0.5518177740204909 3:1.0 10:1.0 17:1.0 19:1.0 39:1.0 40:1.0 55:1.0 63:1.0 67:1.0 73:1.0 74:1.0 76:1.0 80:1.0 83:1.0 
-0.2543268542226634 3:1.0 6:1.0 15:1.0 22:1.0 36:1.0 42:1.0 50:1.0 64:1.0 67:1.0 73:1.0 74:1.0 76:1.0 80:1.0 83:1.0 
-0.3300847673610111 2:1.0 11:1.0 15:1.0 29:1.0 39:1.0 42:1.0 55:1.0 64:1.0 67:1.0 73:1.0 74:1.0 76:1.0 78:1.0 83:1.0 
-0.2915245340426952 5:1.0 10:1.0 15:1.0 20:1.0 37:1.0 41:1.0 55:1.0 66:1.0 67:1.0 72:1.0 74:1.0 76:1.0 80:1.0 83:1.0 
-0.317238811571798 1:1.0 6:1.0 18:1.0 31:1.0 35:1.0 43:1.0 49:1.0 62:1.0 67:1.0 72:1.0 74:1.0 76:1.0 78:1.0 83:1.0 
-0.27261137487952025 2:1.0 7:1.0 15:1.0 22:1.0 36:1.0 40:1.0 48:1.0 63:1.0 67:1.0 73:1.0 74:1.0 76:1.0 80:1.0 83:1.0 
-0.3812004795361683 5:1.0 8:1.0 14:1.0 19:1.0 39:1.0 40:1.0 54:1.0 63:1.0 67:1.0 73:1.0 75:1.0 76:1.0 78:1.0 83:1.0 
-0.3165574657683935 5:1.0 6:1.0 17:1.0 20:1.0 37:1.0 41:1.0 50:1.0 66:1.0 67:1.0 72:1.0 74:1.0 76:1.0 82:1.0 83:1.0 
-0.3012999113985715 3:1.0 6:1.0 14:1.0 22:1.0 36:1.0 41:1.0 50:1.0 64:1.0 67:1.0 72:1.0 74:1.0 76:1.0 82:1.0 83:1.0 
-1.0 5:1.0 16:1.0 22:1.0 36:1.0 40:1.0 63:1.0 67:1.0 73:1.0 74:1.0 76:1.0 80:1.0 83:1.0 
-0.34024687093415323 3:1.0 6:1.0 15:1.0 19:1.0 39:1.0 40:1.0 52:1.0 63:1.0 68:1.0 73:1.0 74:1.0 76:1.0 81:1.0 
-0.22646803360019085 1:1.0 6:1.0 17:1.0 20:1.0 37:1.0 42:1.0 49:1.0 64:1.0 67:1.0 72:1.0 74:1.0 76:1.0 80:1.0 83:1.0 
-0.3276871759341835 2:1.0 6:1.0 17:1.0 33:1.0 35:1.0 42:1.0 57:1.0 64:1.0 67:1.0 73:1.0 74:1.0 76:1.0 80:1.0 103:1.0 
-0.3301024545701038 1:1.0 6:1.0 15:1.0 29:1.0 39:1.0 42:1.0 50:1.0 64:1.0 67:1.0 73:1.0 74:1.0 76:1.0 78:1.0 83:1.0 
-0.3345881518503626 4:1.0 9:1.0 18:1.0 21:1.0 35:1.0 42:1.0 47:1.0 64:1.0 67:1.0 73:1.0 74:1.0 77:1.0 80:1.0 83:1.0 
-0.2821573773592483 1:1.0 11:1.0 18:1.0 20:1.0 37:1.0 42:1.0 55:1.0 64:1.0 67:1.0 72:1.0 74:1.0 76:1.0 78:1.0 83:1.0 
-0.3334720464292807 3:1.0 7:1.0 17:1.0 20:1.0 37:1.0 43:1.0 49:1.0 62:1.0 67:1.0 72:1.0 74:1.0 76:1.0 80:1.0 95:1.0 
-0.3340882840094157 3:1.0 6:1.0 18:1.0 23:1.0 39:1.0 42:1.0 52:1.0 64:1.0 67:1.0 73:1.0 74:1.0 76:1.0 82:1.0 83:1.0 
-0.32977681365356437 2:1.0 6:1.0 17:1.0 20:1.0 37:1.0 42:1.0 52:1.0 64:1.0 67:1.0 73:1.0 74:1.0 77:1.0 80:1.0 
-0.2648308388046534 1:1.0 6:1.0 18:1.0 20:1.0 37:1.0 42:1.0 49:1.0 62:1.0 67:1.0 73:1.0 74:1.0 76:1.0 79:1.0 83:1.0 
-0.5326590822541245 3:1.0 6:1.0 16:1.0 20:1.0 37:1.0 40:1.0 52:1.0 63:1.0 67:1.0 73:1.0 74:1.0 76:1.0 82:1.0 83:1.0 
-0.32296813938945523 3:1.0 6:1.0 15:1.0 21:1.0 35:1.0 40:1.0 48:1.0 63:1.0 67:1.0 73:1.0 74:1.0 76:1.0 82:1.0 83:1.0 
-1.0 2:1.0 9:1.0 18:1.0 19:1.0 39:1.0 40:1.0 51:1.0 63:1.0 67:1.0 73:1.0 74:1.0 76:1.0 80:1.0 83:1.0 
-0.43094744055707834 4:1.0 16:1.0 22:1.0 36:1.0 40:1.0 63:1.0 67:1.0 73:1.0 74:1.0 76:1.0 80:1.0 83:1.0 
-0.3149326541538258 2:1.0 6:1.0 17:1.0 22:1.0 36:1.0 42:1.0 59:1.0 65:1.0 71:1.0 73:1.0 74:1.0 76:1.0 80:1.0 83:1.0 
-0.3339412410467514 1:1.0 9:1.0 14:1.0 22:1.0 36:1.0 46:1.0 50:1.0 61:1.0 67:1.0 72:1.0 74:1.0 76:1.0 80:1.0 83:1.0 
-0.32575160775226925 3:1.0 6:1.0 14:1.0 22:1.0 36:1.0 43:1.0 55:1.0 66:1.0 67:1.0 72:1.0 74:1.0 76:1.0 81:1.0 83:1.0 
-0.3315408107429858 2:1.0 10:1.0 15:1.0 29:1.0 39:1.0 42:1.0 55:1.0 64:1.0 67:1.0 72:1.0 74:1.0 76:1.0 80:1.0 83:1.0 
-0.33450587331722537 2:1.0 6:1.0 18:1.0 34:1.0 35:1.0 42:1.0 49:1.0 65:1.0 67:1.0 72:1.0 74:1.0 76:1.0 79:1.0 103:1.0 
-0.21608920316228525 1:1.0 18:1.0 22:1.0 36:1.0 42:1.0 62:1.0 67:1.0 73:1.0 74:1.0 76:1.0 78:1.0 83:1.0 
-0.31518245187791827 2:1.0 11:1.0 14:1.0 19:1.0 39:1.0 42:1.0 52:1.0 64:1.0 67:1.0 73:1.0 74:1.0 76:1.0 78:1.0 83:1.0 
-0.3035105715528212 2:1.0 16:1.0 22:1.0 36:1.0 42:1.0 62:1.0 71:1.0 73:1.0 74:1.0 76:1.0 80:1.0 83:1.0 
-0.28177726662954306 1:1.0 11:1.0 15:1.0 20:1.0 37:1.0 42:1.0 49:1.0 62:1.0 67:1.0 73:1.0 74:1.0 76:1.0 80:1.0 83:1.0 
-0.20829047294100725 1:1.0 6:1.0 16:1.0 20:1.0 37:1.0 42:1.0 55:1.0 62:1.0 67:1.0 72:1.0 74:1.0 76:1.0 80:1.0 83:1.0 
-0.40063005006954444 4:1.0 6:1.0 17:1.0 22:1.0 36:1.0 40:1.0 50:1.0 63:1.0 67:1.0 73:1.0 74:1.0 76:1.0 80:1.0 83:1.0 
-0.2518249584090288 4:1.0 6:1.0 14:1.0 22:1.0 36:1.0 42:1.0 54:1.0 64:1.0 67:1.0 73:1.0 74:1.0 76:1.0 80:1.0 83:1.0 
-0.49416770694541134 3:1.0 6:1.0 18:1.0 19:1.0 39:1.0 40:1.0 50:1.0 61:1.0 67:1.0 72:1.0 74:1.0 76:1.0 78:1.0 83:1.0 
-0.35519266819774065 2:1.0 6:1.0 14:1.0 24:1.0 38:1.0 40:1.0 53:1.0 63:1.0 67:1.0 73:1.0 74:1.0 76:1.0 80:1.0 83:1.0 
-0.32542949486247785 4:1.0 6:1.0 15:1.0 22:1.0 36:1.0 45:1.0 48:1.0 64:1.0 67:1.0 73:1.0 74:1.0 76:1.0 80:1.0 100:1.0 
-0.3204175761913209 4:1.0 6:1.0 14:1.0 20:1.0 37:1.0 42:1.0 56:1.0 65:1.0 67:1.0 73:1.0 74:1.0 76:1.0 82:1.0 83:1.0 
-0.33302832497772233 5:1.0 6:1.0 17:1.0 21:1.0 35:1.0 41:1.0 48:1.0 65:1.0 67:1.0 72:1.0 74:1.0 76:1.0 80:1.0 83:1.0 
-0.4388451164345816 3:1.0 6:1.0 18:1.0 20:1.0 37:1.0 40:1.0 51:1.0 63:1.0 67:1.0 73:1.0 74:1.0 76:1.0 80:1.0 83:1.0 
-0.32023063421416015 1:1.0 6:1.0 14:1.0 22:1.0 36:1.0 43:1.0 49:1.0 62:1.0 67:1.0 72:1.0 74:1.0 76:1.0 79:1.0 83:1.0 
-0.24295796987726026 3:1.0 7:1.0 17:1.0 22:1.0 36:1.0 40:1.0 48:1.0 63:1.0 67:1.0 73:1.0 74:1.0 76:1.0 82:1.0 83:1.0 
-0.32202597475919836 5:1.0 16:1.0 22:1.0 36:1.0 40:1.0 63:1.0 71:1.0 73:1.0 74:1.0 76:1.0 78:1.0 83:1.0 
-0.3546748377031576 2:1.0 6:1.0 17:1.0 25:1.0 38:1.0 40:1.0 54:1.0 63:1.0 69:1.0 73:1.0 74:1.0 76:1.0 80:1.0 83:1.0 
-0.3323733931936967 3:1.0 10:1.0 18:1.0 24:1.0 38:1.0 41:1.0 52:1.0 64:1.0 67:1.0 73:1.0 74:1.0 76:1.0 82:1.0 83:1.0 
-0.4302266325978943 4:1.0 8:1.0 18:1.0 20:1.0 37:1.0 40:1.0 50:1.0 63:1.0 67:1.0 73:1.0 74:1.0 76:1.0 82:1.0 83:1.0 
-0.2970194239595317 5:1.0 6:1.0 14:1.0 22:1.0 36:1.0 41:1.0 49:1.0 64:1.0 67:1.0 72:1.0 74:1.0 76:1.0 79:1.0 83:1.0 
-0.29453094899967996 2:1.0 6:1.0 16:1.0 22:1.0 36:1.0 40:1.0 57:1.0 63:1.0 67:1.0 73:1.0 74:1.0 76:1.0 82:1.0 83:1.0 
-0.35079581025540535 3:1.0 6:1.0 18:1.0 22:1.0 36:1.0 41:1.0 51:1.0 66:1.0 67:1.0 72:1.0 74:1.0 77:1.0 82:1.0 83:1.0 
-0.04339597691935258 1:1.0 6:1.0 18:1.0 20:1.0 37:1.0 42:1.0 49:1.0 62:1.0 67:1.0 73:1.0 74:1.0 76:1.0 78:1.0 83:1.0 
-0.2832660788511803 1:1.0 6:1.0 15:1.0 22:1.0 36:1.0 42:1.0 53:1.0 62:1.0 71:1.0 72:1.0 74:1.0 76:1.0 78:1.0 83:1.0 
-0.5765562913910607 4:1.0 6:1.0 15:1.0 22:1.0 36:1.0 40:1.0 50:1.0 63:1.0 67:1.0 73:1.0 74:1.0 76:1.0 80:1.0 83:1.0 
-0.324735621738632 1:1.0 6:1.0 17:1.0 22:1.0 36:1.0 42:1.0 52:1.0 64:1.0 67:1.0 72:1.0 74:1.0 76:1.0 80:1.0 87:1.0 
-0.32449558636131126 4:1.0 6:1.0 17:1.0 33:1.0 35:1.0 40:1.0 57:1.0 63:1.0 67:1.0 73:1.0 74:1.0 76:1.0 79:1.0 103:1.0 
-0.3193923489995623 2:1.0 6:1.0 18:1.0 20:1.0 37:1.0 41:1.0 53:1.0 64:1.0 67:1.0 73:1.0 74:1.0 76:1.0 82:1.0 83:1.0 
-0.2518012542668779 2:1.0 6:1.0 18:1.0 22:1.0 36:1.0 40:1.0 57:1.0 63:1.0 67:1.0 73:1.0 74:1.0 76:1.0 81:1.0 83:1.0 
-0.48011874762549833 3:1.0 6:1.0 14:1.0 22:1.0 36:1.0 40:1.0 48:1.0 63:1.0 67:1.0 73:1.0 74:1.0 77:1.0 80:1.0 83:1.0 
-0.36359099237125236 2:1.0 6:1.0 15:1.0 20:1.0 37:1.0 40:1.0 55:1.0 63:1.0 67:1.0 73:1.0 74:1.0 76:1.0 78:1.0 83:1.0 
-0.33359357551561775 2:1.0 10:1.0 15:1.0 22:1.0 36:1.0 42:1.0 59:1.0 65:1.0 71:1.0 73:1.0 74:1.0 77:1.0 80:1.0 83:1.0 
-0.41796985703262 2:1.0 6:1.0 17:1.0 19:1.0 39:1.0 40:1.0 49:1.0 63:1.0 67:1.0 73:1.0 74:1.0 76:1.0 82:1.0 83:1.0 
-0.3268101105765156 3:1.0 11:1.0 15:1.0 19:1.0 39:1.0 42:1.0 52:1.0 66:1.0 67:1.0 72:1.0 74:1.0 76:1.0 78:1.0 83:1.0 
-0.31243640134511735 5:1.0 6:1.0 16:1.0 20:1.0 37:1.0 41:1.0 50:1.0 64:1.0 67:1.0 72:1.0 74:1.0 76:1.0 82:1.0 83:1.0 
-0.26530922136568413 1:1.0 16:1.0 20:1.0 37:1.0 42:1.0 62:1.0 71:1.0 73:1.0 74:1.0 76:1.0 78:1.0 83:1.0 
-0.34112304065718846 5:1.0 6:1.0 15:1.0 22:1.0 36:1.0 40:1.0 49:1.0 63:1.0 71:1.0 73:1.0 74:1.0 76:1.0 82:1.0 85:1.0 
-0.3235991472445851 5:1.0 6:1.0 14:1.0 29:1.0 39:1.0 41:1.0 52:1.0 64:1.0 67:1.0 72:1.0 74:1.0 76:1.0 80:1.0 83:1.0 
-0.32611760164782644 4:1.0 14:1.0 22:1.0 36:1.0 43:1.0 66:1.0 67:1.0 72:1.0 74:1.0 76:1.0 78:1.0 83:1.0 
-0.29408576834964784 4:1.0 6:1.0 18:1.0 21:1.0 35:1.0 40:1.0 57:1.0 63:1.0 67:1.0 73:1.0 74:1.0 77:1.0 80:1.0 83:1.0 
-0.24390900246300182 1:1.0 6:1.0 17:1.0 20:1.0 37:1.0 42:1.0 50:1.0 62:1.0 67:1.0 72:1.0 74:1.0 76:1.0 80:1.0 83:1.0 
-0.18350815334202505 3:1.0 6:1.0 17:1.0 22:1.0 36:1.0 42:1.0 55:1.0 64:1.0 67:1.0 72:1.0 74:1.0 76:1.0 80:1.0 83:1.0 
-0.28942614574879666 2:1.0 6:1.0 16:1.0 22:1.0 36:1.0 42:1.0 53:1.0 62:1.0 67:1.0 72:1.0 74:1.0 76:1.0 80:1.0 83:1.0 
-0.28200080934453525 2:1.0 6:1.0 14:1.0 22:1.0 36:1.0 40:1.0 51:1.0 63:1.0 67:1.0 73:1.0 74:1.0 76:1.0 82:1.0 83:1.0 
-0.2880288794729303 1:1.0 6:1.0 16:1.0 20:1.0 37:1.0 42:1.0 53:1.0 64:1.0 67:1.0 73:1.0 74:1.0 76:1.0 78:1.0 83:1.0 
-0.33416154646220825 4:1.0 11:1.0 15:1.0 22:1.0 36:1.0 40:1.0 59:1.0 63:1.0 67:1.0 73:1.0 74:1.0 76:1.0 80:1.0 83:1.0 
-0.3544152652986673 5:1.0 7:1.0 15:1.0 25:1.0 38:1.0 40:1.0 56:1.0 63:1.0 67:1.0 73:1.0 74:1.0 76:1.0 80:1.0 83:1.0 
-0.3403280434264612 4:1.0 8:1.0 16:1.0 19:1.0 39:1.0 42:1.0 50:1.0 64:1.0 67:1.0 73:1.0 75:1.0 76:1.0 82:1.0 83:1.0 
-0.31798729898004857 1:1.0 6:1.0 17:1.0 21:1.0 35:1.0 40:1.0 48:1.0 63:1.0 67:1.0 73:1.0 74:1.0 76:1.0 82:1.0 83:1.0 
-0.32176696145602907 3:1.0 6:1.0 16:1.0 22:1.0 36:1.0 40:1.0 57:1.0 63:1.0 67:1.0 73:1.0 75:1.0 76:1.0 80:1.0 83:1.0 
-0.3232396998297808 1:1.0 6:1.0 17:1.0 22:1.0 36:1.0 40:1.0 56:1.0 63:1.0 67:1.0 73:1.0 74:1.0 76:1.0 80:1.0 83:1.0 
-0.2778313179825666 1:1.0 18:1.0 20:1.0 37:1.0 42:1.0 62:1.0 67:1.0 72:1.0 74:1.0 76:1.0 79:1.0 83:1.0 
-0.3249529764615412 1:1.0 6:1.0 15:1.0 20:1.0 37:1.0 42:1.0 55:1.0 62:1.0 68:1.0 72:1.0 74:1.0 76:1.0 80:1.0 102:1.0 
-0.278275922830166 5:1.0 6:1.0 14:1.0 22:1.0 36:1.0 44:1.0 49:1.0 66:1.0 67:1.0 72:1.0 74:1.0 76:1.0 78:1.0 83:1.0 
-0.31170501221089997 1:1.0 6:1.0 17:1.0 19:1.0 39:1.0 42:1.0 50:1.0 64:1.0 67:1.0 72:1.0 74:1.0 76:1.0 81:1.0 83:1.0 
-0.2846849979677219 1:1.0 6:1.0 17:1.0 20:1.0 37:1.0 42:1.0 50:1.0 64:1.0 67:1.0 73:1.0 74:1.0 76:1.0 81:1.0 83:1.0 
-0.26385970098933065 5:1.0 6:1.0 14:1.0 22:1.0 36:1.0 42:1.0 55:1.0 66:1.0 67:1.0 72:1.0 74:1.0 76:1.0 80:1.0 83:1.0 
-0.2781683067878697 1:1.0 6:1.0 14:1.0 22:1.0 36:1.0 42:1.0 53:1.0 62:1.0 67:1.0 73:1.0 74:1.0 76:1.0 79:1.0 83:1.0 
-0.3160425612984392 1:1.0 6:1.0 16:1.0 28:1.0 35:1.0 42:1.0 50:1.0 64:1.0 67:1.0 72:1.0 74:1.0 76:1.0 78:1.0 
-0.291650134371356 5:1.0 6:1.0 15:1.0 20:1.0 37:1.0 44:1.0 51:1.0 66:1.0 67:1.0 72:1.0 74:1.0 76:1.0 80:1.0 83:1.0 
-0.3166142073783859 4:1.0 7:1.0 17:1.0 27:1.0 35:1.0 40:1.0 48:1.0 63:1.0 67:1.0 73:1.0 74:1.0 76:1.0 80:1.0 99:1.0 
-0.33407436799373946 2:1.0 7:1.0 17:1.0 22:1.0 36:1.0 41:1.0 56:1.0 66:1.0 67:1.0 73:1.0 74:1.0 76:1.0 82:1.0 83:1.0 
-0.3349302131130661 2:1.0 6:1.0 18:1.0 20:1.0 37:1.0 40:1.0 50:1.0 63:1.0 70:1.0 73:1.0 74:1.0 76:1.0 82:1.0 
-0.33517966571636304 2:1.0 9:1.0 14:1.0 25:1.0 38:1.0 42:1.0 52:1.0 65:1.0 68:1.0 73:1.0 74:1.0 76:1.0 80:1.0 83:1.0 
-0.3745673992817214 5:1.0 7:1.0 15:1.0 20:1.0 37:1.0 40:1.0 51:1.0 63:1.0 67:1.0 73:1.0 74:1.0 76:1.0 78:1.0 83:1.0 
-0.25116315014380036 1:1.0 6:1.0 14:1.0 24:1.0 38:1.0 42:1.0 55:1.0 64:1.0 67:1.0 72:1.0 74:1.0 76:1.0 80:1.0 83:1.0 
-0.39429095058143215 2:1.0 6:1.0 15:1.0 20:1.0 37:1.0 40:1.0 48:1.0 63:1.0 67:1.0 73:1.0 74:1.0 76:1.0 80:1.0 83:1.0 
-0.3350778996664244 1:1.0 6:1.0 18:1.0 27:1.0 35:1.0 42:1.0 56:1.0 66:1.0 70:1.0 73:1.0 74:1.0 76:1.0 79:1.0 103:1.0 
-0.3244878582749418 4:1.0 7:1.0 14:1.0 20:1.0 37:1.0 42:1.0 56:1.0 62:1.0 67:1.0 73:1.0 74:1.0 76:1.0 82:1.0 83:1.0 
-0.3279899768663079 1:1.0 6:1.0 17:1.0 20:1.0 37:1.0 42:1.0 48:1.0 65:1.0 68:1.0 72:1.0 74:1.0 76:1.0 80:1.0 84:1.0 
-0.21563870936168683 1:1.0 6:1.0 18:1.0 22:1.0 36:1.0 40:1.0 54:1.0 63:1.0 67:1.0 73:1.0 74:1.0 76:1.0 80:1.0 83:1.0 
-0.3141460084658358 3:1.0 6:1.0 18:1.0 22:1.0 36:1.0 40:1.0 48:1.0 63:1.0 67:1.0 73:1.0 74:1.0 76:1.0 81:1.0 83:1.0 
-0.32961410446810613 4:1.0 6:1.0 18:1.0 22:1.0 36:1.0 41:1.0 49:1.0 66:1.0 71:1.0 73:1.0 74:1.0 76:1.0 78:1.0 83:1.0 
-0.2972519202824612 2:1.0 6:1.0 18:1.0 20:1.0 37:1.0 42:1.0 50:1.0 64:1.0 67:1.0 73:1.0 74:1.0 76:1.0 81:1.0 83:1.0 
-0.31893218476954815 2:1.0 10:1.0 17:1.0 20:1.0 37:1.0 42:1.0 55:1.0 64:1.0 67:1.0 73:1.0 74:1.0 76:1.0 80:1.0 83:1.0 
-0.32539629033624656 3:1.0 6:1.0 18:1.0 31:1.0 35:1.0 40:1.0 56:1.0 63:1.0 67:1.0 73:1.0 74:1.0 76:1.0 79:1.0 103:1.0 
-0.334672297859475 3:1.0 7:1.0 18:1.0 30:1.0 35:1.0 45:1.0 48:1.0 64:1.0 67:1.0 73:1.0 74:1.0 76:1.0 80:1.0 103:1.0 
-0.3242769720101133 4:1.0 6:1.0 18:1.0 30:1.0 35:1.0 42:1.0 49:1.0 62:1.0 67:1.0 73:1.0 74:1.0 76:1.0 78:1.0 83:1.0 
-0.3024793047803178 2:1.0 6:1.0 18:1.0 19:1.0 39:1.0 40:1.0 48:1.0 63:1.0 67:1.0 73:1.0 74:1.0 76:1.0 80:1.0 83:1.0 
-0.332478306236592 4:1.0 10:1.0 16:1.0 22:1.0 36:1.0 41:1.0 57:1.0 64:1.0 71:1.0 72:1.0 74:1.0 76:1.0 79:1.0 83:1.0 
-0.33404831775405686 5:1.0 6:1.0 15:1.0 25:1.0 38:1.0 44:1.0 52:1.0 64:1.0 67:1.0 72:1.0 74:1.0 76:1.0 79:1.0 83:1.0 
-0.24428613074936592 4:1.0 10:1.0 15:1.0 20:1.0 37:1.0 41:1.0 55:1.0 66:1.0 67:1.0 72:1.0 74:1.0 76:1.0 80:1.0 83:1.0 
-0.290089285891186 2:1.0 6:1.0 17:1.0 20:1.0 37:1.0 42:1.0 50:1.0 65:1.0 67:1.0 72:1.0 74:1.0 76:1.0 78:1.0 83:1.0 
-0.2548825913189746 1:1.0 6:1.0 17:1.0 19:1.0 39:1.0 42:1.0 51:1.0 64:1.0 67:1.0 73:1.0 74:1.0 76:1.0 80:1.0 83:1.0 
-0.2473957289464108 1:1.0 6:1.0 14:1.0 20:1.0 37:1.0 42:1.0 53:1.0 64:1.0 67:1.0 73:1.0 74:1.0 76:1.0 82:1.0 83:1.0 
-0.334705835287323 1:1.0 6:1.0 18:1.0 26:1.0 35:1.0 43:1.0 53:1.0 65:1.0 67:1.0 73:1.0 74:1.0 76:1.0 80:1.0 119:1.0 
-0.2812984299960309 1:1.0 6:1.0 18:1.0 31:1.0 35:1.0 42:1.0 50:1.0 62:1.0 67:1.0 73:1.0 74:1.0 76:1.0 78:1.0 83:1.0 
-0.7829710549869976 2:1.0 6:1.0 18:1.0 19:1.0 39:1.0 40:1.0 51:1.0 63:1.0 67:1.0 73:1.0 74:1.0 76:1.0 80:1.0 83:1.0 
-0.3275798392942116 5:1.0 10:1.0 18:1.0 29:1.0 39:1.0 44:1.0 52:1.0 64:1.0 67:1.0 72:1.0 74:1.0 76:1.0 80:1.0 83:1.0 
-0.33234064169620575 2:1.0 6:1.0 15:1.0 19:1.0 39:1.0 42:1.0 55:1.0 62:1.0 67:1.0 72:1.0 74:1.0 76:1.0 78:1.0 119:1.0 
-0.32140011078218805 5:1.0 6:1.0 15:1.0 33:1.0 35:1.0 40:1.0 53:1.0 63:1.0 67:1.0 73:1.0 74:1.0 76:1.0 82:1.0 
-0.32258885769025747 2:1.0 6:1.0 18:1.0 22:1.0 36:1.0 43:1.0 57:1.0 64:1.0 67:1.0 73:1.0 74:1.0 76:1.0 81:1.0 83:1.0 
-0.3073048303260351 2:1.0 6:1.0 14:1.0 22:1.0 36:1.0 42:1.0 49:1.0 62:1.0 67:1.0 72:1.0 74:1.0 76:1.0 79:1.0 83:1.0 
-0.35472580980651736 4:1.0 7:1.0 17:1.0 19:1.0 39:1.0 40:1.0 51:1.0 63:1.0 67:1.0 73:1.0 74:1.0 76:1.0 82:1.0 88:1.0 
-0.3726314438634028 2:1.0 6:1.0 18:1.0 22:1.0 36:1.0 40:1.0 51:1.0 61:1.0 67:1.0 72:1.0 74:1.0 76:1.0 80:1.0 83:1.0 
-0.4376613980194067 3:1.0 7:1.0 18:1.0 22:1.0 36:1.0 40:1.0 51:1.0 63:1.0 67:1.0 73:1.0 74:1.0 76:1.0 82:1.0 83:1.0 
-0.48622997621812825 4:1.0 6:1.0 18:1.0 20:1.0 37:1.0 40:1.0 47:1.0 63:1.0 67:1.0 73:1.0 74:1.0 76:1.0 80:1.0 83:1.0 
-0.358635726466528 3:1.0 6:1.0 16:1.0 19:1.0 39:1.0 40:1.0 49:1.0 61:1.0 67:1.0 72:1.0 74:1.0 76:1.0 80:1.0 83:1.0 
-0.1573960242350393 1:1.0 6:1.0 17:1.0 22:1.0 36:1.0 42:1.0 55:1.0 62:1.0 67:1.0 72:1.0 74:1.0 76:1.0 80:1.0 83:1.0 
-0.3291262374098032 5:1.0 6:1.0 15:1.0 20:1.0 37:1.0 41:1.0 48:1.0 64:1.0 67:1.0 73:1.0 75:1.0 76:1.0 80:1.0 83:1.0 
-0.002174854057838655 4:1.0 6:1.0 17:1.0 20:1.0 37:1.0 41:1.0 55:1.0 66:1.0 67:1.0 72:1.0 74:1.0 76:1.0 80:1.0 83:1.0 
-0.34932388300239414 3:1.0 10:1.0 17:1.0 20:1.0 37:1.0 40:1.0 48:1.0 63:1.0 67:1.0 73:1.0 74:1.0 77:1.0 80:1.0 83:1.0 
-0.332977472725305 3:1.0 6:1.0 16:1.0 22:1.0 36:1.0 42:1.0 58:1.0 66:1.0 71:1.0 72:1.0 74:1.0 76:1.0 78:1.0 
-0.30812064932883615 2:1.0 6:1.0 16:1.0 22:1.0 36:1.0 42:1.0 54:1.0 65:1.0 71:1.0 73:1.0 74:1.0 76:1.0 80:1.0 83:1.0 
-0.232407444959549 1:1.0 6:1.0 17:1.0 19:1.0 39:1.0 42:1.0 52:1.0 64:1.0 67:1.0 72:1.0 74:1.0 76:1.0 80:1.0 83:1.0 
-0.32765984177787494 3:1.0 6:1.0 14:1.0 19:1.0 39:1.0 42:1.0 50:1.0 62:1.0 71:1.0 72:1.0 74:1.0 76:1.0 80:1.0 83:1.0 
-0.30872553075599257 1:1.0 6:1.0 18:1.0 21:1.0 35:1.0 42:1.0 57:1.0 62:1.0 67:1.0 73:1.0 74:1.0 76:1.0 82:1.0 83:1.0 
-0.2369522550834948 4:1.0 6:1.0 15:1.0 22:1.0 36:1.0 42:1.0 54:1.0 64:1.0 67:1.0 73:1.0 74:1.0 76:1.0 80:1.0 83:1.0 
-0.3401021052319272 1:1.0 10:1.0 16:1.0 20:1.0 37:1.0 40:1.0 56:1.0 63:1.0 67:1.0 73:1.0 74:1.0 76:1.0 80:1.0 83:1.0 
-0.3340040060003378 5:1.0 8:1.0 17:1.0 19:1.0 39:1.0 43:1.0 50:1.0 64:1.0 67:1.0 72:1.0 74:1.0 76:1.0 78:1.0 83:1.0 
-0.30501879099364754 4:1.0 6:1.0 14:1.0 22:1.0 36:1.0 41:1.0 54:1.0 64:1.0 67:1.0 72:1.0 74:1.0 76:1.0 78:1.0 83:1.0 
-0.1530321137863506 1:1.0 6:1.0 14:1.0 20:1.0 37:1.0 42:1.0 50:1.0 62:1.0 67:1.0 72:1.0 74:1.0 76:1.0 78:1.0 83:1.0 
-0.3256868625378878 5:1.0 8:1.0 15:1.0 20:1.0 37:1.0 41:1.0 51:1.0 64:1.0 67:1.0 73:1.0 74:1.0 76:1.0 82:1.0 83:1.0 
-0.34051291633677316 2:1.0 11:1.0 18:1.0 22:1.0 36:1.0 40:1.0 59:1.0 63:1.0 67:1.0 73:1.0 74:1.0 76:1.0 81:1.0 83:1.0 
-0.33348607399466396 1:1.0 10:1.0 15:1.0 20:1.0 37:1.0 43:1.0 59:1.0 64:1.0 67:1.0 73:1.0 74:1.0 76:1.0 82:1.0 83:1.0 
-0.26584004556682855 5:1.0 6:1.0 17:1.0 20:1.0 37:1.0 40:1.0 48:1.0 63:1.0 67:1.0 73:1.0 74:1.0 76:1.0 80:1.0 83:1.0 
-0.28961527971732903 5:1.0 6:1.0 18:1.0 31:1.0 35:1.0 41:1.0 48:1.0 64:1.0 67:1.0 73:1.0 74:1.0 76:1.0 80:1.0 83:1.0 
-0.25104181589191205 5:1.0 6:1.0 16:1.0 22:1.0 36:1.0 41:1.0 49:1.0 64:1.0 67:1.0 72:1.0 74:1.0 76:1.0 78:1.0 83:1.0 
-0.2963198929347856 2:1.0 6:1.0 18:1.0 22:1.0 36:1.0 40:1.0 57:1.0 63:1.0 71:1.0 73:1.0 74:1.0 76:1.0 80:1.0 83:1.0 
-0.2539953764315131 1:1.0 6:1.0 14:1.0 20:1.0 37:1.0 42:1.0 52:1.0 64:1.0 67:1.0 73:1.0 74:1.0 76:1.0 79:1.0 83:1.0 
-0.1979411626138517 2:1.0 6:1.0 16:1.0 19:1.0 39:1.0 42:1.0 52:1.0 64:1.0 67:1.0 72:1.0 74:1.0 76:1.0 80:1.0 83:1.0 
-0.2168298677741224 1:1.0 6:1.0 14:1.0 21:1.0 35:1.0 42:1.0 49:1.0 62:1.0 67:1.0 73:1.0 74:1.0 76:1.0 78:1.0 83:1.0 
-0.2031150460420112 1:1.0 6:1.0 17:1.0 20:1.0 37:1.0 42:1.0 50:1.0 65:1.0 67:1.0 72:1.0 74:1.0 76:1.0 78:1.0 83:1.0 
-0.3079757922657546 3:1.0 6:1.0 16:1.0 22:1.0 36:1.0 40:1.0 57:1.0 63:1.0 67:1.0 73:1.0 74:1.0 76:1.0 78:1.0 83:1.0 
-0.3351987845706394 5:1.0 7:1.0 18:1.0 22:1.0 36:1.0 44:1.0 51:1.0 66:1.0 68:1.0 72:1.0 74:1.0 76:1.0 82:1.0 93:1.0 
-0.3153884295105998 1:1.0 6:1.0 18:1.0 31:1.0 35:1.0 42:1.0 56:1.0 62:1.0 67:1.0 73:1.0 74:1.0 76:1.0 79:1.0 83:1.0 
-0.3260504714971577 2:1.0 6:1.0 15:1.0 22:1.0 36:1.0 42:1.0 49:1.0 66:1.0 71:1.0 72:1.0 74:1.0 76:1.0 78:1.0 83:1.0 
-0.3338821135237763 2:1.0 6:1.0 15:1.0 27:1.0 35:1.0 44:1.0 55:1.0 64:1.0 67:1.0 72:1.0 74:1.0 76:1.0 79:1.0 83:1.0 
-0.33492051216545676 2:1.0 11:1.0 17:1.0 23:1.0 39:1.0 42:1.0 52:1.0 64:1.0 68:1.0 73:1.0 75:1.0 76:1.0 82:1.0 90:1.0 
-0.3308042924650812 3:1.0 7:1.0 15:1.0 20:1.0 37:1.0 40:1.0 48:1.0 63:1.0 69:1.0 73:1.0 74:1.0 76:1.0 82:1.0 83:1.0 
-0.3297296329129269 3:1.0 17:1.0 25:1.0 38:1.0 42:1.0 62:1.0 67:1.0 72:1.0 74:1.0 76:1.0 80:1.0 83:1.0 
-0.27543068362493467 5:1.0 6:1.0 18:1.0 22:1.0 36:1.0 44:1.0 50:1.0 64:1.0 67:1.0 72:1.0 74:1.0 76:1.0 80:1.0 83:1.0 
-0.3234916527514304 2:1.0 6:1.0 18:1.0 33:1.0 35:1.0 40:1.0 56:1.0 63:1.0 67:1.0 73:1.0 74:1.0 76:1.0 78:1.0 103:1.0 
-0.13103225609175473 1:1.0 15:1.0 20:1.0 37:1.0 42:1.0 62:1.0 67:1.0 72:1.0 74:1.0 76:1.0 78:1.0 83:1.0 
-0.4179007459511511 4:1.0 6:1.0 18:1.0 22:1.0 36:1.0 40:1.0 50:1.0 63:1.0 67:1.0 73:1.0 75:1.0 76:1.0 82:1.0 83:1.0 
-0.32978999634211686 1:1.0 6:1.0 18:1.0 19:1.0 39:1.0 42:1.0 47:1.0 64:1.0 71:1.0 73:1.0 74:1.0 76:1.0 80:1.0 
-0.3259116284166059 2:1.0 6:1.0 14:1.0 19:1.0 39:1.0 42:1.0 52:1.0 64:1.0 67:1.0 72:1.0 75:1.0 76:1.0 80:1.0 83:1.0 
-1.0 2:1.0 6:1.0 14:1.0 19:1.0 39:1.0 40:1.0 50:1.0 63:1.0 67:1.0 73:1.0 74:1.0 76:1.0 82:1.0 83:1.0 
-0.33457805701664894 3:1.0 11:1.0 17:1.0 20:1.0 37:1.0 41:1.0 51:1.0 64:1.0 71:1.0 72:1.0 74:1.0 76:1.0 80:1.0 83:1.0 
-0.3340366780745525 5:1.0 6:1.0 18:1.0 21:1.0 35:1.0 41:1.0 57:1.0 64:1.0 67:1.0 73:1.0 74:1.0 76:1.0 82:1.0 83:1.0 
-0.37601633862661155 5:1.0 6:1.0 16:1.0 22:1.0 36:1.0 40:1.0 52:1.0 63:1.0 67:1.0 73:1.0 75:1.0 76:1.0 80:1.0 83:1.0 
-0.33011415232749014 5:1.0 7:1.0 14:1.0 27:1.0 35:1.0 40:1.0 50:1.0 63:1.0 67:1.0 73:1.0 74:1.0 76:1.0 82:1.0 83:1.0 
-0.3225851789706521 3:1.0 6:1.0 16:1.0 22:1.0 36:1.0 43:1.0 51:1.0 62:1.0 67:1.0 73:1.0 74:1.0 76:1.0 80:1.0 83:1.0 
-0.3341813294978593 3:1.0 9:1.0 14:1.0 20:1.0 37:1.0 41:1.0 47:1.0 66:1.0 69:1.0 72:1.0 74:1.0 76:1.0 78:1.0 83:1.0 
-0.322144630206934 3:1.0 6:1.0 17:1.0 19:1.0 39:1.0 42:1.0 55:1.0 64:1.0 71:1.0 73:1.0 74:1.0 76:1.0 80:1.0 83:1.0 
-0.3230775005583968 4:1.0 6:1.0 15:1.0 20:1.0 37:1.0 41:1.0 49:1.0 66:1.0 71:1.0 72:1.0 74:1.0 76:1.0 80:1.0 83:1.0 
-0.34051832279829486 3:1.0 6:1.0 18:1.0 19:1.0 39:1.0 40:1.0 51:1.0 61:1.0 67:1.0 72:1.0 74:1.0 76:1.0 82:1.0 88:1.0 
-0.2828505968393962 1:1.0 16:1.0 25:1.0 38:1.0 42:1.0 62:1.0 67:1.0 73:1.0 74:1.0 76:1.0 80:1.0 83:1.0 
-0.23093917769752254 2:1.0 6:1.0 15:1.0 22:1.0 36:1.0 41:1.0 48:1.0 64:1.0 67:1.0 73:1.0 74:1.0 76:1.0 80:1.0 83:1.0 
-0.31013987662551507 1:1.0 6:1.0 16:1.0 22:1.0 36:1.0 42:1.0 49:1.0 62:1.0 67:1.0 72:1.0 75:1.0 76:1.0 78:1.0 83:1.0 
-0.3310967199639106 2:1.0 7:1.0 17:1.0 19:1.0 39:1.0 42:1.0 47:1.0 64:1.0 67:1.0 73:1.0 74:1.0 76:1.0 81:1.0 83:1.0 
-0.7381718696382062 2:1.0 6:1.0 17:1.0 19:1.0 39:1.0 40:1.0 52:1.0 63:1.0 67:1.0 73:1.0 74:1.0 76:1.0 80:1.0 83:1.0 
-0.33249780959551073 4:1.0 11:1.0 18:1.0 19:1.0 39:1.0 41:1.0 59:1.0 64:1.0 67:1.0 72:1.0 74:1.0 76:1.0 80:1.0 83:1.0 
-1.0 2:1.0 6:1.0 14:1.0 22:1.0 36:1.0 40:1.0 48:1.0 63:1.0 67:1.0 73:1.0 74:1.0 76:1.0 80:1.0 83:1.0 
-0.3232025456881396 2:1.0 6:1.0 17:1.0 19:1.0 39:1.0 42:1.0 47:1.0 62:1.0 67:1.0 73:1.0 74:1.0 76:1.0 80:1.0 83:1.0 
-0.28208268472141484 1:1.0 7:1.0 18:1.0 20:1.0 37:1.0 42:1.0 49:1.0 62:1.0 67:1.0 73:1.0 74:1.0 76:1.0 78:1.0 83:1.0 
-0.319807506053755 5:1.0 18:1.0 22:1.0 36:1.0 40:1.0 61:1.0 67:1.0 72:1.0 74:1.0 76:1.0 78:1.0 83:1.0 
-0.33179212795568735 3:1.0 11:1.0 18:1.0 29:1.0 39:1.0 40:1.0 59:1.0 63:1.0 71:1.0 73:1.0 74:1.0 76:1.0 80:1.0 83:1.0 
-0.36947960833740706 4:1.0 6:1.0 16:1.0 20:1.0 37:1.0 40:1.0 54:1.0 63:1.0 71:1.0 73:1.0 74:1.0 76:1.0 80:1.0 83:1.0 
-0.2467874943256211 3:1.0 6:1.0 16:1.0 22:1.0 36:1.0 40:1.0 48:1.0 63:1.0 67:1.0 73:1.0 74:1.0 76:1.0 82:1.0 83:1.0 
-0.2504586587708533 3:1.0 6:1.0 16:1.0 21:1.0 35:1.0 40:1.0 54:1.0 63:1.0 67:1.0 73:1.0 74:1.0 76:1.0 80:1.0 83:1.0 
-0.37293002998958846 2:1.0 6:1.0 16:1.0 19:1.0 39:1.0 40:1.0 51:1.0 63:1.0 67:1.0 73:1.0 74:1.0 76:1.0 80:1.0 107:1.0 
-0.28805281042374153 3:1.0 6:1.0 15:1.0 22:1.0 36:1.0 41:1.0 55:1.0 64:1.0 67:1.0 72:1.0 74:1.0 76:1.0 80:1.0 83:1.0 
-0.3338749627662151 4:1.0 6:1.0 16:1.0 21:1.0 35:1.0 44:1.0 49:1.0 64:1.0 67:1.0 72:1.0 74:1.0 76:1.0 78:1.0 119:1.0 
-0.24422074051220807 5:1.0 6:1.0 17:1.0 22:1.0 36:1.0 42:1.0 55:1.0 64:1.0 67:1.0 72:1.0 74:1.0 76:1.0 80:1.0 83:1.0 
-0.3145029216726203 4:1.0 6:1.0 14:1.0 20:1.0 37:1.0 41:1.0 55:1.0 64:1.0 68:1.0 72:1.0 74:1.0 76:1.0 80:1.0 83:1.0 
-0.2944703526920034 4:1.0 6:1.0 16:1.0 33:1.0 35:1.0 40:1.0 48:1.0 63:1.0 67:1.0 73:1.0 74:1.0 76:1.0 80:1.0 83:1.0 
-0.32134198653726115 1:1.0 9:1.0 15:1.0 22:1.0 36:1.0 42:1.0 49:1.0 64:1.0 67:1.0 72:1.0 74:1.0 76:1.0 80:1.0 83:1.0 
-0.2495135920674705 1:1.0 15:1.0 20:1.0 37:1.0 42:1.0 65:1.0 67:1.0 72:1.0 74:1.0 76:1.0 78:1.0 83:1.0 
-0.33296761006628156 4:1.0 6:1.0 17:1.0 19:1.0 39:1.0 43:1.0 47:1.0 64:1.0 67:1.0 73:1.0 74:1.0 76:1.0 80:1.0 83:1.0 
-0.3268010006349526 3:1.0 6:1.0 17:1.0 24:1.0 38:1.0 41:1.0 50:1.0 66:1.0 67:1.0 72:1.0 74:1.0 76:1.0 80:1.0 83:1.0 
-0.318820949113419 4:1.0 6:1.0 14:1.0 22:1.0 36:1.0 41:1.0 52:1.0 64:1.0 67:1.0 72:1.0 74:1.0 76:1.0 81:1.0 83:1.0 
-0.2201978992484925 4:1.0 6:1.0 14:1.0 22:1.0 36:1.0 42:1.0 55:1.0 64:1.0 67:1.0 72:1.0 74:1.0 76:1.0 80:1.0 83:1.0 
-0.28732431377597534 2:1.0 10:1.0 16:1.0 25:1.0 38:1.0 42:1.0 59:1.0 64:1.0 67:1.0 73:1.0 74:1.0 76:1.0 80:1.0 83:1.0 
-0.5919504366640548 4:1.0 6:1.0 16:1.0 22:1.0 36:1.0 40:1.0 51:1.0 63:1.0 67:1.0 73:1.0 74:1.0 76:1.0 81:1.0 83:1.0 
-0.32544855189455585 4:1.0 6:1.0 17:1.0 23:1.0 39:1.0 41:1.0 55:1.0 64:1.0 67:1.0 73:1.0 74:1.0 76:1.0 80:1.0 83:1.0 
-0.3329088668617464 5:1.0 7:1.0 18:1.0 31:1.0 35:1.0 41:1.0 50:1.0 64:1.0 67:1.0 72:1.0 74:1.0 76:1.0 82:1.0 83:1.0 
-1.0 4:1.0 7:1.0 14:1.0 19:1.0 39:1.0 40:1.0 56:1.0 63:1.0 67:1.0 73:1.0 74:1.0 76:1.0 82:1.0 83:1.0 
-0.30333755742954777 2:1.0 6:1.0 16:1.0 26:1.0 35:1.0 40:1.0 48:1.0 63:1.0 67:1.0 73:1.0 74:1.0 76:1.0 80:1.0 83:1.0 
-0.5803723367650805 4:1.0 6:1.0 15:1.0 22:1.0 36:1.0 40:1.0 51:1.0 63:1.0 67:1.0 73:1.0 74:1.0 76:1.0 82:1.0 83:1.0 
-0.33444776767064793 5:1.0 7:1.0 15:1.0 22:1.0 36:1.0 40:1.0 50:1.0 63:1.0 68:1.0 73:1.0 74:1.0 76:1.0 82:1.0 93:1.0 
-0.3203785752975252 5:1.0 6:1.0 17:1.0 22:1.0 36:1.0 41:1.0 51:1.0 66:1.0 67:1.0 72:1.0 74:1.0 76:1.0 79:1.0 83:1.0 
-0.3107421949551908 1:1.0 6:1.0 16:1.0 20:1.0 37:1.0 42:1.0 50:1.0 62:1.0 68:1.0 73:1.0 74:1.0 76:1.0 80:1.0 83:1.0 
-0.24918630236999326 1:1.0 6:1.0 14:1.0 19:1.0 39:1.0 42:1.0 55:1.0 64:1.0 67:1.0 72:1.0 74:1.0 76:1.0 80:1.0 83:1.0 
-0.6136850516764809 5:1.0 6:1.0 15:1.0 22:1.0 36:1.0 40:1.0 50:1.0 63:1.0 67:1.0 73:1.0 74:1.0 76:1.0 80:1.0 83:1.0 
-0.32577530745535055 2:1.0 11:1.0 18:1.0 19:1.0 39:1.0 42:1.0 48:1.0 64:1.0 67:1.0 73:1.0 74:1.0 76:1.0 80:1.0 83:1.0 
-0.26285862402235954 2:1.0 6:1.0 17:1.0 22:1.0 36:1.0 40:1.0 50:1.0 63:1.0 67:1.0 73:1.0 74:1.0 76:1.0 80:1.0 83:1.0 
-0.2127517031249602 1:1.0 6:1.0 15:1.0 20:1.0 37:1.0 42:1.0 58:1.0 62:1.0 67:1.0 72:1.0 74:1.0 76:1.0 78:1.0 83:1.0 
-0.31521838662718293 3:1.0 11:1.0 14:1.0 22:1.0 36:1.0 42:1.0 49:1.0 62:1.0 67:1.0 72:1.0 74:1.0 76:1.0 80:1.0 83:1.0 
-0.3505390433747127 2:1.0 6:1.0 17:1.0 25:1.0 38:1.0 42:1.0 51:1.0 62:1.0 67:1.0 73:1.0 74:1.0 76:1.0 82:1.0 83:1.0 
-0.3416721879025681 1:1.0 6:1.0 14:1.0 19:1.0 39:1.0 40:1.0 49:1.0 63:1.0 67:1.0 73:1.0 74:1.0 76:1.0 78:1.0 83:1.0 
-0.33280797891540037 5:1.0 6:1.0 17:1.0 27:1.0 35:1.0 44:1.0 54:1.0 66:1.0 71:1.0 72:1.0 74:1.0 76:1.0 80:1.0 83:1.0 
-0.40629710261937363 3:1.0 14:1.0 22:1.0 36:1.0 40:1.0 63:1.0 67:1.0 73:1.0 74:1.0 76:1.0 80:1.0 83:1.0 
-0.32967084253519335 1:1.0 10:1.0 18:1.0 28:1.0 35:1.0 42:1.0 49:1.0 62:1.0 71:1.0 73:1.0 74:1.0 76:1.0 78:1.0 83:1.0 
-0.33096318149668214 5:1.0 6:1.0 15:1.0 22:1.0 36:1.0 42:1.0 52:1.0 66:1.0 67:1.0 72:1.0 74:1.0 77:1.0 80:1.0 83:1.0 
-0.2755636112179043 3:1.0 6:1.0 17:1.0 20:1.0 37:1.0 42:1.0 49:1.0 64:1.0 67:1.0 73:1.0 74:1.0 76:1.0 80:1.0 83:1.0 
-0.486419476059869 5:1.0 16:1.0 19:1.0 39:1.0 40:1.0 63:1.0 67:1.0 73:1.0 74:1.0 76:1.0 78:1.0 83:1.0 
-0.335221022531909 3:1.0 6:1.0 17:1.0 20:1.0 37:1.0 41:1.0 47:1.0 64:1.0 67:1.0 72:1.0 74:1.0 76:1.0 80:1.0 100:1.0 
-0.32470385689537706 1:1.0 6:1.0 17:1.0 22:1.0 36:1.0 42:1.0 50:1.0 64:1.0 67:1.0 73:1.0 74:1.0 77:1.0 82:1.0 83:1.0 
-0.3171469434830388 3:1.0 10:1.0 14:1.0 22:1.0 36:1.0 42:1.0 49:1.0 62:1.0 67:1.0 73:1.0 74:1.0 76:1.0 80:1.0 83:1.0 
-0.33475362017364246 1:1.0 6:1.0 15:1.0 20:1.0 37:1.0 40:1.0 55:1.0 61:1.0 69:1.0 72:1.0 74:1.0 76:1.0 81:1.0 83:1.0 
-0.22065627135403887 2:1.0 6:1.0 17:1.0 20:1.0 37:1.0 40:1.0 48:1.0 63:1.0 67:1.0 73:1.0 74:1.0 76:1.0 80:1.0 83:1.0 
-0.33051156905508333 3:1.0 7:1.0 17:1.0 20:1.0 37:1.0 41:1.0 56:1.0 64:1.0 67:1.0 73:1.0 74:1.0 76:1.0 80:1.0 83:1.0 
-0.3080171389361246 2:1.0 6:1.0 17:1.0 19:1.0 39:1.0 42:1.0 52:1.0 64:1.0 67:1.0 72:1.0 74:1.0 76:1.0 82:1.0 83:1.0 
-0.33800692324968534 3:1.0 6:1.0 17:1.0 32:1.0 39:1.0 41:1.0 52:1.0 66:1.0 67:1.0 72:1.0 74:1.0 76:1.0 82:1.0 83:1.0 
-0.26608008387579085 1:1.0 18:1.0 20:1.0 37:1.0 42:1.0 62:1.0 67:1.0 72:1.0 74:1.0 77:1.0 78:1.0 83:1.0 
-0.21466301981859093 2:1.0 6:1.0 17:1.0 22:1.0 36:1.0 42:1.0 48:1.0 62:1.0 67:1.0 73:1.0 74:1.0 76:1.0 80:1.0 83:1.0 
-0.3216398332379613 2:1.0 6:1.0 18:1.0 20:1.0 37:1.0 42:1.0 49:1.0 62:1.0 67:1.0 73:1.0 74:1.0 77:1.0 78:1.0 83:1.0 
-0.2617331609892752 2:1.0 6:1.0 14:1.0 22:1.0 36:1.0 42:1.0 49:1.0 64:1.0 67:1.0 73:1.0 74:1.0 76:1.0 80:1.0 83:1.0 
-0.3292386063637111 3:1.0 6:1.0 15:1.0 20:1.0 37:1.0 43:1.0 54:1.0 62:1.0 67:1.0 73:1.0 74:1.0 76:1.0 80:1.0 83:1.0 
-0.3293439481788197 5:1.0 7:1.0 17:1.0 27:1.0 35:1.0 40:1.0 48:1.0 63:1.0 67:1.0 73:1.0 74:1.0 76:1.0 78:1.0 83:1.0 
-0.29104650368584456 1:1.0 6:1.0 15:1.0 20:1.0 37:1.0 42:1.0 55:1.0 62:1.0 68:1.0 73:1.0 74:1.0 76:1.0 78:1.0 83:1.0 
-0.32751853826506294 1:1.0 6:1.0 18:1.0 33:1.0 35:1.0 42:1.0 53:1.0 64:1.0 67:1.0 73:1.0 74:1.0 76:1.0 78:1.0 103:1.0 
-0.27037637521356284 1:1.0 6:1.0 16:1.0 22:1.0 36:1.0 42:1.0 53:1.0 64:1.0 67:1.0 73:1.0 74:1.0 76:1.0 82:1.0 83:1.0 
-0.30809929135033737 5:1.0 14:1.0 19:1.0 39:1.0 40:1.0 63:1.0 67:1.0 73:1.0 74:1.0 76:1.0 78:1.0 83:1.0 
-0.20788251680431266 1:1.0 6:1.0 16:1.0 22:1.0 36:1.0 42:1.0 50:1.0 62:1.0 67:1.0 72:1.0 74:1.0 76:1.0 78:1.0 83:1.0 
-0.34189105811818776 4:1.0 6:1.0 17:1.0 22:1.0 36:1.0 40:1.0 48:1.0 63:1.0 70:1.0 73:1.0 74:1.0 76:1.0 80:1.0 83:1.0 
-0.33508704178111787 4:1.0 6:1.0 16:1.0 26:1.0 35:1.0 40:1.0 54:1.0 65:1.0 68:1.0 72:1.0 74:1.0 76:1.0 81:1.0 94:1.0 
-0.330139105506871 1:1.0 6:1.0 15:1.0 25:1.0 38:1.0 42:1.0 55:1.0 62:1.0 67:1.0 72:1.0 74:1.0 76:1.0 82:1.0 83:1.0 
-0.32732359681611223 1:1.0 10:1.0 18:1.0 31:1.0 35:1.0 42:1.0 49:1.0 64:1.0 67:1.0 73:1.0 74:1.0 76:1.0 80:1.0 83:1.0 
-0.26240858577695775 1:1.0 6:1.0 14:1.0 20:1.0 37:1.0 42:1.0 57:1.0 64:1.0 67:1.0 73:1.0 74:1.0 76:1.0 82:1.0 83:1.0 
-0.32983312759388533 2:1.0 11:1.0 16:1.0 22:1.0 36:1.0 40:1.0 59:1.0 63:1.0 67:1.0 73:1.0 74:1.0 76:1.0 80:1.0 83:1.0 
-0.3086504748807244 3:1.0 10:1.0 17:1.0 19:1.0 39:1.0 42:1.0 52:1.0 64:1.0 67:1.0 72:1.0 74:1.0 76:1.0 80:1.0 83:1.0 
-0.34032672813102266 3:1.0 10:1.0 17:1.0 29:1.0 39:1.0 44:1.0 52:1.0 64:1.0 67:1.0 72:1.0 74:1.0 76:1.0 80:1.0 83:1.0 
-0.7585960983280218 2:1.0 6:1.0 16:1.0 22:1.0 36:1.0 40:1.0 54:1.0 63:1.0 67:1.0 73:1.0 74:1.0 76:1.0 80:1.0 83:1.0 
-0.3175422041811841 4:1.0 6:1.0 15:1.0 22:1.0 36:1.0 42:1.0 57:1.0 64:1.0 69:1.0 73:1.0 74:1.0 76:1.0 80:1.0 83:1.0 
-0.32472396801586373 1:1.0 6:1.0 16:1.0 22:1.0 36:1.0 42:1.0 52:1.0 66:1.0 67:1.0 72:1.0 74:1.0 76:1.0 82:1.0 83:1.0 
-0.3351059034204792 2:1.0 10:1.0 16:1.0 24:1.0 38:1.0 40:1.0 59:1.0 63:1.0 67:1.0 73:1.0 74:1.0 77:1.0 80:1.0 85:1.0 
-0.3264295106401505 4:1.0 6:1.0 15:1.0 22:1.0 36:1.0 44:1.0 50:1.0 66:1.0 69:1.0 72:1.0 74:1.0 76:1.0 80:1.0 83:1.0 
-0.21687493148508896 1:1.0 6:1.0 15:1.0 20:1.0 37:1.0 42:1.0 50:1.0 65:1.0 67:1.0 72:1.0 74:1.0 76:1.0 78:1.0 83:1.0 
-0.32222515396654366 3:1.0 6:1.0 14:1.0 19:1.0 39:1.0 42:1.0 50:1.0 64:1.0 67:1.0 73:1.0 74:1.0 76:1.0 81:1.0 83:1.0 
-0.3408773845927611 5:1.0 10:1.0 14:1.0 22:1.0 36:1.0 40:1.0 51:1.0 63:1.0 69:1.0 73:1.0 74:1.0 76:1.0 82:1.0 83:1.0 
-0.3811754074362661 4:1.0 7:1.0 16:1.0 19:1.0 39:1.0 40:1.0 52:1.0 63:1.0 67:1.0 73:1.0 74:1.0 76:1.0 80:1.0 83:1.0 
-0.31263127872408053 2:1.0 7:1.0 18:1.0 20:1.0 37:1.0 42:1.0 48:1.0 64:1.0 67:1.0 73:1.0 74:1.0 76:1.0 81:1.0 83:1.0 
-0.35289294640335594 3:1.0 6:1.0 18:1.0 22:1.0 36:1.0 40:1.0 52:1.0 63:1.0 67:1.0 73:1.0 74:1.0 77:1.0 82:1.0 83:1.0 
-0.2908476324031193 1:1.0 6:1.0 15:1.0 20:1.0 37:1.0 41:1.0 49:1.0 64:1.0 67:1.0 73:1.0 74:1.0 76:1.0 78:1.0 83:1.0 
-0.3302308820686862 5:1.0 16:1.0 21:1.0 35:1.0 42:1.0 66:1.0 67:1.0 73:1.0 74:1.0 76:1.0 80:1.0 83:1.0 
-0.2854941069951057 1:1.0 18:1.0 31:1.0 35:1.0 42:1.0 62:1.0 67:1.0 73:1.0 74:1.0 76:1.0 80:1.0 83:1.0 
-0.34081229851174283 3:1.0 6:1.0 17:1.0 20:1.0 37:1.0 40:1.0 48:1.0 63:1.0 67:1.0 73:1.0 74:1.0 76:1.0 80:1.0 83:1.0 
-0.33360487934489386 5:1.0 7:1.0 18:1.0 22:1.0 36:1.0 44:1.0 49:1.0 65:1.0 67:1.0 72:1.0 75:1.0 76:1.0 78:1.0 83:1.0 
-0.31645945190727376 1:1.0 6:1.0 17:1.0 21:1.0 35:1.0 42:1.0 55:1.0 62:1.0 71:1.0 72:1.0 74:1.0 76:1.0 80:1.0 83:1.0 
-0.2809152596265454 2:1.0 6:1.0 18:1.0 19:1.0 39:1.0 42:1.0 55:1.0 64:1.0 67:1.0 73:1.0 74:1.0 76:1.0 81:1.0 83:1.0 
-0.33488641739220615 5:1.0 15:1.0 23:1.0 39:1.0 45:1.0 66:1.0 68:1.0 72:1.0 74:1.0 76:1.0 80:1.0 102:1.0 
-1.0 5:1.0 6:1.0 15:1.0 22:1.0 36:1.0 40:1.0 48:1.0 63:1.0 67:1.0 73:1.0 74:1.0 76:1.0 80:1.0 83:1.0 
-0.33923661468838323 4:1.0 10:1.0 14:1.0 19:1.0 39:1.0 41:1.0 52:1.0 66:1.0 67:1.0 73:1.0 74:1.0 76:1.0 82:1.0 83:1.0 
-0.28472139126893126 4:1.0 6:1.0 18:1.0 22:1.0 36:1.0 43:1.0 54:1.0 66:1.0 71:1.0 72:1.0 74:1.0 76:1.0 80:1.0 83:1.0 
-0.22625216435838538 4:1.0 6:1.0 14:1.0 22:1.0 36:1.0 42:1.0 50:1.0 64:1.0 67:1.0 72:1.0 74:1.0 76:1.0 80:1.0 83:1.0 
-0.3183382900950167 4:1.0 6:1.0 16:1.0 22:1.0 36:1.0 41:1.0 54:1.0 66:1.0 67:1.0 72:1.0 74:1.0 76:1.0 82:1.0 83:1.0 
-0.2854297661116575 1:1.0 6:1.0 14:1.0 31:1.0 35:1.0 42:1.0 49:1.0 62:1.0 67:1.0 72:1.0 74:1.0 76:1.0 78:1.0 83:1.0 
-0.333610953202724 2:1.0 10:1.0 18:1.0 19:1.0 39:1.0 42:1.0 59:1.0 62:1.0 71:1.0 73:1.0 74:1.0 76:1.0 82:1.0 83:1.0 
-0.2826527457262078 2:1.0 6:1.0 17:1.0 20:1.0 37:1.0 40:1.0 54:1.0 63:1.0 67:1.0 73:1.0 74:1.0 76:1.0 80:1.0 83:1.0 
-0.34897264697670244 5:1.0 6:1.0 18:1.0 22:1.0 36:1.0 40:1.0 51:1.0 63:1.0 67:1.0 73:1.0 74:1.0 76:1.0 78:1.0 83:1.0 
-0.3169596658139162 1:1.0 6:1.0 17:1.0 22:1.0 36:1.0 42:1.0 54:1.0 65:1.0 67:1.0 73:1.0 74:1.0 76:1.0 80:1.0 103:1.0 
-0.3272823100896689 2:1.0 6:1.0 14:1.0 20:1.0 37:1.0 40:1.0 49:1.0 61:1.0 69:1.0 72:1.0 74:1.0 76:1.0 80:1.0 83:1.0 
-0.18470131249122496 2:1.0 6:1.0 15:1.0 22:1.0 36:1.0 40:1.0 54:1.0 63:1.0 67:1.0 73:1.0 74:1.0 76:1.0 80:1.0 83:1.0 
-0.33496069246188837 2:1.0 6:1.0 15:1.0 31:1.0 35:1.0 40:1.0 48:1.0 61:1.0 70:1.0 72:1.0 74:1.0 76:1.0 82:1.0 114:1.0 
-0.9755057373984052 4:1.0 6:1.0 15:1.0 19:1.0 39:1.0 40:1.0 50:1.0 63:1.0 67:1.0 73:1.0 74:1.0 76:1.0 82:1.0 83:1.0 
-0.3275277286450903 4:1.0 6:1.0 16:1.0 22:1.0 36:1.0 41:1.0 54:1.0 62:1.0 71:1.0 72:1.0 74:1.0 76:1.0 80:1.0 83:1.0 
-0.2854029768011911 1:1.0 6:1.0 18:1.0 20:1.0 37:1.0 42:1.0 57:1.0 62:1.0 71:1.0 73:1.0 74:1.0 76:1.0 80:1.0 83:1.0 
-0.3814305447440308 2:1.0 6:1.0 18:1.0 32:1.0 39:1.0 42:1.0 52:1.0 64:1.0 67:1.0 73:1.0 74:1.0 76:1.0 80:1.0 
-0.3327676825696289 3:1.0 8:1.0 15:1.0 20:1.0 37:1.0 40:1.0 52:1.0 63:1.0 67:1.0 73:1.0 74:1.0 76:1.0 78:1.0 83:1.0 
-0.26816474176993904 1:1.0 16:1.0 24:1.0 38:1.0 42:1.0 62:1.0 67:1.0 73:1.0 74:1.0 76:1.0 80:1.0 83:1.0 
-0.6676118228110122 5:1.0 6:1.0 18:1.0 19:1.0 39:1.0 40:1.0 54:1.0 63:1.0 67:1.0 73:1.0 74:1.0 76:1.0 80:1.0 83:1.0 
-0.2991343466402838 1:1.0 6:1.0 16:1.0 21:1.0 35:1.0 42:1.0 53:1.0 62:1.0 67:1.0 73:1.0 74:1.0 76:1.0 78:1.0 83:1.0 
-0.30865525192486937 3:1.0 6:1.0 14:1.0 22:1.0 36:1.0 41:1.0 56:1.0 64:1.0 67:1.0 73:1.0 74:1.0 76:1.0 82:1.0 83:1.0 
-0.28946462908273646 1:1.0 6:1.0 14:1.0 22:1.0 36:1.0 42:1.0 53:1.0 64:1.0 67:1.0 73:1.0 74:1.0 76:1.0 78:1.0 83:1.0 
-0.32019382714735406 1:1.0 6:1.0 14:1.0 27:1.0 35:1.0 42:1.0 54:1.0 62:1.0 67:1.0 73:1.0 74:1.0 76:1.0 80:1.0 83:1.0 
-0.5067298334019501 4:1.0 6:1.0 16:1.0 20:1.0 37:1.0 40:1.0 48:1.0 63:1.0 67:1.0 73:1.0 74:1.0 76:1.0 80:1.0 83:1.0 
-0.7619404368023951 5:1.0 9:1.0 14:1.0 22:1.0 36:1.0 40:1.0 47:1.0 63:1.0 67:1.0 73:1.0 74:1.0 76:1.0 80:1.0 83:1.0 
-0.3304201692241558 2:1.0 6:1.0 16:1.0 22:1.0 36:1.0 40:1.0 54:1.0 63:1.0 67:1.0 73:1.0 75:1.0 76:1.0 82:1.0 105:1.0 
-0.2917919735053252 2:1.0 7:1.0 17:1.0 22:1.0 36:1.0 40:1.0 50:1.0 63:1.0 67:1.0 73:1.0 74:1.0 76:1.0 80:1.0 83:1.0 
-0.34236956462807094 5:1.0 7:1.0 17:1.0 22:1.0 36:1.0 40:1.0 48:1.0 63:1.0 67:1.0 73:1.0 74:1.0 76:1.0 82:1.0 83:1.0 
-0.2433622261242755 3:1.0 6:1.0 16:1.0 22:1.0 36:1.0 42:1.0 55:1.0 64:1.0 67:1.0 72:1.0 74:1.0 76:1.0 80:1.0 83:1.0 
-0.3134137327616026 1:1.0 6:1.0 18:1.0 19:1.0 39:1.0 42:1.0 52:1.0 64:1.0 67:1.0 73:1.0 74:1.0 76:1.0 81:1.0 83:1.0 
-0.33282441821394193 5:1.0 6:1.0 15:1.0 34:1.0 35:1.0 42:1.0 54:1.0 64:1.0 67:1.0 73:1.0 74:1.0 76:1.0 80:1.0 107:1.0 
-0.2932699022551141 2:1.0 6:1.0 15:1.0 26:1.0 35:1.0 40:1.0 56:1.0 63:1.0 69:1.0 73:1.0 74:1.0 76:1.0 80:1.0 83:1.0 
-0.4206514206106734 4:1.0 8:1.0 16:1.0 22:1.0 36:1.0 40:1.0 57:1.0 63:1.0 67:1.0 73:1.0 74:1.0 76:1.0 82:1.0 83:1.0 
-0.4209218975727931 5:1.0 6:1.0 15:1.0 22:1.0 36:1.0 40:1.0 59:1.0 63:1.0 67:1.0 73:1.0 74:1.0 76:1.0 80:1.0 83:1.0 
-0.3307883552004366 2:1.0 6:1.0 17:1.0 22:1.0 36:1.0 42:1.0 55:1.0 66:1.0 67:1.0 72:1.0 74:1.0 76:1.0 79:1.0 86:1.0 
-0.6762816042910117 5:1.0 7:1.0 14:1.0 19:1.0 39:1.0 40:1.0 52:1.0 63:1.0 67:1.0 73:1.0 74:1.0 76:1.0 82:1.0 83:1.0 
-0.29631022597389306 1:1.0 6:1.0 15:1.0 22:1.0 36:1.0 42:1.0 54:1.0 64:1.0 67:1.0 72:1.0 74:1.0 76:1.0 78:1.0 83:1.0 
-0.5622739610408606 4:1.0 6:1.0 14:1.0 22:1.0 36:1.0 40:1.0 57:1.0 63:1.0 67:1.0 73:1.0 74:1.0 76:1.0 82:1.0 83:1.0 
-0.30420694785244323 4:1.0 6:1.0 14:1.0 22:1.0 36:1.0 42:1.0 48:1.0 64:1.0 67:1.0 72:1.0 74:1.0 76:1.0 82:1.0 83:1.0 
-0.297558109986 3:1.0 8:1.0 15:1.0 22:1.0 36:1.0 40:1.0 57:1.0 63:1.0 67:1.0 73:1.0 74:1.0 76:1.0 82:1.0 83:1.0 
-0.33674201471302045 2:1.0 6:1.0 18:1.0 22:1.0 36:1.0 40:1.0 48:1.0 63:1.0 67:1.0 73:1.0 74:1.0 76:1.0 82:1.0 83:1.0 
-0.3339332421747631 5:1.0 9:1.0 17:1.0 19:1.0 39:1.0 42:1.0 55:1.0 64:1.0 67:1.0 73:1.0 74:1.0 77:1.0 80:1.0 83:1.0 
-0.2991270524980181 1:1.0 6:1.0 18:1.0 19:1.0 39:1.0 42:1.0 55:1.0 62:1.0 67:1.0 72:1.0 74:1.0 76:1.0 80:1.0 83:1.0 
-0.32746072040516 2:1.0 10:1.0 18:1.0 19:1.0 39:1.0 42:1.0 52:1.0 64:1.0 67:1.0 72:1.0 74:1.0 76:1.0 81:1.0 83:1.0 
-0.30041103684884696 1:1.0 17:1.0 19:1.0 39:1.0 42:1.0 62:1.0 67:1.0 73:1.0 74:1.0 76:1.0 78:1.0 83:1.0 
-0.3069325769391018 1:1.0 6:1.0 15:1.0 21:1.0 35:1.0 42:1.0 49:1.0 62:1.0 71:1.0 73:1.0 74:1.0 76:1.0 78:1.0 83:1.0 
-0.3619227409048142 2:1.0 6:1.0 14:1.0 19:1.0 39:1.0 40:1.0 47:1.0 63:1.0 67:1.0 73:1.0 74:1.0 76:1.0 78:1.0 83:1.0 
-0.2703544585021684 2:1.0 6:1.0 17:1.0 22:1.0 36:1.0 41:1.0 54:1.0 66:1.0 67:1.0 73:1.0 74:1.0 76:1.0 80:1.0 83:1.0 
-0.3250615224811604 5:1.0 6:1.0 14:1.0 20:1.0 37:1.0 41:1.0 48:1.0 64:1.0 71:1.0 72:1.0 74:1.0 76:1.0 81:1.0 83:1.0 
-0.33375131166905725 3:1.0 6:1.0 17:1.0 22:1.0 36:1.0 43:1.0 57:1.0 65:1.0 67:1.0 73:1.0 74:1.0 76:1.0 82:1.0 103:1.0 
-0.22096265431133125 1:1.0 6:1.0 18:1.0 20:1.0 37:1.0 42:1.0 57:1.0 62:1.0 67:1.0 73:1.0 74:1.0 76:1.0 80:1.0 83:1.0 
-0.22311614985242842 1:1.0 6:1.0 18:1.0 20:1.0 37:1.0 42:1.0 56:1.0 62:1.0 67:1.0 73:1.0 74:1.0 76:1.0 78:1.0 83:1.0 
-0.33187302102855465 3:1.0 11:1.0 15:1.0 22:1.0 36:1.0 43:1.0 48:1.0 64:1.0 67:1.0 73:1.0 74:1.0 76:1.0 81:1.0 83:1.0 
-0.3208268571718349 5:1.0 6:1.0 16:1.0 22:1.0 36:1.0 42:1.0 49:1.0 64:1.0 71:1.0 72:1.0 74:1.0 76:1.0 79:1.0 83:1.0 
-0.18955668287226152 1:1.0 6:1.0 17:1.0 22:1.0 36:1.0 42:1.0 50:1.0 62:1.0 67:1.0 72:1.0 74:1.0 76:1.0 78:1.0 83:1.0 
-0.31724283708284606 1:1.0 17:1.0 31:1.0 35:1.0 42:1.0 62:1.0 71:1.0 73:1.0 74:1.0 76:1.0 80:1.0 83:1.0 
-0.33032446350842576 3:1.0 6:1.0 16:1.0 19:1.0 39:1.0 44:1.0 52:1.0 64:1.0 67:1.0 72:1.0 74:1.0 76:1.0 82:1.0 83:1.0 
-0.34990788763410796 3:1.0 10:1.0 17:1.0 22:1.0 36:1.0 40:1.0 48:1.0 63:1.0 67:1.0 73:1.0 74:1.0 76:1.0 80:1.0 
-0.32168814596809936 2:1.0 14:1.0 20:1.0 37:1.0 43:1.0 64:1.0 67:1.0 73:1.0 74:1.0 76:1.0 82:1.0 83:1.0 
-0.3167527885305408 4:1.0 6:1.0 14:1.0 19:1.0 39:1.0 42:1.0 55:1.0 62:1.0 67:1.0 72:1.0 74:1.0 76:1.0 79:1.0 83:1.0 
-0.3339528443351108 2:1.0 6:1.0 15:1.0 27:1.0 35:1.0 41:1.0 53:1.0 65:1.0 67:1.0 73:1.0 74:1.0 76:1.0 82:1.0 83:1.0 
-0.2223908865084466 1:1.0 6:1.0 17:1.0 22:1.0 36:1.0 42:1.0 49:1.0 62:1.0 67:1.0 72:1.0 74:1.0 76:1.0 80:1.0 83:1.0 
-0.2875808991244033 1:1.0 6:1.0 18:1.0 21:1.0 35:1.0 42:1.0 58:1.0 62:1.0 67:1.0 72:1.0 74:1.0 76:1.0 78:1.0 83:1.0 
-0.3085615577769696 5:1.0 6:1.0 16:1.0 22:1.0 36:1.0 42:1.0 51:1.0 64:1.0 67:1.0 72:1.0 74:1.0 76:1.0 79:1.0 83:1.0 
-0.47414553397691217 2:1.0 6:1.0 15:1.0 19:1.0 39:1.0 40:1.0 52:1.0 63:1.0 67:1.0 73:1.0 74:1.0 76:1.0 82:1.0 83:1.0 
-0.33423600071824383 3:1.0 6:1.0 14:1.0 31:1.0 35:1.0 42:1.0 50:1.0 66:1.0 67:1.0 72:1.0 74:1.0 76:1.0 79:1.0 
-0.33354684433833975 5:1.0 10:1.0 16:1.0 33:1.0 35:1.0 40:1.0 59:1.0 63:1.0 67:1.0 73:1.0 74:1.0 76:1.0 78:1.0 83:1.0 
-0.3086111320243768 3:1.0 6:1.0 15:1.0 20:1.0 37:1.0 40:1.0 48:1.0 63:1.0 67:1.0 73:1.0 74:1.0 76:1.0 80:1.0 83:1.0 
-0.3236414562392327 1:1.0 6:1.0 14:1.0 20:1.0 37:1.0 45:1.0 50:1.0 66:1.0 67:1.0 72:1.0 74:1.0 76:1.0 80:1.0 83:1.0 
-0.48698194423632946 4:1.0 10:1.0 14:1.0 19:1.0 39:1.0 40:1.0 52:1.0 61:1.0 67:1.0 72:1.0 74:1.0 76:1.0 81:1.0 83:1.0 
-0.32760877305509556 2:1.0 6:1.0 15:1.0 33:1.0 35:1.0 42:1.0 57:1.0 64:1.0 67:1.0 73:1.0 74:1.0 76:1.0 80:1.0 112:1.0 
-0.3222691197735541 3:1.0 6:1.0 17:1.0 19:1.0 39:1.0 41:1.0 52:1.0 64:1.0 67:1.0 72:1.0 74:1.0 76:1.0 80:1.0 83:1.0 
-0.22857626269078965 2:1.0 6:1.0 18:1.0 22:1.0 36:1.0 40:1.0 48:1.0 63:1.0 67:1.0 73:1.0 74:1.0 76:1.0 80:1.0 83:1.0 
-0.2709162336772617 4:1.0 6:1.0 18:1.0 22:1.0 36:1.0 40:1.0 57:1.0 63:1.0 67:1.0 73:1.0 74:1.0 76:1.0 80:1.0 83:1.0 
-0.41157923358967713 4:1.0 10:1.0 16:1.0 22:1.0 36:1.0 40:1.0 57:1.0 63:1.0 67:1.0 73:1.0 74:1.0 76:1.0 82:1.0 83:1.0 
-0.3360755947087692 4:1.0 6:1.0 15:1.0 27:1.0 35:1.0 40:1.0 52:1.0 61:1.0 67:1.0 72:1.0 74:1.0 76:1.0 81:1.0 83:1.0 
-0.3335826771804064 2:1.0 6:1.0 17:1.0 29:1.0 39:1.0 42:1.0 51:1.0 62:1.0 67:1.0 73:1.0 74:1.0 76:1.0 79:1.0 83:1.0 
-0.169813796517519 1:1.0 6:1.0 16:1.0 20:1.0 37:1.0 42:1.0 49:1.0 62:1.0 67:1.0 73:1.0 74:1.0 76:1.0 78:1.0 83:1.0 
-0.3281808372109275 1:1.0 6:1.0 17:1.0 19:1.0 39:1.0 42:1.0 52:1.0 64:1.0 67:1.0 73:1.0 74:1.0 76:1.0 78:1.0 85:1.0 
-0.2839294849412348 5:1.0 6:1.0 17:1.0 33:1.0 35:1.0 40:1.0 57:1.0 63:1.0 67:1.0 73:1.0 74:1.0 76:1.0 80:1.0 83:1.0 
-0.5939842567571499 4:1.0 6:1.0 16:1.0 22:1.0 36:1.0 40:1.0 48:1.0 63:1.0 67:1.0 73:1.0 74:1.0 76:1.0 80:1.0 83:1.0 
-0.3412607367980788 2:1.0 6:1.0 15:1.0 22:1.0 36:1.0 40:1.0 48:1.0 61:1.0 67:1.0 72:1.0 74:1.0 76:1.0 81:1.0 83:1.0 
-0.31190224417804985 1:1.0 6:1.0 14:1.0 22:1.0 36:1.0 42:1.0 48:1.0 64:1.0 67:1.0 73:1.0 74:1.0 77:1.0 80:1.0 83:1.0 
-0.3164258512824734 1:1.0 6:1.0 16:1.0 20:1.0 37:1.0 42:1.0 52:1.0 62:1.0 67:1.0 72:1.0 75:1.0 76:1.0 78:1.0 83:1.0 
-0.32439479918939224 5:1.0 6:1.0 14:1.0 20:1.0 37:1.0 41:1.0 49:1.0 66:1.0 71:1.0 72:1.0 74:1.0 76:1.0 81:1.0 83:1.0 
-0.3196909581097627 1:1.0 6:1.0 18:1.0 22:1.0 36:1.0 40:1.0 50:1.0 65:1.0 67:1.0 73:1.0 74:1.0 76:1.0 78:1.0 83:1.0 
-0.18903535318767775 1:1.0 6:1.0 17:1.0 22:1.0 36:1.0 42:1.0 49:1.0 62:1.0 67:1.0 73:1.0 74:1.0 76:1.0 78:1.0 83:1.0 
-0.2766031940909589 3:1.0 7:1.0 16:1.0 22:1.0 36:1.0 40:1.0 48:1.0 63:1.0 67:1.0 73:1.0 74:1.0 76:1.0 80:1.0 83:1.0 
-0.3619925204373632 4:1.0 6:1.0 14:1.0 24:1.0 38:1.0 40:1.0 48:1.0 63:1.0 67:1.0 73:1.0 74:1.0 76:1.0 81:1.0 83:1.0 
-0.30549039058976135 2:1.0 6:1.0 15:1.0 22:1.0 36:1.0 42:1.0 48:1.0 64:1.0 67:1.0 73:1.0 74:1.0 76:1.0 80:1.0 114:1.0 
-0.3409315766422468 2:1.0 6:1.0 17:1.0 22:1.0 36:1.0 40:1.0 54:1.0 63:1.0 67:1.0 73:1.0 74:1.0 76:1.0 80:1.0 86:1.0 
-0.19781790098040014 2:1.0 6:1.0 15:1.0 22:1.0 36:1.0 42:1.0 48:1.0 62:1.0 67:1.0 73:1.0 74:1.0 76:1.0 80:1.0 83:1.0 
-0.4189097542797341 2:1.0 7:1.0 18:1.0 19:1.0 39:1.0 40:1.0 50:1.0 63:1.0 67:1.0 73:1.0 74:1.0 76:1.0 82:1.0 83:1.0 
-0.29833642182526676 3:1.0 6:1.0 14:1.0 22:1.0 36:1.0 42:1.0 50:1.0 62:1.0 67:1.0 72:1.0 74:1.0 76:1.0 80:1.0 83:1.0 
-0.28796825207728977 4:1.0 6:1.0 16:1.0 22:1.0 36:1.0 43:1.0 54:1.0 66:1.0 71:1.0 72:1.0 74:1.0 76:1.0 80:1.0 83:1.0 
-0.22823956985379876 1:1.0 6:1.0 18:1.0 20:1.0 37:1.0 42:1.0 55:1.0 64:1.0 67:1.0 73:1.0 74:1.0 76:1.0 80:1.0 83:1.0 
-0.2724856532104372 2:1.0 7:1.0 14:1.0 19:1.0 39:1.0 42:1.0 52:1.0 64:1.0 67:1.0 73:1.0 74:1.0 76:1.0 82:1.0 83:1.0 
-0.32162733351916595 3:1.0 7:1.0 18:1.0 20:1.0 37:1.0 42:1.0 50:1.0 64:1.0 67:1.0 73:1.0 74:1.0 76:1.0 82:1.0 83:1.0 
-0.7029820943667663 5:1.0 18:1.0 20:1.0 37:1.0 40:1.0 63:1.0 67:1.0 73:1.0 74:1.0 76:1.0 80:1.0 83:1.0 
-0.3398769046599077 2:1.0 6:1.0 16:1.0 22:1.0 36:1.0 40:1.0 57:1.0 63:1.0 67:1.0 73:1.0 74:1.0 76:1.0 80:1.0 83:1.0 
-0.33288756008760934 3:1.0 6:1.0 16:1.0 20:1.0 37:1.0 40:1.0 49:1.0 61:1.0 67:1.0 72:1.0 74:1.0 76:1.0 78:1.0 83:1.0 
-0.3280646928562945 2:1.0 6:1.0 17:1.0 20:1.0 37:1.0 42:1.0 52:1.0 64:1.0 71:1.0 72:1.0 75:1.0 76:1.0 82:1.0 83:1.0 
-0.3425225001309613 3:1.0 11:1.0 18:1.0 22:1.0 36:1.0 40:1.0 55:1.0 63:1.0 67:1.0 73:1.0 75:1.0 76:1.0 80:1.0 83:1.0 
-0.4456698035311347 5:1.0 8:1.0 16:1.0 19:1.0 39:1.0 40:1.0 51:1.0 63:1.0 67:1.0 73:1.0 74:1.0 76:1.0 80:1.0 83:1.0 
-0.3252158817516478 3:1.0 6:1.0 17:1.0 22:1.0 36:1.0 43:1.0 49:1.0 66:1.0 71:1.0 72:1.0 74:1.0 76:1.0 79:1.0 83:1.0 
-0.24795090276788703 1:1.0 15:1.0 22:1.0 36:1.0 42:1.0 62:1.0 67:1.0 73:1.0 74:1.0 76:1.0 78:1.0 83:1.0 
-0.3226695116891459 3:1.0 6:1.0 14:1.0 20:1.0 37:1.0 42:1.0 56:1.0 66:1.0 67:1.0 73:1.0 74:1.0 76:1.0 82:1.0 83:1.0 
-0.33005732471442695 4:1.0 6:1.0 18:1.0 20:1.0 37:1.0 40:1.0 56:1.0 61:1.0 67:1.0 72:1.0 74:1.0 76:1.0 78:1.0 83:1.0 
-0.19188378886201626 3:1.0 6:1.0 16:1.0 22:1.0 36:1.0 40:1.0 48:1.0 63:1.0 67:1.0 73:1.0 74:1.0 76:1.0 80:1.0 83:1.0 
-0.3338216081049882 3:1.0 10:1.0 16:1.0 22:1.0 36:1.0 42:1.0 52:1.0 66:1.0 71:1.0 72:1.0 74:1.0 76:1.0 79:1.0 83:1.0 
-0.26467041412468073 5:1.0 6:1.0 14:1.0 22:1.0 36:1.0 44:1.0 55:1.0 66:1.0 67:1.0 72:1.0 74:1.0 76:1.0 80:1.0 83:1.0 
-0.3329201025737354 4:1.0 11:1.0 16:1.0 29:1.0 39:1.0 42:1.0 52:1.0 62:1.0 67:1.0 72:1.0 74:1.0 76:1.0 79:1.0 83:1.0 
-0.31489296034281766 2:1.0 6:1.0 15:1.0 33:1.0 35:1.0 40:1.0 53:1.0 63:1.0 67:1.0 73:1.0 74:1.0 76:1.0 82:1.0 103:1.0 
-0.3104321817462652 2:1.0 18:1.0 22:1.0 36:1.0 42:1.0 66:1.0 67:1.0 72:1.0 74:1.0 76:1.0 78:1.0 83:1.0 
-0.35314608353478905 5:1.0 6:1.0 17:1.0 22:1.0 36:1.0 40:1.0 53:1.0 63:1.0 71:1.0 73:1.0 74:1.0 76:1.0 80:1.0 
-0.33240071087790724 5:1.0 6:1.0 16:1.0 34:1.0 35:1.0 42:1.0 54:1.0 64:1.0 67:1.0 73:1.0 74:1.0 76:1.0 78:1.0 83:1.0 
-0.30833295596520527 1:1.0 7:1.0 18:1.0 22:1.0 36:1.0 42:1.0 56:1.0 62:1.0 67:1.0 73:1.0 74:1.0 76:1.0 80:1.0 83:1.0 
-0.20201934678964406 1:1.0 6:1.0 18:1.0 22:1.0 36:1.0 42:1.0 55:1.0 62:1.0 67:1.0 72:1.0 74:1.0 76:1.0 80:1.0 83:1.0 
-0.2534011138703547 1:1.0 6:1.0 16:1.0 22:1.0 36:1.0 42:1.0 53:1.0 62:1.0 69:1.0 73:1.0 74:1.0 76:1.0 80:1.0 83:1.0 
-0.3339511435158425 3:1.0 7:1.0 16:1.0 19:1.0 39:1.0 41:1.0 51:1.0 64:1.0 67:1.0 73:1.0 74:1.0 76:1.0 78:1.0 83:1.0 
-0.3220001154196774 2:1.0 7:1.0 17:1.0 22:1.0 36:1.0 40:1.0 48:1.0 63:1.0 67:1.0 73:1.0 74:1.0 76:1.0 81:1.0 83:1.0 
-0.3054478523435868 4:1.0 6:1.0 15:1.0 22:1.0 36:1.0 44:1.0 50:1.0 64:1.0 67:1.0 72:1.0 74:1.0 76:1.0 80:1.0 83:1.0 
-0.3357431402936416 4:1.0 6:1.0 14:1.0 28:1.0 35:1.0 42:1.0 57:1.0 64:1.0 68:1.0 73:1.0 74:1.0 76:1.0 79:1.0 83:1.0 
-0.3315884403310412 4:1.0 7:1.0 16:1.0 20:1.0 37:1.0 41:1.0 48:1.0 64:1.0 67:1.0 73:1.0 74:1.0 76:1.0 80:1.0 83:1.0 
-0.33132675647193327 2:1.0 6:1.0 18:1.0 24:1.0 38:1.0 42:1.0 52:1.0 64:1.0 68:1.0 73:1.0 74:1.0 76:1.0 80:1.0 83:1.0 
-0.2886364339841183 1:1.0 11:1.0 16:1.0 20:1.0 37:1.0 42:1.0 49:1.0 62:1.0 71:1.0 73:1.0 74:1.0 76:1.0 78:1.0 83:1.0 
-0.33383240955610183 2:1.0 7:1.0 14:1.0 24:1.0 38:1.0 42:1.0 49:1.0 62:1.0 67:1.0 73:1.0 74:1.0 76:1.0 82:1.0 83:1.0 
-0.26983977510076423 2:1.0 6:1.0 18:1.0 22:1.0 36:1.0 42:1.0 54:1.0 62:1.0 67:1.0 72:1.0 74:1.0 76:1.0 80:1.0 83:1.0 
-0.3024617623026458 5:1.0 6:1.0 15:1.0 22:1.0 36:1.0 42:1.0 54:1.0 62:1.0 67:1.0 72:1.0 74:1.0 76:1.0 80:1.0 83:1.0 
-0.3376754889901094 3:1.0 11:1.0 18:1.0 19:1.0 39:1.0 40:1.0 59:1.0 63:1.0 71:1.0 73:1.0 74:1.0 76:1.0 82:1.0 83:1.0 
-0.33409225856893804 2:1.0 6:1.0 14:1.0 30:1.0 35:1.0 42:1.0 49:1.0 65:1.0 67:1.0 72:1.0 74:1.0 76:1.0 78:1.0 119:1.0 
-0.23655353519703579 1:1.0 6:1.0 15:1.0 28:1.0 35:1.0 42:1.0 50:1.0 62:1.0 67:1.0 72:1.0 74:1.0 76:1.0 78:1.0 83:1.0 
-0.5274763982339952 5:1.0 14:1.0 19:1.0 39:1.0 40:1.0 63:1.0 67:1.0 73:1.0 74:1.0 76:1.0 80:1.0 83:1.0 
-0.47282337256626494 2:1.0 6:1.0 14:1.0 22:1.0 36:1.0 40:1.0 52:1.0 63:1.0 67:1.0 73:1.0 74:1.0 76:1.0 82:1.0 83:1.0 
-0.2814679339660925 5:1.0 6:1.0 15:1.0 22:1.0 36:1.0 40:1.0 51:1.0 61:1.0 67:1.0 72:1.0 74:1.0 76:1.0 80:1.0 83:1.0 
-0.3199930618476428 1:1.0 6:1.0 18:1.0 21:1.0 35:1.0 42:1.0 58:1.0 64:1.0 67:1.0 72:1.0 74:1.0 76:1.0 79:1.0 83:1.0 
-0.33052432344855165 1:1.0 6:1.0 18:1.0 24:1.0 38:1.0 42:1.0 50:1.0 64:1.0 71:1.0 73:1.0 74:1.0 76:1.0 80:1.0 
-0.25462753426676493 1:1.0 6:1.0 14:1.0 20:1.0 37:1.0 42:1.0 55:1.0 62:1.0 67:1.0 72:1.0 74:1.0 76:1.0 79:1.0 83:1.0 
-0.3319244261364857 4:1.0 6:1.0 15:1.0 22:1.0 36:1.0 42:1.0 48:1.0 66:1.0 67:1.0 72:1.0 74:1.0 76:1.0 80:1.0 86:1.0 
-0.3304146752043545 3:1.0 6:1.0 18:1.0 20:1.0 37:1.0 42:1.0 50:1.0 66:1.0 71:1.0 72:1.0 74:1.0 76:1.0 80:1.0 83:1.0 
-0.258208489937359 3:1.0 6:1.0 16:1.0 22:1.0 36:1.0 42:1.0 49:1.0 64:1.0 67:1.0 73:1.0 74:1.0 76:1.0 80:1.0 83:1.0 
-0.33458662280391577 2:1.0 6:1.0 17:1.0 29:1.0 39:1.0 42:1.0 51:1.0 64:1.0 70:1.0 73:1.0 74:1.0 76:1.0 78:1.0 95:1.0 
-0.3141243755249244 3:1.0 6:1.0 14:1.0 20:1.0 37:1.0 41:1.0 53:1.0 66:1.0 67:1.0 72:1.0 74:1.0 76:1.0 80:1.0 83:1.0 
-0.25837715813932105 1:1.0 6:1.0 16:1.0 28:1.0 35:1.0 42:1.0 49:1.0 62:1.0 67:1.0 73:1.0 74:1.0 76:1.0 78:1.0 83:1.0 
-0.3124835136467493 3:1.0 6:1.0 16:1.0 20:1.0 37:1.0 41:1.0 54:1.0 64:1.0 67:1.0 73:1.0 74:1.0 76:1.0 80:1.0 83:1.0 
-0.3084505048735476 5:1.0 6:1.0 17:1.0 31:1.0 35:1.0 40:1.0 57:1.0 63:1.0 67:1.0 73:1.0 74:1.0 76:1.0 80:1.0 83:1.0 
-0.31257869638263613 2:1.0 6:1.0 16:1.0 20:1.0 37:1.0 41:1.0 55:1.0 64:1.0 67:1.0 72:1.0 74:1.0 76:1.0 79:1.0 83:1.0 
-0.34503298513742703 3:1.0 8:1.0 14:1.0 22:1.0 36:1.0 40:1.0 51:1.0 63:1.0 67:1.0 73:1.0 74:1.0 76:1.0 80:1.0 83:1.0 
-0.32375490410848934 1:1.0 6:1.0 17:1.0 27:1.0 35:1.0 40:1.0 48:1.0 63:1.0 67:1.0 73:1.0 74:1.0 76:1.0 80:1.0 103:1.0 
-0.34792600104010973 2:1.0 6:1.0 14:1.0 20:1.0 37:1.0 40:1.0 55:1.0 63:1.0 67:1.0 73:1.0 74:1.0 76:1.0 82:1.0 83:1.0 
-0.32184320155011154 4:1.0 6:1.0 14:1.0 22:1.0 36:1.0 44:1.0 55:1.0 66:1.0 67:1.0 72:1.0 74:1.0 76:1.0 79:1.0 83:1.0 
-0.3225047124995275 1:1.0 6:1.0 17:1.0 21:1.0 35:1.0 42:1.0 50:1.0 62:1.0 67:1.0 72:1.0 74:1.0 77:1.0 78:1.0 83:1.0 
-0.20770073908313455 1:1.0 17:1.0 20:1.0 37:1.0 42:1.0 62:1.0 67:1.0 73:1.0 74:1.0 76:1.0 78:1.0 83:1.0 
-0.333411488504401 2:1.0 7:1.0 18:1.0 27:1.0 35:1.0 40:1.0 52:1.0 63:1.0 67:1.0 73:1.0 74:1.0 76:1.0 82:1.0 83:1.0 
