svm_type c_svc
kernel_type rbf
gamma 16.0
nr_class 2
total_sv 1587
rho 0.6765712134349676
label 1 -1
nr_sv 395 1192
SV
1.0 5:1.0 11:1.0 15:1.0 32:1.0 39:1.0 40:1.0 52:1.0 63:1.0 67:1.0 73:1.0 74:1.0 76:1.0 78:1.0 83:1.0 
1.0 5:1.0 18:1.0 19:1.0 39:1.0 40:1.0 63:1.0 67:1.0 73:1.0 74:1.0 76:1.0 80:1.0 83:1.0 
1.0 5:1.0 6:1.0 14:1.0 27:1.0 35:1.0 42:1.0 57:1.0 64:1.0 67:1.0 73:1.0 74:1.0 76:1.0 82:1.0 83:1.0 
1.0 3:1.0 6:1.0 17:1.0 19:1.0 39:1.0 42:1.0 50:1.0 64:1.0 70:1.0 72:1.0 74:1.0 76:1.0 82:1.0 83:1.0 
1.0 4:1.0 6:1.0 14:1.0 29:1.0 39:1.0 42:1.0 47:1.0 64:1.0 67:1.0 73:1.0 74:1.0 76:1.0 79:1.0 83:1.0 
1.0 5:1.0 6:1.0 15:1.0 22:1.0 36:1.0 40:1.0 49:1.0 63:1.0 67:1.0 73:1.0 74:1.0 76:1.0 80:1.0 83:1.0 
1.0 3:1.0 6:1.0 16:1.0 21:1.0 35:1.0 40:1.0 54:1.0 63:1.0 67:1.0 73:1.0 75:1.0 76:1.0 81:1.0 83:1.0 
1.0 5:1.0 6:1.0 16:1.0 32:1.0 39:1.0 40:1.0 52:1.0 63:1.0 67:1.0 73:1.0 74:1.0 77:1.0 82:1.0 83:1.0 
1.0 5:1.0 7:1.0 18:1.0 19:1.0 39:1.0 40:1.0 50:1.0 63:1.0 67:1.0 73:1.0 74:1.0 76:1.0 80:1.0 87:1.0 
1.0 4:1.0 6:1.0 15:1.0 19:1.0 39:1.0 40:1.0 48:1.0 63:1.0 67:1.0 73:1.0 75:1.0 76:1.0 80:1.0 83:1.0 
1.0 4:1.0 7:1.0 17:1.0 29:1.0 39:1.0 40:1.0 51:1.0 63:1.0 67:1.0 73:1.0 74:1.0 76:1.0 81:1.0 83:1.0 
1.0 5:1.0 6:1.0 15:1.0 22:1.0 36:1.0 40:1.0 50:1.0 63:1.0 67:1.0 73:1.0 74:1.0 76:1.0 82:1.0 83:1.0 
1.0 5:1.0 6:1.0 15:1.0 20:1.0 37:1.0 40:1.0 57:1.0 63:1.0 67:1.0 73:1.0 74:1.0 76:1.0 78:1.0 83:1.0 
1.0 3:1.0 6:1.0 17:1.0 22:1.0 36:1.0 40:1.0 51:1.0 63:1.0 67:1.0 73:1.0 74:1.0 76:1.0 80:1.0 83:1.0 
1.0 3:1.0 6:1.0 18:1.0 22:1.0 36:1.0 40:1.0 51:1.0 63:1.0 67:1.0 73:1.0 74:1.0 76:1.0 82:1.0 83:1.0 
1.0 2:1.0 6:1.0 18:1.0 22:1.0 36:1.0 40:1.0 50:1.0 63:1.0 67:1.0 73:1.0 74:1.0 76:1.0 82:1.0 83:1.0 
1.0 4:1.0 6:1.0 16:1.0 19:1.0 39:1.0 40:1.0 52:1.0 61:1.0 67:1.0 72:1.0 75:1.0 76:1.0 78:1.0 83:1.0 
1.0 2:1.0 6:1.0 16:1.0 20:1.0 37:1.0 40:1.0 47:1.0 63:1.0 67:1.0 73:1.0 75:1.0 76:1.0 80:1.0 83:1.0 
1.0 4:1.0 6:1.0 16:1.0 22:1.0 36:1.0 40:1.0 49:1.0 61:1.0 71:1.0 72:1.0 74:1.0 76:1.0 80:1.0 83:1.0 
1.0 4:1.0 6:1.0 14:1.0 20:1.0 37:1.0 40:1.0 47:1.0 63:1.0 67:1.0 73:1.0 74:1.0 76:1.0 78:1.0 83:1.0 
1.0 5:1.0 10:1.0 16:1.0 29:1.0 39:1.0 40:1.0 52:1.0 63:1.0 67:1.0 73:1.0 74:1.0 76:1.0 80:1.0 83:1.0 
1.0 3:1.0 7:1.0 18:1.0 19:1.0 39:1.0 40:1.0 50:1.0 63:1.0 67:1.0 73:1.0 74:1.0 76:1.0 81:1.0 83:1.0 
1.0 5:1.0 6:1.0 15:1.0 19:1.0 39:1.0 40:1.0 51:1.0 63:1.0 67:1.0 73:1.0 75:1.0 76:1.0 82:1.0 83:1.0 
1.0 3:1.0 6:1.0 17:1.0 19:1.0 39:1.0 40:1.0 52:1.0 63:1.0 67:1.0 73:1.0 75:1.0 76:1.0 82:1.0 83:1.0 
1.0 5:1.0 9:1.0 14:1.0 22:1.0 36:1.0 40:1.0 51:1.0 63:1.0 67:1.0 73:1.0 75:1.0 76:1.0 80:1.0 83:1.0 
1.0 2:1.0 6:1.0 14:1.0 22:1.0 36:1.0 40:1.0 48:1.0 63:1.0 67:1.0 73:1.0 74:1.0 76:1.0 80:1.0 83:1.0 
1.0 3:1.0 6:1.0 17:1.0 19:1.0 39:1.0 40:1.0 51:1.0 63:1.0 67:1.0 73:1.0 75:1.0 76:1.0 80:1.0 83:1.0 
1.0 5:1.0 10:1.0 17:1.0 21:1.0 35:1.0 40:1.0 48:1.0 63:1.0 71:1.0 73:1.0 74:1.0 76:1.0 80:1.0 83:1.0 
1.0 4:1.0 6:1.0 15:1.0 22:1.0 36:1.0 40:1.0 50:1.0 63:1.0 67:1.0 73:1.0 74:1.0 76:1.0 82:1.0 83:1.0 
1.0 5:1.0 6:1.0 17:1.0 25:1.0 38:1.0 40:1.0 51:1.0 63:1.0 67:1.0 73:1.0 74:1.0 76:1.0 80:1.0 88:1.0 
1.0 3:1.0 6:1.0 17:1.0 29:1.0 39:1.0 40:1.0 52:1.0 63:1.0 67:1.0 73:1.0 74:1.0 76:1.0 79:1.0 83:1.0 
1.0 2:1.0 10:1.0 18:1.0 32:1.0 39:1.0 42:1.0 52:1.0 64:1.0 67:1.0 73:1.0 74:1.0 76:1.0 82:1.0 103:1.0 
1.0 4:1.0 6:1.0 16:1.0 22:1.0 36:1.0 40:1.0 48:1.0 63:1.0 67:1.0 73:1.0 75:1.0 76:1.0 81:1.0 83:1.0 
1.0 4:1.0 11:1.0 16:1.0 19:1.0 39:1.0 40:1.0 51:1.0 63:1.0 67:1.0 73:1.0 75:1.0 76:1.0 80:1.0 83:1.0 
1.0 5:1.0 7:1.0 18:1.0 19:1.0 39:1.0 40:1.0 47:1.0 61:1.0 67:1.0 72:1.0 74:1.0 76:1.0 82:1.0 83:1.0 
1.0 4:1.0 6:1.0 17:1.0 20:1.0 37:1.0 40:1.0 48:1.0 63:1.0 71:1.0 73:1.0 74:1.0 76:1.0 80:1.0 83:1.0 
1.0 3:1.0 6:1.0 16:1.0 29:1.0 39:1.0 40:1.0 50:1.0 63:1.0 67:1.0 73:1.0 74:1.0 76:1.0 82:1.0 83:1.0 
1.0 5:1.0 6:1.0 16:1.0 19:1.0 39:1.0 41:1.0 51:1.0 64:1.0 71:1.0 73:1.0 75:1.0 76:1.0 80:1.0 83:1.0 
1.0 3:1.0 6:1.0 14:1.0 20:1.0 37:1.0 40:1.0 47:1.0 63:1.0 67:1.0 73:1.0 74:1.0 76:1.0 82:1.0 83:1.0 
1.0 3:1.0 6:1.0 14:1.0 22:1.0 36:1.0 40:1.0 57:1.0 63:1.0 67:1.0 73:1.0 75:1.0 76:1.0 82:1.0 83:1.0 
1.0 4:1.0 6:1.0 17:1.0 19:1.0 39:1.0 40:1.0 52:1.0 63:1.0 67:1.0 73:1.0 74:1.0 77:1.0 80:1.0 83:1.0 
1.0 4:1.0 6:1.0 14:1.0 25:1.0 38:1.0 40:1.0 50:1.0 63:1.0 67:1.0 73:1.0 74:1.0 77:1.0 82:1.0 83:1.0 
0.6767578124999907 5:1.0 9:1.0 14:1.0 22:1.0 36:1.0 40:1.0 55:1.0 63:1.0 67:1.0 73:1.0 74:1.0 76:1.0 80:1.0 83:1.0 
1.0 5:1.0 16:1.0 20:1.0 37:1.0 40:1.0 61:1.0 67:1.0 72:1.0 74:1.0 76:1.0 81:1.0 83:1.0 
1.0 5:1.0 6:1.0 14:1.0 22:1.0 36:1.0 40:1.0 53:1.0 63:1.0 67:1.0 73:1.0 74:1.0 76:1.0 80:1.0 83:1.0 
1.0 5:1.0 6:1.0 16:1.0 19:1.0 39:1.0 43:1.0 51:1.0 64:1.0 67:1.0 73:1.0 75:1.0 76:1.0 81:1.0 83:1.0 
1.0 4:1.0 6:1.0 17:1.0 22:1.0 36:1.0 40:1.0 47:1.0 63:1.0 67:1.0 73:1.0 74:1.0 76:1.0 81:1.0 83:1.0 
1.0 5:1.0 6:1.0 15:1.0 24:1.0 38:1.0 40:1.0 51:1.0 61:1.0 71:1.0 72:1.0 74:1.0 76:1.0 80:1.0 83:1.0 
1.0 2:1.0 10:1.0 15:1.0 19:1.0 39:1.0 42:1.0 52:1.0 64:1.0 71:1.0 73:1.0 75:1.0 76:1.0 81:1.0 
1.0 5:1.0 7:1.0 14:1.0 22:1.0 36:1.0 40:1.0 51:1.0 63:1.0 67:1.0 73:1.0 75:1.0 76:1.0 82:1.0 83:1.0 
1.0 4:1.0 8:1.0 15:1.0 19:1.0 39:1.0 40:1.0 50:1.0 63:1.0 67:1.0 73:1.0 74:1.0 76:1.0 82:1.0 83:1.0 
1.0 3:1.0 8:1.0 17:1.0 22:1.0 36:1.0 40:1.0 48:1.0 63:1.0 67:1.0 73:1.0 74:1.0 76:1.0 82:1.0 
1.0 4:1.0 6:1.0 18:1.0 20:1.0 37:1.0 40:1.0 57:1.0 63:1.0 67:1.0 73:1.0 74:1.0 76:1.0 82:1.0 83:1.0 
1.0 3:1.0 6:1.0 17:1.0 22:1.0 36:1.0 40:1.0 54:1.0 63:1.0 67:1.0 73:1.0 74:1.0 76:1.0 82:1.0 83:1.0 
1.0 5:1.0 10:1.0 15:1.0 19:1.0 39:1.0 40:1.0 52:1.0 63:1.0 67:1.0 73:1.0 74:1.0 77:1.0 80:1.0 83:1.0 
1.0 3:1.0 10:1.0 17:1.0 29:1.0 39:1.0 40:1.0 52:1.0 61:1.0 67:1.0 72:1.0 74:1.0 76:1.0 80:1.0 83:1.0 
1.0 1:1.0 6:1.0 16:1.0 19:1.0 39:1.0 40:1.0 51:1.0 61:1.0 67:1.0 72:1.0 74:1.0 76:1.0 78:1.0 83:1.0 
1.0 3:1.0 11:1.0 14:1.0 29:1.0 39:1.0 40:1.0 52:1.0 63:1.0 67:1.0 73:1.0 75:1.0 76:1.0 79:1.0 83:1.0 
1.0 4:1.0 6:1.0 15:1.0 20:1.0 37:1.0 40:1.0 50:1.0 63:1.0 67:1.0 73:1.0 75:1.0 76:1.0 80:1.0 83:1.0 
0.6796874999999849 5:1.0 8:1.0 17:1.0 20:1.0 37:1.0 40:1.0 51:1.0 63:1.0 67:1.0 73:1.0 74:1.0 76:1.0 80:1.0 83:1.0 
1.0 4:1.0 6:1.0 15:1.0 29:1.0 39:1.0 40:1.0 47:1.0 63:1.0 67:1.0 73:1.0 74:1.0 76:1.0 78:1.0 83:1.0 
1.0 2:1.0 6:1.0 15:1.0 20:1.0 37:1.0 40:1.0 56:1.0 63:1.0 67:1.0 73:1.0 74:1.0 76:1.0 82:1.0 83:1.0 
1.0 3:1.0 6:1.0 15:1.0 20:1.0 37:1.0 40:1.0 51:1.0 63:1.0 67:1.0 73:1.0 75:1.0 76:1.0 80:1.0 83:1.0 
1.0 3:1.0 6:1.0 17:1.0 20:1.0 37:1.0 40:1.0 55:1.0 61:1.0 67:1.0 72:1.0 74:1.0 76:1.0 79:1.0 83:1.0 
1.0 5:1.0 6:1.0 16:1.0 32:1.0 39:1.0 40:1.0 51:1.0 63:1.0 67:1.0 73:1.0 74:1.0 76:1.0 80:1.0 83:1.0 
1.0 3:1.0 7:1.0 14:1.0 19:1.0 39:1.0 40:1.0 52:1.0 63:1.0 67:1.0 73:1.0 74:1.0 76:1.0 82:1.0 83:1.0 
1.0 5:1.0 7:1.0 14:1.0 27:1.0 35:1.0 45:1.0 55:1.0 64:1.0 67:1.0 73:1.0 74:1.0 76:1.0 78:1.0 99:1.0 
1.0 2:1.0 6:1.0 16:1.0 22:1.0 36:1.0 40:1.0 54:1.0 63:1.0 67:1.0 73:1.0 74:1.0 76:1.0 80:1.0 83:1.0 
1.0 4:1.0 10:1.0 17:1.0 20:1.0 37:1.0 40:1.0 48:1.0 63:1.0 67:1.0 73:1.0 74:1.0 76:1.0 80:1.0 83:1.0 
0.6767578124999907 3:1.0 6:1.0 15:1.0 19:1.0 39:1.0 40:1.0 50:1.0 63:1.0 67:1.0 73:1.0 74:1.0 76:1.0 82:1.0 83:1.0 
1.0 5:1.0 6:1.0 18:1.0 19:1.0 39:1.0 40:1.0 51:1.0 63:1.0 67:1.0 73:1.0 74:1.0 76:1.0 82:1.0 83:1.0 
1.0 2:1.0 7:1.0 17:1.0 22:1.0 36:1.0 40:1.0 48:1.0 63:1.0 67:1.0 73:1.0 74:1.0 76:1.0 80:1.0 83:1.0 
1.0 2:1.0 6:1.0 15:1.0 20:1.0 37:1.0 40:1.0 51:1.0 63:1.0 67:1.0 73:1.0 74:1.0 76:1.0 80:1.0 83:1.0 
1.0 3:1.0 6:1.0 17:1.0 19:1.0 39:1.0 40:1.0 52:1.0 63:1.0 67:1.0 73:1.0 74:1.0 76:1.0 80:1.0 83:1.0 
1.0 1:1.0 6:1.0 18:1.0 27:1.0 35:1.0 42:1.0 49:1.0 64:1.0 67:1.0 73:1.0 74:1.0 76:1.0 82:1.0 83:1.0 
1.0 4:1.0 6:1.0 14:1.0 20:1.0 37:1.0 40:1.0 50:1.0 63:1.0 67:1.0 73:1.0 74:1.0 76:1.0 81:1.0 83:1.0 
1.0 3:1.0 6:1.0 15:1.0 19:1.0 39:1.0 40:1.0 54:1.0 63:1.0 67:1.0 73:1.0 74:1.0 76:1.0 82:1.0 83:1.0 
1.0 3:1.0 6:1.0 17:1.0 23:1.0 39:1.0 43:1.0 52:1.0 64:1.0 67:1.0 73:1.0 74:1.0 76:1.0 79:1.0 83:1.0 
1.0 2:1.0 9:1.0 18:1.0 19:1.0 39:1.0 40:1.0 51:1.0 63:1.0 67:1.0 73:1.0 74:1.0 76:1.0 80:1.0 83:1.0 
1.0 2:1.0 6:1.0 17:1.0 19:1.0 39:1.0 40:1.0 51:1.0 63:1.0 67:1.0 73:1.0 74:1.0 76:1.0 80:1.0 83:1.0 
1.0 5:1.0 8:1.0 15:1.0 23:1.0 39:1.0 40:1.0 52:1.0 63:1.0 67:1.0 73:1.0 75:1.0 76:1.0 82:1.0 83:1.0 
1.0 4:1.0 6:1.0 16:1.0 22:1.0 36:1.0 40:1.0 57:1.0 63:1.0 67:1.0 73:1.0 74:1.0 76:1.0 82:1.0 83:1.0 
1.0 4:1.0 7:1.0 16:1.0 20:1.0 37:1.0 40:1.0 48:1.0 63:1.0 67:1.0 73:1.0 74:1.0 77:1.0 80:1.0 83:1.0 
1.0 4:1.0 7:1.0 14:1.0 22:1.0 36:1.0 40:1.0 51:1.0 63:1.0 67:1.0 73:1.0 74:1.0 76:1.0 80:1.0 83:1.0 
1.0 2:1.0 6:1.0 16:1.0 19:1.0 39:1.0 46:1.0 51:1.0 61:1.0 67:1.0 72:1.0 74:1.0 76:1.0 80:1.0 83:1.0 
1.0 4:1.0 6:1.0 15:1.0 25:1.0 38:1.0 40:1.0 55:1.0 61:1.0 67:1.0 72:1.0 74:1.0 76:1.0 80:1.0 83:1.0 
1.0 5:1.0 7:1.0 16:1.0 22:1.0 36:1.0 42:1.0 56:1.0 64:1.0 67:1.0 73:1.0 75:1.0 76:1.0 80:1.0 83:1.0 
1.0 3:1.0 9:1.0 16:1.0 23:1.0 39:1.0 42:1.0 52:1.0 64:1.0 67:1.0 72:1.0 74:1.0 76:1.0 82:1.0 83:1.0 
1.0 2:1.0 7:1.0 16:1.0 22:1.0 36:1.0 40:1.0 57:1.0 63:1.0 67:1.0 73:1.0 75:1.0 76:1.0 80:1.0 83:1.0 
1.0 5:1.0 14:1.0 23:1.0 39:1.0 40:1.0 63:1.0 67:1.0 73:1.0 75:1.0 76:1.0 78:1.0 83:1.0 
1.0 4:1.0 7:1.0 14:1.0 29:1.0 39:1.0 40:1.0 56:1.0 63:1.0 67:1.0 73:1.0 74:1.0 76:1.0 80:1.0 83:1.0 
1.0 5:1.0 6:1.0 15:1.0 29:1.0 39:1.0 40:1.0 51:1.0 63:1.0 67:1.0 73:1.0 75:1.0 76:1.0 82:1.0 83:1.0 
1.0 2:1.0 6:1.0 17:1.0 22:1.0 36:1.0 40:1.0 54:1.0 63:1.0 67:1.0 73:1.0 74:1.0 76:1.0 82:1.0 83:1.0 
1.0 3:1.0 6:1.0 14:1.0 19:1.0 39:1.0 40:1.0 57:1.0 63:1.0 67:1.0 73:1.0 75:1.0 76:1.0 82:1.0 83:1.0 
1.0 3:1.0 6:1.0 18:1.0 32:1.0 39:1.0 42:1.0 52:1.0 64:1.0 67:1.0 73:1.0 74:1.0 76:1.0 80:1.0 110:1.0 
1.0 4:1.0 6:1.0 16:1.0 32:1.0 39:1.0 42:1.0 52:1.0 64:1.0 67:1.0 73:1.0 74:1.0 76:1.0 79:1.0 83:1.0 
1.0 4:1.0 6:1.0 17:1.0 19:1.0 39:1.0 40:1.0 51:1.0 63:1.0 71:1.0 73:1.0 74:1.0 76:1.0 79:1.0 83:1.0 
1.0 4:1.0 6:1.0 17:1.0 25:1.0 38:1.0 40:1.0 54:1.0 63:1.0 67:1.0 73:1.0 74:1.0 76:1.0 80:1.0 83:1.0 
1.0 4:1.0 6:1.0 14:1.0 25:1.0 38:1.0 40:1.0 51:1.0 63:1.0 67:1.0 73:1.0 75:1.0 76:1.0 82:1.0 83:1.0 
1.0 5:1.0 6:1.0 14:1.0 19:1.0 39:1.0 40:1.0 50:1.0 63:1.0 67:1.0 73:1.0 75:1.0 76:1.0 78:1.0 83:1.0 
1.0 3:1.0 6:1.0 17:1.0 19:1.0 39:1.0 40:1.0 47:1.0 63:1.0 67:1.0 73:1.0 74:1.0 76:1.0 82:1.0 83:1.0 
1.0 4:1.0 6:1.0 17:1.0 19:1.0 39:1.0 40:1.0 51:1.0 63:1.0 67:1.0 73:1.0 75:1.0 76:1.0 82:1.0 83:1.0 
1.0 3:1.0 11:1.0 17:1.0 29:1.0 39:1.0 40:1.0 52:1.0 61:1.0 67:1.0 72:1.0 75:1.0 76:1.0 79:1.0 83:1.0 
1.0 3:1.0 6:1.0 16:1.0 20:1.0 37:1.0 40:1.0 51:1.0 63:1.0 67:1.0 73:1.0 74:1.0 76:1.0 82:1.0 83:1.0 
1.0 5:1.0 11:1.0 17:1.0 32:1.0 39:1.0 40:1.0 52:1.0 63:1.0 67:1.0 73:1.0 74:1.0 76:1.0 82:1.0 112:1.0 
1.0 2:1.0 6:1.0 17:1.0 22:1.0 36:1.0 40:1.0 53:1.0 61:1.0 67:1.0 72:1.0 74:1.0 76:1.0 80:1.0 103:1.0 
1.0 5:1.0 7:1.0 14:1.0 23:1.0 39:1.0 40:1.0 52:1.0 63:1.0 67:1.0 73:1.0 74:1.0 76:1.0 82:1.0 85:1.0 
1.0 3:1.0 6:1.0 18:1.0 19:1.0 39:1.0 40:1.0 51:1.0 63:1.0 67:1.0 73:1.0 74:1.0 76:1.0 82:1.0 83:1.0 
1.0 4:1.0 10:1.0 15:1.0 29:1.0 39:1.0 41:1.0 52:1.0 66:1.0 71:1.0 72:1.0 75:1.0 76:1.0 80:1.0 83:1.0 
1.0 5:1.0 16:1.0 22:1.0 36:1.0 40:1.0 63:1.0 67:1.0 73:1.0 74:1.0 76:1.0 80:1.0 83:1.0 
1.0 2:1.0 10:1.0 17:1.0 22:1.0 36:1.0 40:1.0 59:1.0 63:1.0 67:1.0 73:1.0 74:1.0 76:1.0 81:1.0 83:1.0 
1.0 3:1.0 6:1.0 15:1.0 22:1.0 36:1.0 40:1.0 54:1.0 63:1.0 68:1.0 73:1.0 74:1.0 76:1.0 80:1.0 
1.0 4:1.0 6:1.0 16:1.0 22:1.0 36:1.0 40:1.0 54:1.0 63:1.0 67:1.0 73:1.0 74:1.0 76:1.0 81:1.0 83:1.0 
1.0 4:1.0 6:1.0 14:1.0 22:1.0 36:1.0 40:1.0 53:1.0 63:1.0 67:1.0 73:1.0 74:1.0 76:1.0 82:1.0 83:1.0 
1.0 5:1.0 6:1.0 16:1.0 22:1.0 36:1.0 40:1.0 48:1.0 63:1.0 67:1.0 73:1.0 74:1.0 76:1.0 80:1.0 83:1.0 
1.0 5:1.0 11:1.0 14:1.0 25:1.0 38:1.0 41:1.0 47:1.0 64:1.0 67:1.0 73:1.0 74:1.0 77:1.0 79:1.0 83:1.0 
1.0 4:1.0 11:1.0 15:1.0 22:1.0 36:1.0 41:1.0 55:1.0 66:1.0 67:1.0 72:1.0 74:1.0 76:1.0 82:1.0 83:1.0 
1.0 5:1.0 6:1.0 18:1.0 20:1.0 37:1.0 40:1.0 57:1.0 63:1.0 67:1.0 73:1.0 75:1.0 76:1.0 78:1.0 83:1.0 
1.0 4:1.0 10:1.0 17:1.0 22:1.0 36:1.0 40:1.0 54:1.0 63:1.0 71:1.0 73:1.0 74:1.0 76:1.0 80:1.0 83:1.0 
1.0 5:1.0 11:1.0 14:1.0 29:1.0 39:1.0 40:1.0 51:1.0 63:1.0 67:1.0 73:1.0 75:1.0 76:1.0 79:1.0 83:1.0 
1.0 5:1.0 9:1.0 16:1.0 22:1.0 36:1.0 40:1.0 47:1.0 63:1.0 67:1.0 73:1.0 74:1.0 77:1.0 80:1.0 83:1.0 
1.0 4:1.0 6:1.0 16:1.0 22:1.0 36:1.0 40:1.0 54:1.0 63:1.0 67:1.0 73:1.0 74:1.0 76:1.0 80:1.0 83:1.0 
1.0 4:1.0 6:1.0 14:1.0 29:1.0 39:1.0 40:1.0 47:1.0 63:1.0 67:1.0 73:1.0 74:1.0 77:1.0 80:1.0 83:1.0 
1.0 5:1.0 6:1.0 14:1.0 21:1.0 35:1.0 40:1.0 50:1.0 63:1.0 67:1.0 73:1.0 75:1.0 76:1.0 78:1.0 83:1.0 
1.0 3:1.0 7:1.0 14:1.0 22:1.0 36:1.0 41:1.0 56:1.0 64:1.0 67:1.0 73:1.0 75:1.0 76:1.0 80:1.0 83:1.0 
1.0 3:1.0 11:1.0 14:1.0 22:1.0 36:1.0 40:1.0 54:1.0 63:1.0 67:1.0 73:1.0 74:1.0 76:1.0 80:1.0 83:1.0 
1.0 5:1.0 6:1.0 15:1.0 22:1.0 36:1.0 40:1.0 48:1.0 63:1.0 67:1.0 73:1.0 74:1.0 76:1.0 82:1.0 83:1.0 
1.0 3:1.0 6:1.0 14:1.0 24:1.0 38:1.0 40:1.0 51:1.0 63:1.0 67:1.0 73:1.0 74:1.0 76:1.0 80:1.0 83:1.0 
1.0 3:1.0 10:1.0 14:1.0 20:1.0 37:1.0 40:1.0 55:1.0 61:1.0 67:1.0 72:1.0 74:1.0 76:1.0 80:1.0 83:1.0 
1.0 4:1.0 6:1.0 15:1.0 25:1.0 38:1.0 40:1.0 56:1.0 63:1.0 67:1.0 73:1.0 74:1.0 76:1.0 80:1.0 83:1.0 
1.0 4:1.0 6:1.0 18:1.0 20:1.0 37:1.0 40:1.0 50:1.0 63:1.0 67:1.0 73:1.0 74:1.0 76:1.0 81:1.0 83:1.0 
1.0 2:1.0 6:1.0 16:1.0 20:1.0 37:1.0 40:1.0 57:1.0 63:1.0 67:1.0 73:1.0 74:1.0 76:1.0 82:1.0 83:1.0 
0.687499999999998 4:1.0 10:1.0 15:1.0 20:1.0 37:1.0 40:1.0 59:1.0 63:1.0 67:1.0 73:1.0 74:1.0 76:1.0 80:1.0 83:1.0 
1.0 5:1.0 6:1.0 18:1.0 22:1.0 36:1.0 40:1.0 48:1.0 63:1.0 67:1.0 73:1.0 74:1.0 76:1.0 79:1.0 83:1.0 
1.0 4:1.0 6:1.0 15:1.0 29:1.0 39:1.0 40:1.0 55:1.0 63:1.0 67:1.0 73:1.0 74:1.0 76:1.0 81:1.0 83:1.0 
1.0 3:1.0 6:1.0 18:1.0 22:1.0 36:1.0 41:1.0 51:1.0 66:1.0 67:1.0 72:1.0 74:1.0 76:1.0 80:1.0 83:1.0 
1.0 2:1.0 6:1.0 17:1.0 22:1.0 36:1.0 40:1.0 57:1.0 63:1.0 67:1.0 73:1.0 74:1.0 76:1.0 82:1.0 83:1.0 
1.0 3:1.0 10:1.0 16:1.0 26:1.0 35:1.0 40:1.0 49:1.0 61:1.0 67:1.0 72:1.0 74:1.0 76:1.0 80:1.0 118:1.0 
1.0 5:1.0 7:1.0 15:1.0 22:1.0 36:1.0 41:1.0 51:1.0 64:1.0 67:1.0 72:1.0 75:1.0 76:1.0 79:1.0 83:1.0 
1.0 4:1.0 6:1.0 16:1.0 20:1.0 37:1.0 40:1.0 50:1.0 63:1.0 67:1.0 73:1.0 74:1.0 76:1.0 80:1.0 83:1.0 
1.0 2:1.0 6:1.0 16:1.0 20:1.0 37:1.0 40:1.0 53:1.0 63:1.0 67:1.0 73:1.0 74:1.0 76:1.0 80:1.0 83:1.0 
1.0 4:1.0 6:1.0 15:1.0 32:1.0 39:1.0 40:1.0 52:1.0 63:1.0 67:1.0 73:1.0 74:1.0 76:1.0 82:1.0 83:1.0 
1.0 3:1.0 6:1.0 17:1.0 19:1.0 39:1.0 40:1.0 50:1.0 63:1.0 67:1.0 73:1.0 74:1.0 77:1.0 82:1.0 83:1.0 
1.0 3:1.0 6:1.0 17:1.0 19:1.0 39:1.0 40:1.0 47:1.0 63:1.0 67:1.0 73:1.0 74:1.0 76:1.0 80:1.0 83:1.0 
1.0 3:1.0 10:1.0 17:1.0 24:1.0 38:1.0 40:1.0 51:1.0 63:1.0 67:1.0 73:1.0 74:1.0 76:1.0 80:1.0 83:1.0 
1.0 3:1.0 6:1.0 16:1.0 25:1.0 38:1.0 40:1.0 48:1.0 63:1.0 67:1.0 73:1.0 75:1.0 76:1.0 80:1.0 83:1.0 
1.0 5:1.0 7:1.0 15:1.0 23:1.0 39:1.0 40:1.0 52:1.0 63:1.0 67:1.0 73:1.0 74:1.0 76:1.0 82:1.0 83:1.0 
0.687499999999998 2:1.0 6:1.0 15:1.0 19:1.0 39:1.0 40:1.0 52:1.0 61:1.0 67:1.0 72:1.0 74:1.0 77:1.0 78:1.0 83:1.0 
1.0 5:1.0 6:1.0 14:1.0 19:1.0 39:1.0 42:1.0 49:1.0 64:1.0 68:1.0 72:1.0 74:1.0 76:1.0 78:1.0 91:1.0 
1.0 5:1.0 6:1.0 17:1.0 22:1.0 36:1.0 40:1.0 51:1.0 63:1.0 67:1.0 73:1.0 74:1.0 76:1.0 82:1.0 83:1.0 
1.0 3:1.0 6:1.0 15:1.0 22:1.0 36:1.0 40:1.0 54:1.0 61:1.0 67:1.0 72:1.0 74:1.0 76:1.0 81:1.0 83:1.0 
1.0 2:1.0 6:1.0 15:1.0 29:1.0 39:1.0 43:1.0 51:1.0 64:1.0 67:1.0 73:1.0 74:1.0 77:1.0 82:1.0 83:1.0 
1.0 2:1.0 6:1.0 15:1.0 23:1.0 39:1.0 40:1.0 52:1.0 61:1.0 67:1.0 72:1.0 74:1.0 76:1.0 82:1.0 83:1.0 
1.0 5:1.0 6:1.0 16:1.0 22:1.0 36:1.0 40:1.0 57:1.0 63:1.0 67:1.0 73:1.0 74:1.0 77:1.0 82:1.0 83:1.0 
1.0 4:1.0 9:1.0 14:1.0 22:1.0 36:1.0 40:1.0 55:1.0 63:1.0 67:1.0 73:1.0 74:1.0 76:1.0 80:1.0 83:1.0 
1.0 3:1.0 9:1.0 15:1.0 22:1.0 36:1.0 40:1.0 55:1.0 63:1.0 67:1.0 73:1.0 74:1.0 76:1.0 80:1.0 83:1.0 
1.0 3:1.0 6:1.0 17:1.0 22:1.0 36:1.0 40:1.0 51:1.0 63:1.0 67:1.0 73:1.0 74:1.0 76:1.0 81:1.0 83:1.0 
1.0 4:1.0 10:1.0 17:1.0 19:1.0 39:1.0 41:1.0 59:1.0 64:1.0 71:1.0 73:1.0 74:1.0 76:1.0 82:1.0 83:1.0 
1.0 5:1.0 8:1.0 14:1.0 22:1.0 36:1.0 40:1.0 51:1.0 63:1.0 67:1.0 73:1.0 75:1.0 76:1.0 82:1.0 83:1.0 
1.0 3:1.0 10:1.0 16:1.0 20:1.0 37:1.0 40:1.0 59:1.0 63:1.0 67:1.0 73:1.0 74:1.0 76:1.0 82:1.0 83:1.0 
1.0 5:1.0 7:1.0 18:1.0 19:1.0 39:1.0 40:1.0 51:1.0 63:1.0 67:1.0 73:1.0 75:1.0 76:1.0 78:1.0 83:1.0 
1.0 5:1.0 6:1.0 15:1.0 19:1.0 39:1.0 42:1.0 55:1.0 64:1.0 67:1.0 72:1.0 75:1.0 76:1.0 80:1.0 83:1.0 
1.0 3:1.0 6:1.0 14:1.0 23:1.0 39:1.0 42:1.0 52:1.0 64:1.0 67:1.0 72:1.0 75:1.0 76:1.0 82:1.0 83:1.0 
1.0 4:1.0 9:1.0 17:1.0 20:1.0 37:1.0 40:1.0 53:1.0 63:1.0 67:1.0 73:1.0 74:1.0 76:1.0 80:1.0 83:1.0 
1.0 3:1.0 6:1.0 16:1.0 20:1.0 37:1.0 40:1.0 54:1.0 63:1.0 68:1.0 73:1.0 74:1.0 76:1.0 82:1.0 83:1.0 
1.0 4:1.0 6:1.0 18:1.0 25:1.0 38:1.0 40:1.0 52:1.0 63:1.0 67:1.0 73:1.0 74:1.0 77:1.0 81:1.0 83:1.0 
1.0 5:1.0 8:1.0 18:1.0 23:1.0 39:1.0 40:1.0 52:1.0 63:1.0 67:1.0 73:1.0 74:1.0 77:1.0 82:1.0 83:1.0 
1.0 4:1.0 10:1.0 18:1.0 19:1.0 39:1.0 40:1.0 51:1.0 63:1.0 71:1.0 73:1.0 74:1.0 76:1.0 80:1.0 83:1.0 
1.0 4:1.0 9:1.0 15:1.0 20:1.0 37:1.0 40:1.0 48:1.0 63:1.0 67:1.0 73:1.0 74:1.0 76:1.0 80:1.0 83:1.0 
1.0 5:1.0 11:1.0 18:1.0 20:1.0 37:1.0 40:1.0 54:1.0 63:1.0 71:1.0 73:1.0 74:1.0 76:1.0 80:1.0 83:1.0 
1.0 3:1.0 6:1.0 17:1.0 25:1.0 38:1.0 42:1.0 51:1.0 64:1.0 67:1.0 73:1.0 74:1.0 76:1.0 82:1.0 83:1.0 
1.0 4:1.0 6:1.0 15:1.0 29:1.0 39:1.0 40:1.0 51:1.0 61:1.0 67:1.0 72:1.0 74:1.0 77:1.0 79:1.0 83:1.0 
1.0 2:1.0 8:1.0 16:1.0 22:1.0 36:1.0 40:1.0 56:1.0 63:1.0 67:1.0 73:1.0 74:1.0 77:1.0 82:1.0 83:1.0 
1.0 3:1.0 6:1.0 17:1.0 22:1.0 36:1.0 40:1.0 48:1.0 63:1.0 67:1.0 73:1.0 75:1.0 76:1.0 80:1.0 83:1.0 
1.0 4:1.0 7:1.0 18:1.0 19:1.0 39:1.0 41:1.0 49:1.0 66:1.0 68:1.0 72:1.0 74:1.0 76:1.0 82:1.0 93:1.0 
1.0 5:1.0 10:1.0 15:1.0 19:1.0 39:1.0 40:1.0 59:1.0 63:1.0 67:1.0 73:1.0 75:1.0 76:1.0 82:1.0 83:1.0 
1.0 5:1.0 6:1.0 18:1.0 19:1.0 39:1.0 40:1.0 50:1.0 63:1.0 67:1.0 73:1.0 74:1.0 76:1.0 82:1.0 83:1.0 
1.0 5:1.0 8:1.0 18:1.0 20:1.0 37:1.0 40:1.0 51:1.0 63:1.0 67:1.0 73:1.0 74:1.0 76:1.0 80:1.0 83:1.0 
1.0 3:1.0 7:1.0 17:1.0 32:1.0 39:1.0 42:1.0 52:1.0 64:1.0 67:1.0 73:1.0 74:1.0 76:1.0 81:1.0 83:1.0 
0.9892578107416397 2:1.0 6:1.0 15:1.0 19:1.0 39:1.0 40:1.0 52:1.0 61:1.0 67:1.0 72:1.0 74:1.0 77:1.0 78:1.0 83:1.0 
1.0 4:1.0 6:1.0 16:1.0 22:1.0 36:1.0 40:1.0 55:1.0 63:1.0 67:1.0 73:1.0 74:1.0 76:1.0 82:1.0 83:1.0 
1.0 2:1.0 6:1.0 15:1.0 22:1.0 36:1.0 40:1.0 48:1.0 63:1.0 67:1.0 73:1.0 74:1.0 76:1.0 80:1.0 83:1.0 
1.0 2:1.0 7:1.0 18:1.0 19:1.0 39:1.0 40:1.0 51:1.0 61:1.0 67:1.0 72:1.0 74:1.0 77:1.0 80:1.0 83:1.0 
1.0 3:1.0 6:1.0 16:1.0 24:1.0 38:1.0 40:1.0 50:1.0 63:1.0 67:1.0 73:1.0 74:1.0 76:1.0 82:1.0 83:1.0 
1.0 4:1.0 6:1.0 16:1.0 25:1.0 38:1.0 40:1.0 51:1.0 61:1.0 67:1.0 72:1.0 75:1.0 76:1.0 79:1.0 83:1.0 
1.0 4:1.0 6:1.0 17:1.0 22:1.0 36:1.0 40:1.0 48:1.0 63:1.0 67:1.0 73:1.0 74:1.0 76:1.0 80:1.0 
1.0 4:1.0 6:1.0 14:1.0 19:1.0 39:1.0 40:1.0 52:1.0 63:1.0 67:1.0 73:1.0 74:1.0 76:1.0 80:1.0 83:1.0 
1.0 4:1.0 8:1.0 15:1.0 20:1.0 37:1.0 40:1.0 52:1.0 61:1.0 67:1.0 72:1.0 74:1.0 76:1.0 80:1.0 
1.0 4:1.0 6:1.0 17:1.0 22:1.0 36:1.0 40:1.0 51:1.0 61:1.0 67:1.0 72:1.0 74:1.0 76:1.0 80:1.0 83:1.0 
1.0 2:1.0 6:1.0 16:1.0 19:1.0 39:1.0 42:1.0 52:1.0 62:1.0 67:1.0 72:1.0 74:1.0 77:1.0 80:1.0 83:1.0 
1.0 3:1.0 6:1.0 15:1.0 25:1.0 38:1.0 41:1.0 48:1.0 66:1.0 67:1.0 73:1.0 74:1.0 76:1.0 82:1.0 83:1.0 
1.0 4:1.0 10:1.0 16:1.0 29:1.0 39:1.0 40:1.0 52:1.0 63:1.0 67:1.0 73:1.0 74:1.0 76:1.0 82:1.0 83:1.0 
1.0 2:1.0 8:1.0 17:1.0 22:1.0 36:1.0 40:1.0 50:1.0 63:1.0 71:1.0 73:1.0 75:1.0 76:1.0 80:1.0 83:1.0 
1.0 4:1.0 8:1.0 14:1.0 24:1.0 38:1.0 40:1.0 52:1.0 63:1.0 67:1.0 73:1.0 74:1.0 76:1.0 82:1.0 83:1.0 
1.0 1:1.0 6:1.0 15:1.0 21:1.0 35:1.0 40:1.0 57:1.0 63:1.0 67:1.0 73:1.0 75:1.0 76:1.0 80:1.0 100:1.0 
1.0 4:1.0 10:1.0 15:1.0 29:1.0 39:1.0 40:1.0 52:1.0 63:1.0 71:1.0 73:1.0 74:1.0 76:1.0 79:1.0 83:1.0 
1.0 4:1.0 11:1.0 17:1.0 32:1.0 39:1.0 43:1.0 52:1.0 66:1.0 67:1.0 72:1.0 74:1.0 76:1.0 80:1.0 83:1.0 
1.0 4:1.0 9:1.0 18:1.0 20:1.0 37:1.0 40:1.0 51:1.0 63:1.0 71:1.0 73:1.0 74:1.0 76:1.0 80:1.0 83:1.0 
1.0 5:1.0 6:1.0 15:1.0 29:1.0 39:1.0 40:1.0 51:1.0 63:1.0 67:1.0 73:1.0 75:1.0 76:1.0 82:1.0 
1.0 3:1.0 6:1.0 14:1.0 19:1.0 39:1.0 41:1.0 51:1.0 66:1.0 67:1.0 72:1.0 74:1.0 76:1.0 82:1.0 83:1.0 
1.0 5:1.0 6:1.0 15:1.0 22:1.0 36:1.0 40:1.0 48:1.0 63:1.0 67:1.0 73:1.0 74:1.0 76:1.0 80:1.0 83:1.0 
1.0 5:1.0 6:1.0 18:1.0 19:1.0 39:1.0 40:1.0 51:1.0 63:1.0 67:1.0 73:1.0 74:1.0 76:1.0 80:1.0 83:1.0 
1.0 2:1.0 6:1.0 18:1.0 19:1.0 39:1.0 41:1.0 51:1.0 64:1.0 67:1.0 72:1.0 74:1.0 76:1.0 82:1.0 83:1.0 
1.0 5:1.0 7:1.0 14:1.0 19:1.0 39:1.0 40:1.0 51:1.0 63:1.0 67:1.0 73:1.0 74:1.0 76:1.0 82:1.0 83:1.0 
1.0 3:1.0 6:1.0 16:1.0 29:1.0 39:1.0 42:1.0 55:1.0 64:1.0 67:1.0 73:1.0 75:1.0 76:1.0 82:1.0 83:1.0 
1.0 4:1.0 10:1.0 16:1.0 19:1.0 39:1.0 40:1.0 52:1.0 61:1.0 67:1.0 72:1.0 74:1.0 76:1.0 80:1.0 83:1.0 
1.0 2:1.0 6:1.0 17:1.0 22:1.0 36:1.0 40:1.0 48:1.0 63:1.0 67:1.0 73:1.0 74:1.0 76:1.0 80:1.0 83:1.0 
1.0 4:1.0 6:1.0 15:1.0 25:1.0 38:1.0 40:1.0 47:1.0 61:1.0 67:1.0 72:1.0 74:1.0 77:1.0 78:1.0 83:1.0 
1.0 5:1.0 8:1.0 15:1.0 20:1.0 37:1.0 40:1.0 50:1.0 63:1.0 67:1.0 73:1.0 74:1.0 77:1.0 79:1.0 83:1.0 
1.0 5:1.0 6:1.0 14:1.0 22:1.0 36:1.0 40:1.0 47:1.0 63:1.0 67:1.0 73:1.0 74:1.0 76:1.0 80:1.0 83:1.0 
1.0 5:1.0 6:1.0 17:1.0 20:1.0 37:1.0 40:1.0 59:1.0 63:1.0 71:1.0 73:1.0 74:1.0 76:1.0 82:1.0 83:1.0 
1.0 4:1.0 6:1.0 15:1.0 29:1.0 39:1.0 40:1.0 51:1.0 63:1.0 67:1.0 73:1.0 74:1.0 76:1.0 80:1.0 83:1.0 
1.0 4:1.0 10:1.0 16:1.0 29:1.0 39:1.0 41:1.0 59:1.0 64:1.0 71:1.0 73:1.0 74:1.0 76:1.0 82:1.0 83:1.0 
1.0 4:1.0 6:1.0 17:1.0 19:1.0 39:1.0 40:1.0 52:1.0 61:1.0 67:1.0 72:1.0 74:1.0 76:1.0 78:1.0 95:1.0 
1.0 5:1.0 6:1.0 16:1.0 22:1.0 36:1.0 44:1.0 51:1.0 66:1.0 67:1.0 73:1.0 74:1.0 76:1.0 79:1.0 83:1.0 
1.0 3:1.0 6:1.0 17:1.0 25:1.0 38:1.0 40:1.0 48:1.0 63:1.0 67:1.0 73:1.0 75:1.0 76:1.0 81:1.0 83:1.0 
1.0 3:1.0 6:1.0 18:1.0 29:1.0 39:1.0 42:1.0 55:1.0 64:1.0 67:1.0 72:1.0 74:1.0 76:1.0 82:1.0 99:1.0 
1.0 4:1.0 11:1.0 15:1.0 22:1.0 36:1.0 42:1.0 57:1.0 64:1.0 67:1.0 72:1.0 75:1.0 76:1.0 80:1.0 83:1.0 
1.0 3:1.0 6:1.0 18:1.0 25:1.0 38:1.0 40:1.0 57:1.0 63:1.0 67:1.0 73:1.0 75:1.0 76:1.0 82:1.0 83:1.0 
1.0 4:1.0 6:1.0 14:1.0 19:1.0 39:1.0 40:1.0 48:1.0 63:1.0 67:1.0 73:1.0 74:1.0 76:1.0 81:1.0 83:1.0 
1.0 5:1.0 7:1.0 16:1.0 23:1.0 39:1.0 40:1.0 52:1.0 63:1.0 67:1.0 73:1.0 74:1.0 76:1.0 78:1.0 83:1.0 
1.0 5:1.0 7:1.0 14:1.0 22:1.0 36:1.0 40:1.0 56:1.0 63:1.0 67:1.0 73:1.0 74:1.0 76:1.0 82:1.0 83:1.0 
1.0 3:1.0 6:1.0 16:1.0 19:1.0 39:1.0 40:1.0 50:1.0 61:1.0 67:1.0 72:1.0 74:1.0 76:1.0 79:1.0 83:1.0 
1.0 4:1.0 6:1.0 15:1.0 22:1.0 36:1.0 40:1.0 53:1.0 63:1.0 67:1.0 73:1.0 74:1.0 76:1.0 80:1.0 83:1.0 
1.0 5:1.0 6:1.0 17:1.0 20:1.0 37:1.0 40:1.0 55:1.0 63:1.0 67:1.0 73:1.0 74:1.0 76:1.0 81:1.0 83:1.0 
1.0 5:1.0 10:1.0 15:1.0 22:1.0 36:1.0 40:1.0 51:1.0 63:1.0 67:1.0 73:1.0 75:1.0 76:1.0 80:1.0 83:1.0 
1.0 5:1.0 8:1.0 16:1.0 20:1.0 37:1.0 40:1.0 57:1.0 63:1.0 67:1.0 73:1.0 74:1.0 76:1.0 80:1.0 83:1.0 
1.0 4:1.0 6:1.0 18:1.0 20:1.0 37:1.0 40:1.0 48:1.0 63:1.0 71:1.0 73:1.0 74:1.0 76:1.0 81:1.0 83:1.0 
1.0 3:1.0 7:1.0 18:1.0 20:1.0 37:1.0 40:1.0 52:1.0 61:1.0 67:1.0 72:1.0 74:1.0 76:1.0 82:1.0 83:1.0 
1.0 5:1.0 10:1.0 15:1.0 22:1.0 36:1.0 40:1.0 55:1.0 61:1.0 67:1.0 72:1.0 75:1.0 76:1.0 78:1.0 83:1.0 
1.0 4:1.0 11:1.0 17:1.0 19:1.0 39:1.0 40:1.0 51:1.0 63:1.0 71:1.0 73:1.0 74:1.0 76:1.0 80:1.0 83:1.0 
1.0 1:1.0 6:1.0 14:1.0 19:1.0 39:1.0 42:1.0 52:1.0 62:1.0 67:1.0 72:1.0 74:1.0 77:1.0 80:1.0 83:1.0 
1.0 2:1.0 7:1.0 14:1.0 23:1.0 39:1.0 40:1.0 52:1.0 63:1.0 67:1.0 73:1.0 75:1.0 76:1.0 81:1.0 83:1.0 
1.0 5:1.0 6:1.0 17:1.0 29:1.0 39:1.0 40:1.0 51:1.0 63:1.0 67:1.0 73:1.0 74:1.0 76:1.0 80:1.0 83:1.0 
1.0 2:1.0 6:1.0 16:1.0 21:1.0 35:1.0 40:1.0 53:1.0 63:1.0 67:1.0 73:1.0 75:1.0 76:1.0 80:1.0 83:1.0 
1.0 3:1.0 7:1.0 18:1.0 19:1.0 39:1.0 40:1.0 50:1.0 63:1.0 67:1.0 73:1.0 75:1.0 76:1.0 82:1.0 83:1.0 
1.0 5:1.0 7:1.0 14:1.0 22:1.0 36:1.0 40:1.0 56:1.0 63:1.0 67:1.0 73:1.0 74:1.0 76:1.0 82:1.0 83:1.0 
1.0 5:1.0 14:1.0 22:1.0 36:1.0 40:1.0 63:1.0 67:1.0 73:1.0 74:1.0 76:1.0 78:1.0 83:1.0 
1.0 2:1.0 6:1.0 16:1.0 29:1.0 39:1.0 40:1.0 52:1.0 63:1.0 67:1.0 73:1.0 74:1.0 77:1.0 80:1.0 83:1.0 
1.0 5:1.0 6:1.0 14:1.0 31:1.0 35:1.0 40:1.0 50:1.0 61:1.0 68:1.0 72:1.0 74:1.0 76:1.0 78:1.0 91:1.0 
1.0 3:1.0 6:1.0 18:1.0 19:1.0 39:1.0 40:1.0 48:1.0 63:1.0 68:1.0 73:1.0 74:1.0 76:1.0 80:1.0 84:1.0 
1.0 4:1.0 7:1.0 14:1.0 19:1.0 39:1.0 40:1.0 56:1.0 63:1.0 67:1.0 73:1.0 74:1.0 76:1.0 82:1.0 83:1.0 
1.0 4:1.0 8:1.0 14:1.0 19:1.0 39:1.0 40:1.0 50:1.0 63:1.0 67:1.0 73:1.0 74:1.0 76:1.0 82:1.0 83:1.0 
1.0 3:1.0 6:1.0 15:1.0 19:1.0 39:1.0 40:1.0 50:1.0 63:1.0 67:1.0 73:1.0 74:1.0 76:1.0 82:1.0 83:1.0 
1.0 4:1.0 11:1.0 17:1.0 19:1.0 39:1.0 40:1.0 51:1.0 63:1.0 67:1.0 73:1.0 74:1.0 76:1.0 80:1.0 83:1.0 
1.0 3:1.0 10:1.0 18:1.0 19:1.0 39:1.0 40:1.0 55:1.0 63:1.0 67:1.0 73:1.0 74:1.0 76:1.0 80:1.0 83:1.0 
1.0 4:1.0 6:1.0 17:1.0 22:1.0 36:1.0 40:1.0 53:1.0 63:1.0 67:1.0 73:1.0 74:1.0 76:1.0 82:1.0 83:1.0 
1.0 3:1.0 6:1.0 16:1.0 29:1.0 39:1.0 40:1.0 52:1.0 63:1.0 67:1.0 73:1.0 74:1.0 77:1.0 80:1.0 83:1.0 
1.0 4:1.0 6:1.0 18:1.0 24:1.0 38:1.0 40:1.0 50:1.0 63:1.0 67:1.0 73:1.0 74:1.0 76:1.0 82:1.0 83:1.0 
1.0 4:1.0 10:1.0 18:1.0 24:1.0 38:1.0 40:1.0 51:1.0 63:1.0 71:1.0 73:1.0 74:1.0 76:1.0 82:1.0 83:1.0 
1.0 5:1.0 6:1.0 17:1.0 22:1.0 36:1.0 40:1.0 54:1.0 63:1.0 67:1.0 73:1.0 74:1.0 76:1.0 80:1.0 83:1.0 
1.0 5:1.0 10:1.0 14:1.0 19:1.0 39:1.0 40:1.0 55:1.0 61:1.0 67:1.0 72:1.0 74:1.0 76:1.0 80:1.0 83:1.0 
1.0 3:1.0 6:1.0 14:1.0 19:1.0 39:1.0 40:1.0 51:1.0 63:1.0 67:1.0 73:1.0 74:1.0 76:1.0 80:1.0 83:1.0 
1.0 5:1.0 6:1.0 15:1.0 22:1.0 36:1.0 40:1.0 57:1.0 63:1.0 67:1.0 73:1.0 74:1.0 76:1.0 82:1.0 83:1.0 
1.0 5:1.0 8:1.0 14:1.0 19:1.0 39:1.0 40:1.0 56:1.0 63:1.0 67:1.0 73:1.0 74:1.0 77:1.0 82:1.0 83:1.0 
1.0 4:1.0 9:1.0 18:1.0 20:1.0 37:1.0 40:1.0 48:1.0 63:1.0 67:1.0 73:1.0 74:1.0 76:1.0 80:1.0 83:1.0 
1.0 4:1.0 6:1.0 17:1.0 19:1.0 39:1.0 40:1.0 50:1.0 63:1.0 67:1.0 73:1.0 75:1.0 76:1.0 80:1.0 83:1.0 
1.0 4:1.0 10:1.0 14:1.0 19:1.0 39:1.0 40:1.0 51:1.0 63:1.0 67:1.0 73:1.0 74:1.0 76:1.0 82:1.0 83:1.0 
1.0 2:1.0 6:1.0 16:1.0 19:1.0 39:1.0 42:1.0 51:1.0 64:1.0 67:1.0 72:1.0 74:1.0 76:1.0 81:1.0 83:1.0 
1.0 4:1.0 7:1.0 17:1.0 23:1.0 39:1.0 40:1.0 52:1.0 63:1.0 67:1.0 73:1.0 74:1.0 77:1.0 82:1.0 83:1.0 
1.0 5:1.0 10:1.0 15:1.0 22:1.0 36:1.0 40:1.0 48:1.0 63:1.0 67:1.0 73:1.0 74:1.0 77:1.0 79:1.0 83:1.0 
1.0 2:1.0 6:1.0 14:1.0 19:1.0 39:1.0 40:1.0 50:1.0 63:1.0 67:1.0 73:1.0 74:1.0 76:1.0 82:1.0 83:1.0 
1.0 5:1.0 10:1.0 17:1.0 23:1.0 39:1.0 40:1.0 55:1.0 63:1.0 68:1.0 73:1.0 74:1.0 76:1.0 80:1.0 98:1.0 
1.0 5:1.0 11:1.0 17:1.0 32:1.0 39:1.0 40:1.0 52:1.0 63:1.0 67:1.0 73:1.0 74:1.0 76:1.0 80:1.0 83:1.0 
1.0 5:1.0 8:1.0 15:1.0 24:1.0 38:1.0 40:1.0 50:1.0 63:1.0 67:1.0 73:1.0 74:1.0 76:1.0 82:1.0 83:1.0 
1.0 4:1.0 6:1.0 14:1.0 25:1.0 38:1.0 40:1.0 48:1.0 63:1.0 67:1.0 73:1.0 74:1.0 76:1.0 80:1.0 87:1.0 
1.0 4:1.0 9:1.0 14:1.0 25:1.0 38:1.0 40:1.0 55:1.0 63:1.0 67:1.0 73:1.0 75:1.0 76:1.0 80:1.0 83:1.0 
1.0 5:1.0 6:1.0 17:1.0 22:1.0 36:1.0 40:1.0 48:1.0 63:1.0 67:1.0 73:1.0 74:1.0 76:1.0 80:1.0 83:1.0 
1.0 5:1.0 6:1.0 14:1.0 19:1.0 39:1.0 40:1.0 51:1.0 63:1.0 67:1.0 73:1.0 74:1.0 76:1.0 80:1.0 83:1.0 
1.0 4:1.0 7:1.0 16:1.0 23:1.0 39:1.0 40:1.0 52:1.0 63:1.0 67:1.0 73:1.0 75:1.0 76:1.0 82:1.0 83:1.0 
1.0 3:1.0 6:1.0 16:1.0 19:1.0 39:1.0 40:1.0 51:1.0 63:1.0 67:1.0 73:1.0 74:1.0 76:1.0 82:1.0 83:1.0 
1.0 5:1.0 8:1.0 18:1.0 19:1.0 39:1.0 40:1.0 54:1.0 63:1.0 68:1.0 73:1.0 75:1.0 76:1.0 80:1.0 
1.0 4:1.0 8:1.0 17:1.0 29:1.0 39:1.0 40:1.0 51:1.0 63:1.0 67:1.0 73:1.0 75:1.0 76:1.0 82:1.0 83:1.0 
1.0 5:1.0 6:1.0 15:1.0 25:1.0 38:1.0 40:1.0 47:1.0 63:1.0 67:1.0 73:1.0 75:1.0 76:1.0 80:1.0 83:1.0 
1.0 2:1.0 6:1.0 17:1.0 19:1.0 39:1.0 40:1.0 51:1.0 61:1.0 67:1.0 72:1.0 74:1.0 76:1.0 80:1.0 83:1.0 
0.9970703125000016 5:1.0 8:1.0 17:1.0 20:1.0 37:1.0 40:1.0 51:1.0 63:1.0 67:1.0 73:1.0 74:1.0 76:1.0 80:1.0 83:1.0 
1.0 3:1.0 6:1.0 15:1.0 19:1.0 39:1.0 40:1.0 51:1.0 63:1.0 67:1.0 73:1.0 74:1.0 77:1.0 82:1.0 83:1.0 
1.0 3:1.0 6:1.0 17:1.0 31:1.0 35:1.0 40:1.0 51:1.0 63:1.0 67:1.0 73:1.0 74:1.0 76:1.0 80:1.0 83:1.0 
1.0 5:1.0 9:1.0 17:1.0 20:1.0 37:1.0 40:1.0 51:1.0 63:1.0 67:1.0 73:1.0 75:1.0 76:1.0 80:1.0 83:1.0 
1.0 5:1.0 6:1.0 15:1.0 19:1.0 39:1.0 40:1.0 51:1.0 63:1.0 68:1.0 73:1.0 74:1.0 76:1.0 80:1.0 98:1.0 
1.0 5:1.0 6:1.0 15:1.0 20:1.0 37:1.0 40:1.0 48:1.0 63:1.0 67:1.0 73:1.0 75:1.0 76:1.0 82:1.0 83:1.0 
1.0 4:1.0 6:1.0 14:1.0 29:1.0 39:1.0 40:1.0 51:1.0 63:1.0 67:1.0 73:1.0 74:1.0 76:1.0 80:1.0 83:1.0 
1.0 5:1.0 9:1.0 18:1.0 20:1.0 37:1.0 40:1.0 55:1.0 63:1.0 67:1.0 73:1.0 74:1.0 76:1.0 80:1.0 83:1.0 
1.0 3:1.0 6:1.0 14:1.0 20:1.0 37:1.0 40:1.0 48:1.0 63:1.0 67:1.0 73:1.0 74:1.0 76:1.0 80:1.0 83:1.0 
1.0 5:1.0 6:1.0 18:1.0 25:1.0 38:1.0 40:1.0 52:1.0 63:1.0 67:1.0 73:1.0 75:1.0 76:1.0 80:1.0 83:1.0 
1.0 3:1.0 7:1.0 15:1.0 23:1.0 39:1.0 40:1.0 52:1.0 63:1.0 67:1.0 73:1.0 74:1.0 76:1.0 82:1.0 83:1.0 
1.0 4:1.0 7:1.0 18:1.0 32:1.0 39:1.0 40:1.0 52:1.0 63:1.0 67:1.0 73:1.0 74:1.0 77:1.0 82:1.0 83:1.0 
1.0 3:1.0 18:1.0 19:1.0 39:1.0 40:1.0 61:1.0 67:1.0 72:1.0 74:1.0 76:1.0 78:1.0 83:1.0 
1.0 4:1.0 6:1.0 16:1.0 22:1.0 36:1.0 41:1.0 48:1.0 64:1.0 71:1.0 73:1.0 75:1.0 76:1.0 81:1.0 83:1.0 
1.0 2:1.0 6:1.0 14:1.0 19:1.0 39:1.0 40:1.0 51:1.0 63:1.0 67:1.0 73:1.0 74:1.0 76:1.0 80:1.0 83:1.0 
1.0 2:1.0 6:1.0 16:1.0 24:1.0 38:1.0 40:1.0 52:1.0 63:1.0 67:1.0 73:1.0 74:1.0 76:1.0 81:1.0 83:1.0 
1.0 2:1.0 6:1.0 15:1.0 19:1.0 39:1.0 40:1.0 52:1.0 63:1.0 67:1.0 73:1.0 74:1.0 77:1.0 80:1.0 83:1.0 
1.0 5:1.0 8:1.0 15:1.0 19:1.0 39:1.0 40:1.0 51:1.0 63:1.0 67:1.0 73:1.0 74:1.0 77:1.0 82:1.0 83:1.0 
1.0 3:1.0 6:1.0 15:1.0 22:1.0 36:1.0 40:1.0 50:1.0 63:1.0 67:1.0 73:1.0 74:1.0 76:1.0 80:1.0 83:1.0 
1.0 4:1.0 6:1.0 18:1.0 20:1.0 37:1.0 40:1.0 52:1.0 63:1.0 67:1.0 73:1.0 75:1.0 76:1.0 80:1.0 83:1.0 
1.0 2:1.0 6:1.0 17:1.0 23:1.0 39:1.0 40:1.0 52:1.0 63:1.0 67:1.0 73:1.0 74:1.0 76:1.0 78:1.0 83:1.0 
1.0 4:1.0 6:1.0 16:1.0 22:1.0 36:1.0 40:1.0 50:1.0 63:1.0 67:1.0 73:1.0 74:1.0 76:1.0 82:1.0 83:1.0 
1.0 3:1.0 8:1.0 14:1.0 25:1.0 38:1.0 40:1.0 50:1.0 63:1.0 67:1.0 73:1.0 74:1.0 76:1.0 80:1.0 83:1.0 
1.0 4:1.0 6:1.0 15:1.0 32:1.0 39:1.0 42:1.0 52:1.0 64:1.0 67:1.0 73:1.0 75:1.0 76:1.0 78:1.0 83:1.0 
1.0 3:1.0 11:1.0 18:1.0 32:1.0 39:1.0 40:1.0 52:1.0 63:1.0 67:1.0 73:1.0 74:1.0 76:1.0 81:1.0 88:1.0 
1.0 4:1.0 6:1.0 14:1.0 19:1.0 39:1.0 40:1.0 51:1.0 63:1.0 67:1.0 73:1.0 75:1.0 76:1.0 82:1.0 83:1.0 
1.0 5:1.0 8:1.0 15:1.0 19:1.0 39:1.0 40:1.0 51:1.0 63:1.0 67:1.0 73:1.0 75:1.0 76:1.0 82:1.0 83:1.0 
1.0 3:1.0 6:1.0 15:1.0 29:1.0 39:1.0 40:1.0 52:1.0 61:1.0 67:1.0 72:1.0 74:1.0 77:1.0 78:1.0 83:1.0 
1.0 5:1.0 7:1.0 17:1.0 20:1.0 37:1.0 40:1.0 57:1.0 63:1.0 67:1.0 73:1.0 74:1.0 76:1.0 81:1.0 83:1.0 
1.0 4:1.0 6:1.0 18:1.0 20:1.0 37:1.0 43:1.0 50:1.0 64:1.0 67:1.0 73:1.0 74:1.0 76:1.0 82:1.0 83:1.0 
1.0 4:1.0 6:1.0 14:1.0 22:1.0 36:1.0 40:1.0 48:1.0 63:1.0 67:1.0 73:1.0 74:1.0 77:1.0 80:1.0 83:1.0 
1.0 3:1.0 10:1.0 16:1.0 19:1.0 39:1.0 42:1.0 59:1.0 64:1.0 67:1.0 72:1.0 75:1.0 76:1.0 81:1.0 83:1.0 
1.0 3:1.0 11:1.0 14:1.0 20:1.0 37:1.0 40:1.0 51:1.0 61:1.0 67:1.0 72:1.0 75:1.0 76:1.0 79:1.0 83:1.0 
1.0 5:1.0 6:1.0 16:1.0 22:1.0 36:1.0 40:1.0 57:1.0 63:1.0 67:1.0 73:1.0 74:1.0 76:1.0 80:1.0 83:1.0 
1.0 4:1.0 6:1.0 17:1.0 25:1.0 38:1.0 40:1.0 52:1.0 63:1.0 67:1.0 73:1.0 74:1.0 76:1.0 80:1.0 83:1.0 
1.0 5:1.0 8:1.0 14:1.0 29:1.0 39:1.0 40:1.0 51:1.0 63:1.0 67:1.0 73:1.0 75:1.0 76:1.0 80:1.0 83:1.0 
1.0 4:1.0 11:1.0 14:1.0 22:1.0 36:1.0 40:1.0 48:1.0 63:1.0 67:1.0 73:1.0 74:1.0 76:1.0 80:1.0 83:1.0 
1.0 2:1.0 6:1.0 17:1.0 19:1.0 39:1.0 40:1.0 51:1.0 63:1.0 67:1.0 73:1.0 74:1.0 76:1.0 81:1.0 83:1.0 
1.0 5:1.0 8:1.0 16:1.0 19:1.0 39:1.0 40:1.0 50:1.0 63:1.0 67:1.0 73:1.0 74:1.0 76:1.0 78:1.0 83:1.0 
1.0 3:1.0 7:1.0 17:1.0 32:1.0 39:1.0 40:1.0 52:1.0 63:1.0 67:1.0 73:1.0 74:1.0 76:1.0 82:1.0 83:1.0 
1.0 3:1.0 10:1.0 14:1.0 32:1.0 39:1.0 40:1.0 52:1.0 63:1.0 67:1.0 73:1.0 74:1.0 77:1.0 82:1.0 83:1.0 
1.0 4:1.0 10:1.0 16:1.0 19:1.0 39:1.0 40:1.0 52:1.0 61:1.0 71:1.0 72:1.0 74:1.0 76:1.0 80:1.0 83:1.0 
1.0 2:1.0 7:1.0 14:1.0 22:1.0 36:1.0 40:1.0 56:1.0 63:1.0 67:1.0 73:1.0 74:1.0 76:1.0 82:1.0 83:1.0 
1.0 4:1.0 6:1.0 16:1.0 22:1.0 36:1.0 40:1.0 55:1.0 61:1.0 67:1.0 72:1.0 74:1.0 76:1.0 80:1.0 83:1.0 
1.0 2:1.0 6:1.0 14:1.0 22:1.0 36:1.0 40:1.0 52:1.0 63:1.0 67:1.0 73:1.0 74:1.0 76:1.0 79:1.0 83:1.0 
1.0 2:1.0 9:1.0 18:1.0 29:1.0 39:1.0 40:1.0 52:1.0 63:1.0 67:1.0 73:1.0 74:1.0 76:1.0 80:1.0 83:1.0 
1.0 3:1.0 11:1.0 16:1.0 22:1.0 36:1.0 40:1.0 48:1.0 63:1.0 67:1.0 73:1.0 74:1.0 77:1.0 80:1.0 83:1.0 
1.0 4:1.0 7:1.0 16:1.0 22:1.0 36:1.0 40:1.0 56:1.0 63:1.0 67:1.0 73:1.0 74:1.0 76:1.0 82:1.0 83:1.0 
1.0 5:1.0 8:1.0 15:1.0 25:1.0 38:1.0 40:1.0 51:1.0 63:1.0 67:1.0 73:1.0 74:1.0 76:1.0 80:1.0 92:1.0 
1.0 3:1.0 6:1.0 18:1.0 22:1.0 36:1.0 40:1.0 51:1.0 63:1.0 67:1.0 73:1.0 75:1.0 76:1.0 82:1.0 83:1.0 
1.0 3:1.0 6:1.0 14:1.0 23:1.0 39:1.0 40:1.0 52:1.0 63:1.0 67:1.0 73:1.0 75:1.0 76:1.0 82:1.0 83:1.0 
1.0 4:1.0 6:1.0 15:1.0 32:1.0 39:1.0 40:1.0 52:1.0 63:1.0 67:1.0 73:1.0 74:1.0 77:1.0 82:1.0 83:1.0 
1.0 2:1.0 10:1.0 17:1.0 22:1.0 36:1.0 40:1.0 59:1.0 63:1.0 67:1.0 73:1.0 74:1.0 76:1.0 80:1.0 83:1.0 
1.0 2:1.0 6:1.0 18:1.0 22:1.0 36:1.0 40:1.0 51:1.0 63:1.0 67:1.0 73:1.0 74:1.0 76:1.0 80:1.0 83:1.0 
1.0 5:1.0 6:1.0 14:1.0 29:1.0 39:1.0 40:1.0 52:1.0 63:1.0 68:1.0 73:1.0 74:1.0 76:1.0 81:1.0 90:1.0 
1.0 5:1.0 9:1.0 14:1.0 29:1.0 39:1.0 40:1.0 51:1.0 63:1.0 67:1.0 73:1.0 74:1.0 76:1.0 80:1.0 104:1.0 
1.0 3:1.0 6:1.0 18:1.0 29:1.0 39:1.0 42:1.0 51:1.0 64:1.0 71:1.0 72:1.0 74:1.0 76:1.0 80:1.0 83:1.0 
1.0 4:1.0 7:1.0 17:1.0 23:1.0 39:1.0 40:1.0 52:1.0 63:1.0 67:1.0 73:1.0 74:1.0 76:1.0 79:1.0 83:1.0 
1.0 5:1.0 9:1.0 14:1.0 22:1.0 36:1.0 40:1.0 55:1.0 63:1.0 67:1.0 73:1.0 74:1.0 76:1.0 80:1.0 83:1.0 
1.0 3:1.0 6:1.0 18:1.0 19:1.0 39:1.0 40:1.0 50:1.0 63:1.0 67:1.0 73:1.0 74:1.0 76:1.0 80:1.0 83:1.0 
1.0 5:1.0 6:1.0 15:1.0 23:1.0 39:1.0 40:1.0 51:1.0 63:1.0 67:1.0 73:1.0 74:1.0 76:1.0 82:1.0 83:1.0 
1.0 5:1.0 6:1.0 18:1.0 29:1.0 39:1.0 40:1.0 51:1.0 63:1.0 67:1.0 73:1.0 74:1.0 76:1.0 82:1.0 83:1.0 
1.0 5:1.0 6:1.0 16:1.0 19:1.0 39:1.0 40:1.0 47:1.0 63:1.0 67:1.0 73:1.0 74:1.0 76:1.0 82:1.0 83:1.0 
1.0 3:1.0 6:1.0 15:1.0 22:1.0 36:1.0 40:1.0 50:1.0 63:1.0 67:1.0 73:1.0 74:1.0 77:1.0 80:1.0 83:1.0 
1.0 4:1.0 6:1.0 16:1.0 19:1.0 39:1.0 43:1.0 51:1.0 66:1.0 67:1.0 73:1.0 75:1.0 76:1.0 80:1.0 83:1.0 
1.0 4:1.0 7:1.0 18:1.0 20:1.0 37:1.0 40:1.0 48:1.0 63:1.0 67:1.0 73:1.0 74:1.0 77:1.0 82:1.0 83:1.0 
1.0 5:1.0 10:1.0 17:1.0 19:1.0 39:1.0 44:1.0 52:1.0 66:1.0 67:1.0 72:1.0 74:1.0 76:1.0 82:1.0 83:1.0 
1.0 4:1.0 6:1.0 17:1.0 20:1.0 37:1.0 40:1.0 52:1.0 63:1.0 67:1.0 73:1.0 74:1.0 76:1.0 80:1.0 83:1.0 
1.0 5:1.0 6:1.0 14:1.0 29:1.0 39:1.0 40:1.0 52:1.0 63:1.0 67:1.0 73:1.0 74:1.0 76:1.0 79:1.0 87:1.0 
1.0 2:1.0 7:1.0 15:1.0 19:1.0 39:1.0 40:1.0 54:1.0 63:1.0 67:1.0 73:1.0 74:1.0 76:1.0 82:1.0 83:1.0 
1.0 3:1.0 6:1.0 18:1.0 19:1.0 39:1.0 40:1.0 51:1.0 63:1.0 67:1.0 73:1.0 75:1.0 76:1.0 80:1.0 83:1.0 
1.0 4:1.0 8:1.0 17:1.0 32:1.0 39:1.0 40:1.0 52:1.0 63:1.0 67:1.0 73:1.0 74:1.0 76:1.0 82:1.0 83:1.0 
1.0 5:1.0 7:1.0 18:1.0 24:1.0 38:1.0 40:1.0 51:1.0 61:1.0 67:1.0 72:1.0 75:1.0 76:1.0 78:1.0 83:1.0 
1.0 2:1.0 10:1.0 15:1.0 22:1.0 36:1.0 40:1.0 51:1.0 63:1.0 67:1.0 73:1.0 74:1.0 76:1.0 82:1.0 83:1.0 
1.0 4:1.0 11:1.0 17:1.0 32:1.0 39:1.0 40:1.0 52:1.0 63:1.0 67:1.0 73:1.0 74:1.0 76:1.0 80:1.0 83:1.0 
1.0 4:1.0 6:1.0 18:1.0 19:1.0 39:1.0 42:1.0 50:1.0 64:1.0 67:1.0 73:1.0 74:1.0 76:1.0 82:1.0 83:1.0 
1.0 3:1.0 6:1.0 18:1.0 22:1.0 36:1.0 40:1.0 48:1.0 63:1.0 67:1.0 73:1.0 74:1.0 76:1.0 80:1.0 83:1.0 
1.0 4:1.0 10:1.0 16:1.0 19:1.0 39:1.0 40:1.0 48:1.0 63:1.0 67:1.0 73:1.0 74:1.0 76:1.0 79:1.0 83:1.0 
1.0 5:1.0 8:1.0 14:1.0 20:1.0 37:1.0 40:1.0 51:1.0 63:1.0 67:1.0 73:1.0 75:1.0 76:1.0 82:1.0 83:1.0 
1.0 2:1.0 6:1.0 16:1.0 19:1.0 39:1.0 40:1.0 52:1.0 63:1.0 67:1.0 73:1.0 75:1.0 76:1.0 82:1.0 83:1.0 
1.0 3:1.0 6:1.0 15:1.0 20:1.0 37:1.0 41:1.0 51:1.0 64:1.0 67:1.0 72:1.0 74:1.0 76:1.0 80:1.0 83:1.0 
1.0 2:1.0 8:1.0 14:1.0 19:1.0 39:1.0 40:1.0 50:1.0 63:1.0 67:1.0 73:1.0 75:1.0 76:1.0 82:1.0 83:1.0 
1.0 2:1.0 8:1.0 16:1.0 22:1.0 36:1.0 41:1.0 51:1.0 64:1.0 67:1.0 73:1.0 74:1.0 76:1.0 82:1.0 83:1.0 
1.0 4:1.0 10:1.0 17:1.0 29:1.0 39:1.0 40:1.0 55:1.0 63:1.0 67:1.0 73:1.0 74:1.0 76:1.0 80:1.0 99:1.0 
1.0 5:1.0 9:1.0 15:1.0 20:1.0 37:1.0 40:1.0 55:1.0 63:1.0 67:1.0 73:1.0 75:1.0 76:1.0 80:1.0 83:1.0 
1.0 3:1.0 6:1.0 17:1.0 22:1.0 36:1.0 41:1.0 52:1.0 62:1.0 67:1.0 72:1.0 74:1.0 76:1.0 80:1.0 83:1.0 
1.0 2:1.0 6:1.0 15:1.0 29:1.0 39:1.0 40:1.0 51:1.0 63:1.0 67:1.0 73:1.0 74:1.0 76:1.0 81:1.0 83:1.0 
1.0 4:1.0 6:1.0 17:1.0 22:1.0 36:1.0 40:1.0 48:1.0 63:1.0 67:1.0 73:1.0 74:1.0 76:1.0 82:1.0 83:1.0 
1.0 1:1.0 6:1.0 18:1.0 20:1.0 37:1.0 40:1.0 55:1.0 63:1.0 67:1.0 73:1.0 74:1.0 76:1.0 80:1.0 83:1.0 
1.0 3:1.0 6:1.0 14:1.0 19:1.0 39:1.0 40:1.0 52:1.0 63:1.0 67:1.0 73:1.0 75:1.0 76:1.0 82:1.0 83:1.0 
1.0 4:1.0 9:1.0 17:1.0 23:1.0 39:1.0 40:1.0 52:1.0 63:1.0 67:1.0 73:1.0 74:1.0 76:1.0 82:1.0 90:1.0 
1.0 5:1.0 11:1.0 15:1.0 22:1.0 36:1.0 40:1.0 51:1.0 63:1.0 67:1.0 73:1.0 74:1.0 77:1.0 80:1.0 83:1.0 
1.0 5:1.0 6:1.0 16:1.0 22:1.0 36:1.0 40:1.0 54:1.0 63:1.0 67:1.0 73:1.0 74:1.0 76:1.0 81:1.0 83:1.0 
1.0 5:1.0 6:1.0 15:1.0 31:1.0 35:1.0 40:1.0 48:1.0 63:1.0 67:1.0 73:1.0 75:1.0 76:1.0 80:1.0 83:1.0 
1.0 3:1.0 10:1.0 14:1.0 19:1.0 39:1.0 40:1.0 52:1.0 61:1.0 67:1.0 72:1.0 74:1.0 76:1.0 81:1.0 83:1.0 
1.0 4:1.0 6:1.0 14:1.0 19:1.0 39:1.0 40:1.0 52:1.0 63:1.0 67:1.0 73:1.0 74:1.0 76:1.0 82:1.0 83:1.0 
1.0 3:1.0 6:1.0 17:1.0 19:1.0 39:1.0 40:1.0 55:1.0 63:1.0 67:1.0 73:1.0 74:1.0 76:1.0 82:1.0 83:1.0 
1.0 5:1.0 6:1.0 16:1.0 25:1.0 38:1.0 40:1.0 48:1.0 63:1.0 67:1.0 73:1.0 74:1.0 76:1.0 80:1.0 83:1.0 
1.0 5:1.0 7:1.0 14:1.0 20:1.0 37:1.0 40:1.0 51:1.0 63:1.0 67:1.0 73:1.0 74:1.0 76:1.0 82:1.0 83:1.0 
1.0 4:1.0 8:1.0 16:1.0 19:1.0 39:1.0 40:1.0 51:1.0 63:1.0 67:1.0 73:1.0 75:1.0 76:1.0 82:1.0 83:1.0 
1.0 3:1.0 6:1.0 18:1.0 22:1.0 36:1.0 40:1.0 51:1.0 61:1.0 67:1.0 72:1.0 75:1.0 76:1.0 80:1.0 83:1.0 
1.0 3:1.0 6:1.0 15:1.0 22:1.0 36:1.0 40:1.0 52:1.0 63:1.0 67:1.0 73:1.0 74:1.0 76:1.0 81:1.0 109:1.0 
1.0 5:1.0 7:1.0 14:1.0 19:1.0 39:1.0 41:1.0 56:1.0 64:1.0 67:1.0 73:1.0 75:1.0 76:1.0 82:1.0 83:1.0 
1.0 5:1.0 6:1.0 16:1.0 22:1.0 36:1.0 40:1.0 53:1.0 63:1.0 67:1.0 73:1.0 74:1.0 76:1.0 80:1.0 83:1.0 
1.0 4:1.0 6:1.0 15:1.0 19:1.0 39:1.0 40:1.0 50:1.0 63:1.0 67:1.0 73:1.0 74:1.0 76:1.0 80:1.0 83:1.0 
0.9892578125000007 4:1.0 10:1.0 15:1.0 20:1.0 37:1.0 40:1.0 59:1.0 63:1.0 67:1.0 73:1.0 74:1.0 76:1.0 80:1.0 83:1.0 
1.0 4:1.0 6:1.0 18:1.0 20:1.0 37:1.0 40:1.0 51:1.0 63:1.0 67:1.0 73:1.0 74:1.0 76:1.0 82:1.0 83:1.0 
1.0 5:1.0 7:1.0 18:1.0 19:1.0 39:1.0 40:1.0 52:1.0 63:1.0 67:1.0 73:1.0 74:1.0 76:1.0 81:1.0 83:1.0 
1.0 4:1.0 6:1.0 18:1.0 29:1.0 39:1.0 40:1.0 52:1.0 63:1.0 67:1.0 73:1.0 74:1.0 76:1.0 81:1.0 83:1.0 
1.0 4:1.0 6:1.0 17:1.0 22:1.0 36:1.0 40:1.0 50:1.0 63:1.0 67:1.0 73:1.0 74:1.0 76:1.0 82:1.0 83:1.0 
1.0 3:1.0 11:1.0 16:1.0 19:1.0 39:1.0 40:1.0 59:1.0 63:1.0 67:1.0 73:1.0 75:1.0 76:1.0 82:1.0 83:1.0 
1.0 2:1.0 6:1.0 15:1.0 19:1.0 39:1.0 42:1.0 51:1.0 64:1.0 67:1.0 73:1.0 74:1.0 76:1.0 82:1.0 83:1.0 
1.0 5:1.0 18:1.0 22:1.0 36:1.0 40:1.0 63:1.0 67:1.0 73:1.0 74:1.0 76:1.0 80:1.0 83:1.0 
1.0 3:1.0 6:1.0 16:1.0 19:1.0 39:1.0 40:1.0 51:1.0 63:1.0 67:1.0 73:1.0 75:1.0 76:1.0 82:1.0 83:1.0 
1.0 4:1.0 8:1.0 15:1.0 29:1.0 39:1.0 40:1.0 51:1.0 63:1.0 67:1.0 73:1.0 74:1.0 76:1.0 82:1.0 83:1.0 
1.0 4:1.0 9:1.0 18:1.0 20:1.0 37:1.0 42:1.0 55:1.0 64:1.0 67:1.0 73:1.0 75:1.0 76:1.0 82:1.0 83:1.0 
1.0 4:1.0 8:1.0 15:1.0 20:1.0 37:1.0 40:1.0 51:1.0 63:1.0 67:1.0 73:1.0 74:1.0 76:1.0 82:1.0 83:1.0 
1.0 4:1.0 6:1.0 18:1.0 22:1.0 36:1.0 40:1.0 49:1.0 63:1.0 67:1.0 73:1.0 74:1.0 77:1.0 80:1.0 83:1.0 
1.0 5:1.0 10:1.0 14:1.0 32:1.0 39:1.0 40:1.0 51:1.0 63:1.0 67:1.0 73:1.0 74:1.0 76:1.0 82:1.0 83:1.0 
1.0 4:1.0 8:1.0 14:1.0 29:1.0 39:1.0 40:1.0 50:1.0 63:1.0 67:1.0 73:1.0 74:1.0 76:1.0 82:1.0 
-0.32421874999999994 3:1.0 11:1.0 14:1.0 19:1.0 39:1.0 42:1.0 55:1.0 64:1.0 67:1.0 73:1.0 75:1.0 76:1.0 80:1.0 83:1.0 
-0.32421874999999994 3:1.0 6:1.0 17:1.0 27:1.0 35:1.0 40:1.0 57:1.0 63:1.0 69:1.0 73:1.0 74:1.0 76:1.0 81:1.0 103:1.0 
-0.3242187499999958 4:1.0 6:1.0 15:1.0 21:1.0 35:1.0 40:1.0 57:1.0 63:1.0 67:1.0 73:1.0 74:1.0 77:1.0 80:1.0 83:1.0 
-0.32421874999999994 5:1.0 6:1.0 15:1.0 22:1.0 36:1.0 41:1.0 47:1.0 66:1.0 67:1.0 72:1.0 74:1.0 76:1.0 80:1.0 83:1.0 
-0.3232421874999967 2:1.0 6:1.0 16:1.0 22:1.0 36:1.0 40:1.0 54:1.0 63:1.0 67:1.0 73:1.0 75:1.0 76:1.0 80:1.0 83:1.0 
-0.32421874999999994 2:1.0 6:1.0 14:1.0 20:1.0 37:1.0 41:1.0 47:1.0 64:1.0 67:1.0 73:1.0 74:1.0 76:1.0 82:1.0 83:1.0 
-0.32421875 1:1.0 6:1.0 14:1.0 22:1.0 36:1.0 42:1.0 49:1.0 64:1.0 67:1.0 72:1.0 74:1.0 77:1.0 80:1.0 83:1.0 
-0.32421874999999195 1:1.0 6:1.0 17:1.0 19:1.0 39:1.0 42:1.0 53:1.0 64:1.0 67:1.0 73:1.0 74:1.0 76:1.0 80:1.0 83:1.0 
-0.32421875 2:1.0 6:1.0 18:1.0 20:1.0 37:1.0 42:1.0 48:1.0 64:1.0 71:1.0 73:1.0 74:1.0 76:1.0 81:1.0 83:1.0 
-0.32421875 5:1.0 16:1.0 30:1.0 35:1.0 41:1.0 64:1.0 67:1.0 73:1.0 74:1.0 76:1.0 80:1.0 83:1.0 
-0.32421875000001266 5:1.0 6:1.0 15:1.0 20:1.0 37:1.0 40:1.0 50:1.0 63:1.0 67:1.0 73:1.0 75:1.0 76:1.0 80:1.0 83:1.0 
-0.32421875 5:1.0 7:1.0 16:1.0 29:1.0 39:1.0 40:1.0 48:1.0 63:1.0 67:1.0 73:1.0 74:1.0 76:1.0 78:1.0 83:1.0 
-0.32421875 1:1.0 11:1.0 18:1.0 20:1.0 37:1.0 42:1.0 59:1.0 62:1.0 71:1.0 72:1.0 74:1.0 76:1.0 80:1.0 83:1.0 
-0.32421875 2:1.0 11:1.0 18:1.0 20:1.0 37:1.0 40:1.0 54:1.0 63:1.0 67:1.0 73:1.0 74:1.0 76:1.0 80:1.0 83:1.0 
-0.32421875 1:1.0 6:1.0 17:1.0 22:1.0 36:1.0 42:1.0 53:1.0 64:1.0 67:1.0 73:1.0 74:1.0 76:1.0 82:1.0 107:1.0 
-0.32421875000001266 1:1.0 6:1.0 14:1.0 20:1.0 37:1.0 40:1.0 55:1.0 63:1.0 67:1.0 73:1.0 74:1.0 76:1.0 80:1.0 83:1.0 
-0.32421875 4:1.0 6:1.0 18:1.0 22:1.0 36:1.0 44:1.0 51:1.0 66:1.0 71:1.0 72:1.0 74:1.0 76:1.0 80:1.0 83:1.0 
-0.32421875 3:1.0 6:1.0 16:1.0 19:1.0 39:1.0 42:1.0 48:1.0 62:1.0 67:1.0 73:1.0 74:1.0 76:1.0 78:1.0 83:1.0 
-0.32421875000000006 1:1.0 10:1.0 18:1.0 22:1.0 36:1.0 42:1.0 56:1.0 64:1.0 67:1.0 73:1.0 74:1.0 76:1.0 80:1.0 100:1.0 
-0.32324218749999684 5:1.0 6:1.0 14:1.0 20:1.0 37:1.0 41:1.0 55:1.0 64:1.0 67:1.0 72:1.0 74:1.0 76:1.0 78:1.0 83:1.0 
-0.3232421874999935 3:1.0 6:1.0 14:1.0 22:1.0 36:1.0 40:1.0 54:1.0 63:1.0 67:1.0 73:1.0 74:1.0 76:1.0 80:1.0 83:1.0 
-0.32421875000000006 3:1.0 10:1.0 18:1.0 22:1.0 36:1.0 43:1.0 51:1.0 64:1.0 71:1.0 73:1.0 74:1.0 76:1.0 80:1.0 83:1.0 
-0.3242187500000127 5:1.0 8:1.0 14:1.0 19:1.0 39:1.0 40:1.0 50:1.0 63:1.0 67:1.0 73:1.0 74:1.0 76:1.0 82:1.0 83:1.0 
-0.323242187499993 3:1.0 7:1.0 18:1.0 22:1.0 36:1.0 40:1.0 50:1.0 63:1.0 67:1.0 73:1.0 74:1.0 76:1.0 82:1.0 83:1.0 
-0.32421875000000006 2:1.0 6:1.0 14:1.0 20:1.0 37:1.0 40:1.0 48:1.0 63:1.0 67:1.0 73:1.0 74:1.0 76:1.0 81:1.0 83:1.0 
-0.3242187500000127 5:1.0 6:1.0 14:1.0 22:1.0 36:1.0 40:1.0 48:1.0 63:1.0 67:1.0 73:1.0 74:1.0 76:1.0 78:1.0 83:1.0 
-0.32324218750003086 5:1.0 15:1.0 22:1.0 36:1.0 40:1.0 63:1.0 67:1.0 73:1.0 74:1.0 76:1.0 82:1.0 83:1.0 
-0.32421875000000006 1:1.0 15:1.0 21:1.0 35:1.0 45:1.0 62:1.0 68:1.0 72:1.0 74:1.0 77:1.0 80:1.0 93:1.0 
-0.32421875000000006 3:1.0 6:1.0 14:1.0 20:1.0 37:1.0 41:1.0 55:1.0 66:1.0 71:1.0 72:1.0 74:1.0 76:1.0 80:1.0 83:1.0 
-0.32324218749999717 2:1.0 6:1.0 17:1.0 22:1.0 36:1.0 40:1.0 49:1.0 63:1.0 67:1.0 73:1.0 74:1.0 76:1.0 80:1.0 103:1.0 
-0.32421875000000006 5:1.0 6:1.0 16:1.0 20:1.0 37:1.0 41:1.0 55:1.0 64:1.0 68:1.0 72:1.0 74:1.0 76:1.0 80:1.0 83:1.0 
-0.32421875000000006 2:1.0 6:1.0 16:1.0 25:1.0 38:1.0 40:1.0 55:1.0 63:1.0 67:1.0 73:1.0 74:1.0 77:1.0 81:1.0 83:1.0 
-0.32421875000000006 5:1.0 6:1.0 15:1.0 22:1.0 36:1.0 42:1.0 50:1.0 64:1.0 67:1.0 73:1.0 74:1.0 76:1.0 79:1.0 83:1.0 
-0.3242187500000127 5:1.0 7:1.0 14:1.0 22:1.0 36:1.0 40:1.0 56:1.0 63:1.0 67:1.0 73:1.0 74:1.0 77:1.0 82:1.0 83:1.0 
-0.32421875000000006 1:1.0 6:1.0 17:1.0 22:1.0 36:1.0 42:1.0 50:1.0 64:1.0 67:1.0 72:1.0 75:1.0 76:1.0 80:1.0 83:1.0 
-0.32421875000000006 3:1.0 6:1.0 15:1.0 22:1.0 36:1.0 42:1.0 57:1.0 62:1.0 67:1.0 73:1.0 74:1.0 76:1.0 80:1.0 83:1.0 
-0.32421875 4:1.0 6:1.0 14:1.0 26:1.0 35:1.0 41:1.0 54:1.0 64:1.0 67:1.0 72:1.0 74:1.0 76:1.0 80:1.0 83:1.0 
-0.32324218749999717 1:1.0 6:1.0 14:1.0 22:1.0 36:1.0 42:1.0 53:1.0 62:1.0 67:1.0 72:1.0 74:1.0 76:1.0 80:1.0 83:1.0 
-0.3232421874999968 3:1.0 6:1.0 15:1.0 22:1.0 36:1.0 40:1.0 48:1.0 63:1.0 67:1.0 73:1.0 74:1.0 76:1.0 78:1.0 83:1.0 
-0.07324218749999722 1:1.0 6:1.0 18:1.0 22:1.0 36:1.0 42:1.0 49:1.0 62:1.0 67:1.0 72:1.0 74:1.0 76:1.0 78:1.0 83:1.0 
-0.3232421892583623 1:1.0 6:1.0 17:1.0 20:1.0 37:1.0 42:1.0 51:1.0 64:1.0 67:1.0 72:1.0 75:1.0 76:1.0 80:1.0 83:1.0 
-0.3232421892583623 5:1.0 7:1.0 15:1.0 22:1.0 36:1.0 42:1.0 56:1.0 66:1.0 67:1.0 73:1.0 74:1.0 76:1.0 81:1.0 83:1.0 
-0.3232421875000013 3:1.0 6:1.0 16:1.0 29:1.0 39:1.0 40:1.0 52:1.0 63:1.0 67:1.0 73:1.0 74:1.0 76:1.0 78:1.0 83:1.0 
-0.32324218750000117 3:1.0 6:1.0 15:1.0 22:1.0 36:1.0 42:1.0 49:1.0 64:1.0 67:1.0 73:1.0 74:1.0 76:1.0 82:1.0 83:1.0 
-0.3242187499999959 1:1.0 6:1.0 14:1.0 20:1.0 37:1.0 42:1.0 50:1.0 64:1.0 67:1.0 72:1.0 74:1.0 76:1.0 82:1.0 83:1.0 
-0.32324218750000117 5:1.0 6:1.0 15:1.0 22:1.0 36:1.0 40:1.0 54:1.0 63:1.0 67:1.0 73:1.0 75:1.0 76:1.0 80:1.0 83:1.0 
-0.32324218750000117 2:1.0 6:1.0 15:1.0 19:1.0 39:1.0 42:1.0 50:1.0 64:1.0 71:1.0 72:1.0 74:1.0 77:1.0 80:1.0 83:1.0 
-0.32421874999999584 3:1.0 6:1.0 15:1.0 22:1.0 36:1.0 41:1.0 48:1.0 64:1.0 67:1.0 73:1.0 74:1.0 76:1.0 80:1.0 83:1.0 
-0.3232421875000012 4:1.0 6:1.0 18:1.0 25:1.0 38:1.0 40:1.0 57:1.0 63:1.0 67:1.0 73:1.0 74:1.0 76:1.0 82:1.0 83:1.0 
-0.32421875000004635 4:1.0 6:1.0 17:1.0 22:1.0 36:1.0 40:1.0 57:1.0 63:1.0 67:1.0 73:1.0 74:1.0 76:1.0 82:1.0 83:1.0 
-0.3232421875000011 3:1.0 16:1.0 22:1.0 36:1.0 41:1.0 64:1.0 67:1.0 72:1.0 74:1.0 76:1.0 80:1.0 83:1.0 
-0.3232421875000011 5:1.0 7:1.0 17:1.0 20:1.0 37:1.0 40:1.0 50:1.0 63:1.0 67:1.0 73:1.0 74:1.0 76:1.0 82:1.0 83:1.0 
-0.3232421875000225 5:1.0 6:1.0 18:1.0 22:1.0 36:1.0 40:1.0 48:1.0 63:1.0 67:1.0 73:1.0 74:1.0 76:1.0 82:1.0 83:1.0 
-0.3232421874999886 1:1.0 6:1.0 16:1.0 20:1.0 37:1.0 42:1.0 49:1.0 62:1.0 67:1.0 72:1.0 74:1.0 76:1.0 78:1.0 83:1.0 
-0.32324218750000555 5:1.0 6:1.0 14:1.0 20:1.0 37:1.0 40:1.0 48:1.0 63:1.0 67:1.0 73:1.0 74:1.0 76:1.0 80:1.0 83:1.0 
-0.32324218750000117 5:1.0 6:1.0 16:1.0 22:1.0 36:1.0 44:1.0 55:1.0 62:1.0 67:1.0 72:1.0 74:1.0 76:1.0 80:1.0 83:1.0 
-0.32324218750000117 4:1.0 7:1.0 16:1.0 20:1.0 37:1.0 40:1.0 56:1.0 63:1.0 67:1.0 73:1.0 74:1.0 76:1.0 82:1.0 83:1.0 
-0.32324218750000117 4:1.0 6:1.0 14:1.0 20:1.0 37:1.0 42:1.0 55:1.0 62:1.0 67:1.0 72:1.0 74:1.0 76:1.0 80:1.0 83:1.0 
-0.32324218750000117 5:1.0 6:1.0 18:1.0 22:1.0 36:1.0 43:1.0 55:1.0 64:1.0 67:1.0 72:1.0 74:1.0 76:1.0 78:1.0 83:1.0 
-0.32324218749997696 1:1.0 6:1.0 15:1.0 20:1.0 37:1.0 42:1.0 55:1.0 62:1.0 67:1.0 73:1.0 74:1.0 76:1.0 78:1.0 83:1.0 
-0.3242187499999959 3:1.0 11:1.0 14:1.0 20:1.0 37:1.0 40:1.0 51:1.0 63:1.0 67:1.0 73:1.0 74:1.0 76:1.0 80:1.0 83:1.0 
-0.3232421875000011 3:1.0 6:1.0 17:1.0 24:1.0 38:1.0 42:1.0 55:1.0 62:1.0 67:1.0 72:1.0 74:1.0 76:1.0 81:1.0 83:1.0 
-0.3232421875000011 1:1.0 6:1.0 18:1.0 22:1.0 36:1.0 41:1.0 48:1.0 64:1.0 67:1.0 73:1.0 74:1.0 76:1.0 82:1.0 83:1.0 
-0.3232421875000011 3:1.0 6:1.0 14:1.0 20:1.0 37:1.0 40:1.0 48:1.0 63:1.0 67:1.0 73:1.0 74:1.0 77:1.0 81:1.0 83:1.0 
-0.3232421875000011 1:1.0 6:1.0 14:1.0 25:1.0 38:1.0 42:1.0 59:1.0 64:1.0 67:1.0 73:1.0 74:1.0 76:1.0 82:1.0 83:1.0 
-0.3232421875000011 1:1.0 6:1.0 17:1.0 21:1.0 35:1.0 42:1.0 55:1.0 62:1.0 68:1.0 72:1.0 74:1.0 76:1.0 78:1.0 83:1.0 
-0.3232421875000011 2:1.0 6:1.0 14:1.0 20:1.0 37:1.0 41:1.0 51:1.0 66:1.0 67:1.0 72:1.0 74:1.0 76:1.0 80:1.0 83:1.0 
-0.3232421875000011 5:1.0 11:1.0 14:1.0 22:1.0 36:1.0 41:1.0 51:1.0 64:1.0 67:1.0 72:1.0 74:1.0 76:1.0 82:1.0 83:1.0 
-0.3232421875000011 4:1.0 6:1.0 14:1.0 22:1.0 36:1.0 42:1.0 49:1.0 64:1.0 71:1.0 72:1.0 74:1.0 76:1.0 81:1.0 83:1.0 
-0.32324218750000105 5:1.0 6:1.0 15:1.0 26:1.0 35:1.0 41:1.0 49:1.0 64:1.0 67:1.0 72:1.0 74:1.0 76:1.0 79:1.0 87:1.0 
-0.32324218750000105 2:1.0 6:1.0 17:1.0 22:1.0 36:1.0 42:1.0 49:1.0 64:1.0 67:1.0 72:1.0 74:1.0 76:1.0 79:1.0 83:1.0 
-0.32324218749999245 3:1.0 6:1.0 17:1.0 22:1.0 36:1.0 42:1.0 54:1.0 64:1.0 67:1.0 72:1.0 74:1.0 76:1.0 80:1.0 83:1.0 
-0.32324218750000105 1:1.0 6:1.0 16:1.0 22:1.0 36:1.0 42:1.0 48:1.0 65:1.0 67:1.0 73:1.0 74:1.0 76:1.0 80:1.0 83:1.0 
-0.32324218750000105 2:1.0 11:1.0 16:1.0 19:1.0 39:1.0 42:1.0 55:1.0 64:1.0 67:1.0 73:1.0 74:1.0 76:1.0 79:1.0 83:1.0 
-0.32324218750000105 2:1.0 6:1.0 18:1.0 20:1.0 37:1.0 41:1.0 55:1.0 64:1.0 67:1.0 72:1.0 74:1.0 76:1.0 81:1.0 83:1.0 
-0.32324218750000105 1:1.0 6:1.0 18:1.0 22:1.0 36:1.0 42:1.0 49:1.0 66:1.0 67:1.0 73:1.0 74:1.0 76:1.0 80:1.0 119:1.0 
-0.323242187500001 2:1.0 6:1.0 16:1.0 20:1.0 37:1.0 42:1.0 50:1.0 64:1.0 71:1.0 72:1.0 74:1.0 76:1.0 79:1.0 83:1.0 
-0.323242187500001 3:1.0 6:1.0 14:1.0 22:1.0 36:1.0 42:1.0 48:1.0 66:1.0 67:1.0 73:1.0 74:1.0 76:1.0 79:1.0 83:1.0 
-0.323242187500001 2:1.0 6:1.0 18:1.0 22:1.0 36:1.0 42:1.0 56:1.0 62:1.0 71:1.0 73:1.0 74:1.0 76:1.0 78:1.0 83:1.0 
-0.323242187500001 5:1.0 6:1.0 16:1.0 20:1.0 37:1.0 42:1.0 55:1.0 65:1.0 71:1.0 72:1.0 74:1.0 76:1.0 80:1.0 101:1.0 
-0.323242187500001 4:1.0 10:1.0 15:1.0 29:1.0 39:1.0 41:1.0 52:1.0 64:1.0 67:1.0 72:1.0 74:1.0 76:1.0 78:1.0 83:1.0 
-0.323242187500001 2:1.0 7:1.0 17:1.0 25:1.0 38:1.0 41:1.0 50:1.0 66:1.0 67:1.0 73:1.0 74:1.0 76:1.0 82:1.0 83:1.0 
-0.323242187500001 2:1.0 9:1.0 16:1.0 24:1.0 38:1.0 40:1.0 55:1.0 63:1.0 67:1.0 73:1.0 74:1.0 76:1.0 82:1.0 83:1.0 
-0.3232421874999806 1:1.0 6:1.0 16:1.0 20:1.0 37:1.0 42:1.0 55:1.0 64:1.0 67:1.0 72:1.0 74:1.0 76:1.0 80:1.0 83:1.0 
-0.3232421875000014 1:1.0 6:1.0 18:1.0 31:1.0 35:1.0 42:1.0 50:1.0 65:1.0 67:1.0 72:1.0 74:1.0 76:1.0 78:1.0 83:1.0 
-0.32324218750000133 5:1.0 6:1.0 15:1.0 20:1.0 37:1.0 44:1.0 48:1.0 64:1.0 67:1.0 73:1.0 74:1.0 76:1.0 80:1.0 83:1.0 
-0.3232421875000013 5:1.0 10:1.0 16:1.0 19:1.0 39:1.0 43:1.0 52:1.0 64:1.0 67:1.0 73:1.0 74:1.0 76:1.0 78:1.0 
-0.32324218750000133 4:1.0 6:1.0 15:1.0 22:1.0 36:1.0 42:1.0 50:1.0 64:1.0 71:1.0 72:1.0 74:1.0 76:1.0 81:1.0 83:1.0 
-0.3232421875000143 3:1.0 10:1.0 17:1.0 19:1.0 39:1.0 40:1.0 55:1.0 63:1.0 67:1.0 73:1.0 74:1.0 76:1.0 80:1.0 83:1.0 
-0.32421874999999595 3:1.0 6:1.0 15:1.0 22:1.0 36:1.0 42:1.0 50:1.0 64:1.0 67:1.0 73:1.0 74:1.0 76:1.0 80:1.0 83:1.0 
-0.3232421875000013 2:1.0 11:1.0 15:1.0 29:1.0 39:1.0 42:1.0 55:1.0 64:1.0 67:1.0 73:1.0 74:1.0 76:1.0 78:1.0 83:1.0 
-0.3232421874999968 5:1.0 10:1.0 15:1.0 20:1.0 37:1.0 41:1.0 55:1.0 66:1.0 67:1.0 72:1.0 74:1.0 76:1.0 80:1.0 83:1.0 
-0.3232421875000013 1:1.0 6:1.0 18:1.0 31:1.0 35:1.0 43:1.0 49:1.0 62:1.0 67:1.0 72:1.0 74:1.0 76:1.0 78:1.0 83:1.0 
-0.3232421874999968 2:1.0 7:1.0 15:1.0 22:1.0 36:1.0 40:1.0 48:1.0 63:1.0 67:1.0 73:1.0 74:1.0 76:1.0 80:1.0 83:1.0 
-0.3232421875000013 5:1.0 8:1.0 14:1.0 19:1.0 39:1.0 40:1.0 54:1.0 63:1.0 67:1.0 73:1.0 75:1.0 76:1.0 78:1.0 83:1.0 
-0.3232421875000013 5:1.0 6:1.0 17:1.0 20:1.0 37:1.0 41:1.0 50:1.0 66:1.0 67:1.0 72:1.0 74:1.0 76:1.0 82:1.0 83:1.0 
-0.3232421875000013 3:1.0 6:1.0 14:1.0 22:1.0 36:1.0 41:1.0 50:1.0 64:1.0 67:1.0 72:1.0 74:1.0 76:1.0 82:1.0 83:1.0 
-1.0 5:1.0 16:1.0 22:1.0 36:1.0 40:1.0 63:1.0 67:1.0 73:1.0 74:1.0 76:1.0 80:1.0 83:1.0 
-0.3232421875000013 3:1.0 6:1.0 15:1.0 19:1.0 39:1.0 40:1.0 52:1.0 63:1.0 68:1.0 73:1.0 74:1.0 76:1.0 81:1.0 
-0.32324218749999706 1:1.0 6:1.0 17:1.0 20:1.0 37:1.0 42:1.0 49:1.0 64:1.0 67:1.0 72:1.0 74:1.0 76:1.0 80:1.0 83:1.0 
-0.3232421875000013 2:1.0 6:1.0 17:1.0 33:1.0 35:1.0 42:1.0 57:1.0 64:1.0 67:1.0 73:1.0 74:1.0 76:1.0 80:1.0 103:1.0 
-0.3232421875000013 1:1.0 6:1.0 15:1.0 29:1.0 39:1.0 42:1.0 50:1.0 64:1.0 67:1.0 73:1.0 74:1.0 76:1.0 78:1.0 83:1.0 
-0.3232421875000013 4:1.0 9:1.0 18:1.0 21:1.0 35:1.0 42:1.0 47:1.0 64:1.0 67:1.0 73:1.0 74:1.0 77:1.0 80:1.0 83:1.0 
-0.3232421874999968 1:1.0 11:1.0 18:1.0 20:1.0 37:1.0 42:1.0 55:1.0 64:1.0 67:1.0 72:1.0 74:1.0 76:1.0 78:1.0 83:1.0 
-0.32421874824163915 3:1.0 7:1.0 17:1.0 20:1.0 37:1.0 43:1.0 49:1.0 62:1.0 67:1.0 72:1.0 74:1.0 76:1.0 80:1.0 95:1.0 
-0.32421874824163915 3:1.0 6:1.0 18:1.0 23:1.0 39:1.0 42:1.0 52:1.0 64:1.0 67:1.0 73:1.0 74:1.0 76:1.0 82:1.0 83:1.0 
-0.32421874824163915 2:1.0 6:1.0 17:1.0 20:1.0 37:1.0 42:1.0 52:1.0 64:1.0 67:1.0 73:1.0 74:1.0 77:1.0 80:1.0 
-0.32324218749999706 1:1.0 6:1.0 18:1.0 20:1.0 37:1.0 42:1.0 49:1.0 62:1.0 67:1.0 73:1.0 74:1.0 76:1.0 79:1.0 83:1.0 
-0.3232421875000141 3:1.0 6:1.0 16:1.0 20:1.0 37:1.0 40:1.0 52:1.0 63:1.0 67:1.0 73:1.0 74:1.0 76:1.0 82:1.0 83:1.0 
-0.32421874824163915 3:1.0 6:1.0 15:1.0 21:1.0 35:1.0 40:1.0 48:1.0 63:1.0 67:1.0 73:1.0 74:1.0 76:1.0 82:1.0 83:1.0 
-1.0 2:1.0 9:1.0 18:1.0 19:1.0 39:1.0 40:1.0 51:1.0 63:1.0 67:1.0 73:1.0 74:1.0 76:1.0 80:1.0 83:1.0 
-0.3232421875000011 4:1.0 16:1.0 22:1.0 36:1.0 40:1.0 63:1.0 67:1.0 73:1.0 74:1.0 76:1.0 80:1.0 83:1.0 
-0.32421874824163915 2:1.0 6:1.0 17:1.0 22:1.0 36:1.0 42:1.0 59:1.0 65:1.0 71:1.0 73:1.0 74:1.0 76:1.0 80:1.0 83:1.0 
-0.32421874824163915 1:1.0 9:1.0 14:1.0 22:1.0 36:1.0 46:1.0 50:1.0 61:1.0 67:1.0 72:1.0 74:1.0 76:1.0 80:1.0 83:1.0 
-0.32421874824163915 3:1.0 6:1.0 14:1.0 22:1.0 36:1.0 43:1.0 55:1.0 66:1.0 67:1.0 72:1.0 74:1.0 76:1.0 81:1.0 83:1.0 
-0.32421874824163915 2:1.0 10:1.0 15:1.0 29:1.0 39:1.0 42:1.0 55:1.0 64:1.0 67:1.0 72:1.0 74:1.0 76:1.0 80:1.0 83:1.0 
-0.3242187499999996 2:1.0 6:1.0 18:1.0 34:1.0 35:1.0 42:1.0 49:1.0 65:1.0 67:1.0 72:1.0 74:1.0 76:1.0 79:1.0 103:1.0 
-0.32324218749999306 1:1.0 18:1.0 22:1.0 36:1.0 42:1.0 62:1.0 67:1.0 73:1.0 74:1.0 76:1.0 78:1.0 83:1.0 
-0.3242187499999996 2:1.0 11:1.0 14:1.0 19:1.0 39:1.0 42:1.0 52:1.0 64:1.0 67:1.0 73:1.0 74:1.0 76:1.0 78:1.0 83:1.0 
-0.3242187499999996 2:1.0 16:1.0 22:1.0 36:1.0 42:1.0 62:1.0 71:1.0 73:1.0 74:1.0 76:1.0 80:1.0 83:1.0 
-0.32324218749999706 1:1.0 11:1.0 15:1.0 20:1.0 37:1.0 42:1.0 49:1.0 62:1.0 67:1.0 73:1.0 74:1.0 76:1.0 80:1.0 83:1.0 
-0.32324218749999245 1:1.0 6:1.0 16:1.0 20:1.0 37:1.0 42:1.0 55:1.0 62:1.0 67:1.0 72:1.0 74:1.0 76:1.0 80:1.0 83:1.0 
-0.3232421874999975 4:1.0 6:1.0 17:1.0 22:1.0 36:1.0 40:1.0 50:1.0 63:1.0 67:1.0 73:1.0 74:1.0 76:1.0 80:1.0 83:1.0 
-0.32421874999999595 4:1.0 6:1.0 14:1.0 22:1.0 36:1.0 42:1.0 54:1.0 64:1.0 67:1.0 73:1.0 74:1.0 76:1.0 80:1.0 83:1.0 
-0.3232421875000139 3:1.0 6:1.0 18:1.0 19:1.0 39:1.0 40:1.0 50:1.0 61:1.0 67:1.0 72:1.0 74:1.0 76:1.0 78:1.0 83:1.0 
-0.32421874999999967 2:1.0 6:1.0 14:1.0 24:1.0 38:1.0 40:1.0 53:1.0 63:1.0 67:1.0 73:1.0 74:1.0 76:1.0 80:1.0 83:1.0 
-0.3242187499999997 4:1.0 6:1.0 15:1.0 22:1.0 36:1.0 45:1.0 48:1.0 64:1.0 67:1.0 73:1.0 74:1.0 76:1.0 80:1.0 100:1.0 
-0.3242187499999998 4:1.0 6:1.0 14:1.0 20:1.0 37:1.0 42:1.0 56:1.0 65:1.0 67:1.0 73:1.0 74:1.0 76:1.0 82:1.0 83:1.0 
-0.3242187499999998 5:1.0 6:1.0 17:1.0 21:1.0 35:1.0 41:1.0 48:1.0 65:1.0 67:1.0 72:1.0 74:1.0 76:1.0 80:1.0 83:1.0 
-0.3242187499999998 3:1.0 6:1.0 18:1.0 20:1.0 37:1.0 40:1.0 51:1.0 63:1.0 67:1.0 73:1.0 74:1.0 76:1.0 80:1.0 83:1.0 
-0.3242187499999998 1:1.0 6:1.0 14:1.0 22:1.0 36:1.0 43:1.0 49:1.0 62:1.0 67:1.0 72:1.0 74:1.0 76:1.0 79:1.0 83:1.0 
-0.3232421874999927 3:1.0 7:1.0 17:1.0 22:1.0 36:1.0 40:1.0 48:1.0 63:1.0 67:1.0 73:1.0 74:1.0 76:1.0 82:1.0 83:1.0 
-0.3242187499999998 5:1.0 16:1.0 22:1.0 36:1.0 40:1.0 63:1.0 71:1.0 73:1.0 74:1.0 76:1.0 78:1.0 83:1.0 
-0.3242187499999998 2:1.0 6:1.0 17:1.0 25:1.0 38:1.0 40:1.0 54:1.0 63:1.0 69:1.0 73:1.0 74:1.0 76:1.0 80:1.0 83:1.0 
-0.32421874999999983 3:1.0 10:1.0 18:1.0 24:1.0 38:1.0 41:1.0 52:1.0 64:1.0 67:1.0 73:1.0 74:1.0 76:1.0 82:1.0 83:1.0 
-0.3242187499999998 4:1.0 8:1.0 18:1.0 20:1.0 37:1.0 40:1.0 50:1.0 63:1.0 67:1.0 73:1.0 74:1.0 76:1.0 82:1.0 83:1.0 
-0.32324218750000117 5:1.0 6:1.0 14:1.0 22:1.0 36:1.0 41:1.0 49:1.0 64:1.0 67:1.0 72:1.0 74:1.0 76:1.0 79:1.0 83:1.0 
-0.32324218749999745 2:1.0 6:1.0 16:1.0 22:1.0 36:1.0 40:1.0 57:1.0 63:1.0 67:1.0 73:1.0 74:1.0 76:1.0 82:1.0 83:1.0 
-0.32324218750000117 3:1.0 6:1.0 18:1.0 22:1.0 36:1.0 41:1.0 51:1.0 66:1.0 67:1.0 72:1.0 74:1.0 77:1.0 82:1.0 83:1.0 
-0.3232421874999687 1:1.0 6:1.0 18:1.0 20:1.0 37:1.0 42:1.0 49:1.0 62:1.0 67:1.0 73:1.0 74:1.0 76:1.0 78:1.0 83:1.0 
-0.32421874999999606 1:1.0 6:1.0 15:1.0 22:1.0 36:1.0 42:1.0 53:1.0 62:1.0 71:1.0 72:1.0 74:1.0 76:1.0 78:1.0 83:1.0 
-0.3242187500000257 4:1.0 6:1.0 15:1.0 22:1.0 36:1.0 40:1.0 50:1.0 63:1.0 67:1.0 73:1.0 74:1.0 76:1.0 80:1.0 83:1.0 
-0.32324218750000117 1:1.0 6:1.0 17:1.0 22:1.0 36:1.0 42:1.0 52:1.0 64:1.0 67:1.0 72:1.0 74:1.0 76:1.0 80:1.0 87:1.0 
-0.32324218750000117 4:1.0 6:1.0 17:1.0 33:1.0 35:1.0 40:1.0 57:1.0 63:1.0 67:1.0 73:1.0 74:1.0 76:1.0 79:1.0 103:1.0 
-0.32324218750000117 2:1.0 6:1.0 18:1.0 20:1.0 37:1.0 41:1.0 53:1.0 64:1.0 67:1.0 73:1.0 74:1.0 76:1.0 82:1.0 83:1.0 
-0.3232421874999968 2:1.0 6:1.0 18:1.0 22:1.0 36:1.0 40:1.0 57:1.0 63:1.0 67:1.0 73:1.0 74:1.0 76:1.0 81:1.0 83:1.0 
-0.3232421875000138 3:1.0 6:1.0 14:1.0 22:1.0 36:1.0 40:1.0 48:1.0 63:1.0 67:1.0 73:1.0 74:1.0 77:1.0 80:1.0 83:1.0 
-0.32324218750000117 2:1.0 6:1.0 15:1.0 20:1.0 37:1.0 40:1.0 55:1.0 63:1.0 67:1.0 73:1.0 74:1.0 76:1.0 78:1.0 83:1.0 
-0.32324218750000117 2:1.0 10:1.0 15:1.0 22:1.0 36:1.0 42:1.0 59:1.0 65:1.0 71:1.0 73:1.0 74:1.0 77:1.0 80:1.0 83:1.0 
-0.32324218750000117 2:1.0 6:1.0 17:1.0 19:1.0 39:1.0 40:1.0 49:1.0 63:1.0 67:1.0 73:1.0 74:1.0 76:1.0 82:1.0 83:1.0 
-0.3232421875000008 3:1.0 11:1.0 15:1.0 19:1.0 39:1.0 42:1.0 52:1.0 66:1.0 67:1.0 72:1.0 74:1.0 76:1.0 78:1.0 83:1.0 
-0.3232421875000008 5:1.0 6:1.0 16:1.0 20:1.0 37:1.0 41:1.0 50:1.0 64:1.0 67:1.0 72:1.0 74:1.0 76:1.0 82:1.0 83:1.0 
-0.3232421874999968 1:1.0 16:1.0 20:1.0 37:1.0 42:1.0 62:1.0 71:1.0 73:1.0 74:1.0 76:1.0 78:1.0 83:1.0 
-0.3232421875000007 5:1.0 6:1.0 15:1.0 22:1.0 36:1.0 40:1.0 49:1.0 63:1.0 71:1.0 73:1.0 74:1.0 76:1.0 82:1.0 85:1.0 
-0.3232421875000007 5:1.0 6:1.0 14:1.0 29:1.0 39:1.0 41:1.0 52:1.0 64:1.0 67:1.0 72:1.0 74:1.0 76:1.0 80:1.0 83:1.0 
-0.3232421875000007 4:1.0 14:1.0 22:1.0 36:1.0 43:1.0 66:1.0 67:1.0 72:1.0 74:1.0 76:1.0 78:1.0 83:1.0 
-0.32324218749999706 4:1.0 6:1.0 18:1.0 21:1.0 35:1.0 40:1.0 57:1.0 63:1.0 67:1.0 73:1.0 74:1.0 77:1.0 80:1.0 83:1.0 
-0.32324218749999706 1:1.0 6:1.0 17:1.0 20:1.0 37:1.0 42:1.0 50:1.0 62:1.0 67:1.0 72:1.0 74:1.0 76:1.0 80:1.0 83:1.0 
-0.32421874999998773 3:1.0 6:1.0 17:1.0 22:1.0 36:1.0 42:1.0 55:1.0 64:1.0 67:1.0 72:1.0 74:1.0 76:1.0 80:1.0 83:1.0 
-0.3232421875000012 2:1.0 6:1.0 16:1.0 22:1.0 36:1.0 42:1.0 53:1.0 62:1.0 67:1.0 72:1.0 74:1.0 76:1.0 80:1.0 83:1.0 
-0.3232421874999884 2:1.0 6:1.0 14:1.0 22:1.0 36:1.0 40:1.0 51:1.0 63:1.0 67:1.0 73:1.0 74:1.0 76:1.0 82:1.0 83:1.0 
-0.3232421875000012 1:1.0 6:1.0 16:1.0 20:1.0 37:1.0 42:1.0 53:1.0 64:1.0 67:1.0 73:1.0 74:1.0 76:1.0 78:1.0 83:1.0 
-0.3232421875000012 4:1.0 11:1.0 15:1.0 22:1.0 36:1.0 40:1.0 59:1.0 63:1.0 67:1.0 73:1.0 74:1.0 76:1.0 80:1.0 83:1.0 
-0.32324218750000117 5:1.0 7:1.0 15:1.0 25:1.0 38:1.0 40:1.0 56:1.0 63:1.0 67:1.0 73:1.0 74:1.0 76:1.0 80:1.0 83:1.0 
-0.32324218750000117 4:1.0 8:1.0 16:1.0 19:1.0 39:1.0 42:1.0 50:1.0 64:1.0 67:1.0 73:1.0 75:1.0 76:1.0 82:1.0 83:1.0 
-0.3232421875000011 1:1.0 6:1.0 17:1.0 21:1.0 35:1.0 40:1.0 48:1.0 63:1.0 67:1.0 73:1.0 74:1.0 76:1.0 82:1.0 83:1.0 
-0.3232421874999971 3:1.0 6:1.0 16:1.0 22:1.0 36:1.0 40:1.0 57:1.0 63:1.0 67:1.0 73:1.0 75:1.0 76:1.0 80:1.0 83:1.0 
-0.3232421875000011 1:1.0 6:1.0 17:1.0 22:1.0 36:1.0 40:1.0 56:1.0 63:1.0 67:1.0 73:1.0 74:1.0 76:1.0 80:1.0 83:1.0 
-0.3232421875000011 1:1.0 18:1.0 20:1.0 37:1.0 42:1.0 62:1.0 67:1.0 72:1.0 74:1.0 76:1.0 79:1.0 83:1.0 
-0.3232421875000011 1:1.0 6:1.0 15:1.0 20:1.0 37:1.0 42:1.0 55:1.0 62:1.0 68:1.0 72:1.0 74:1.0 76:1.0 80:1.0 102:1.0 
-0.32324218749999684 5:1.0 6:1.0 14:1.0 22:1.0 36:1.0 44:1.0 49:1.0 66:1.0 67:1.0 72:1.0 74:1.0 76:1.0 78:1.0 83:1.0 
-0.32324218750000117 1:1.0 6:1.0 17:1.0 19:1.0 39:1.0 42:1.0 50:1.0 64:1.0 67:1.0 72:1.0 74:1.0 76:1.0 81:1.0 83:1.0 
-0.3232421875000011 1:1.0 6:1.0 17:1.0 20:1.0 37:1.0 42:1.0 50:1.0 64:1.0 67:1.0 73:1.0 74:1.0 76:1.0 81:1.0 83:1.0 
-0.32324218749999784 5:1.0 6:1.0 14:1.0 22:1.0 36:1.0 42:1.0 55:1.0 66:1.0 67:1.0 72:1.0 74:1.0 76:1.0 80:1.0 83:1.0 
-0.323242187499997 1:1.0 6:1.0 14:1.0 22:1.0 36:1.0 42:1.0 53:1.0 62:1.0 67:1.0 73:1.0 74:1.0 76:1.0 79:1.0 83:1.0 
-0.3232421875000011 1:1.0 6:1.0 16:1.0 28:1.0 35:1.0 42:1.0 50:1.0 64:1.0 67:1.0 72:1.0 74:1.0 76:1.0 78:1.0 
-0.3232421874999977 5:1.0 6:1.0 15:1.0 20:1.0 37:1.0 44:1.0 51:1.0 66:1.0 67:1.0 72:1.0 74:1.0 76:1.0 80:1.0 83:1.0 
-0.3232421875000011 4:1.0 7:1.0 17:1.0 27:1.0 35:1.0 40:1.0 48:1.0 63:1.0 67:1.0 73:1.0 74:1.0 76:1.0 80:1.0 99:1.0 
-0.3232421875000011 2:1.0 7:1.0 17:1.0 22:1.0 36:1.0 41:1.0 56:1.0 66:1.0 67:1.0 73:1.0 74:1.0 76:1.0 82:1.0 83:1.0 
-0.3232421875000011 2:1.0 6:1.0 18:1.0 20:1.0 37:1.0 40:1.0 50:1.0 63:1.0 70:1.0 73:1.0 74:1.0 76:1.0 82:1.0 
-0.3232421875000011 2:1.0 9:1.0 14:1.0 25:1.0 38:1.0 42:1.0 52:1.0 65:1.0 68:1.0 73:1.0 74:1.0 76:1.0 80:1.0 83:1.0 
-0.32324218750000105 5:1.0 7:1.0 15:1.0 20:1.0 37:1.0 40:1.0 51:1.0 63:1.0 67:1.0 73:1.0 74:1.0 76:1.0 78:1.0 83:1.0 
-0.323242187499997 1:1.0 6:1.0 14:1.0 24:1.0 38:1.0 42:1.0 55:1.0 64:1.0 67:1.0 72:1.0 74:1.0 76:1.0 80:1.0 83:1.0 
-0.3232421875000051 2:1.0 6:1.0 15:1.0 20:1.0 37:1.0 40:1.0 48:1.0 63:1.0 67:1.0 73:1.0 74:1.0 76:1.0 80:1.0 83:1.0 
-0.32324218750000105 1:1.0 6:1.0 18:1.0 27:1.0 35:1.0 42:1.0 56:1.0 66:1.0 70:1.0 73:1.0 74:1.0 76:1.0 79:1.0 103:1.0 
-0.32324218750000105 4:1.0 7:1.0 14:1.0 20:1.0 37:1.0 42:1.0 56:1.0 62:1.0 67:1.0 73:1.0 74:1.0 76:1.0 82:1.0 83:1.0 
-0.32324218750000105 1:1.0 6:1.0 17:1.0 20:1.0 37:1.0 42:1.0 48:1.0 65:1.0 68:1.0 72:1.0 74:1.0 76:1.0 80:1.0 84:1.0 
-0.3232421874999887 1:1.0 6:1.0 18:1.0 22:1.0 36:1.0 40:1.0 54:1.0 63:1.0 67:1.0 73:1.0 74:1.0 76:1.0 80:1.0 83:1.0 
-0.32324218750000105 3:1.0 6:1.0 18:1.0 22:1.0 36:1.0 40:1.0 48:1.0 63:1.0 67:1.0 73:1.0 74:1.0 76:1.0 81:1.0 83:1.0 
-0.32324218750000105 4:1.0 6:1.0 18:1.0 22:1.0 36:1.0 41:1.0 49:1.0 66:1.0 71:1.0 73:1.0 74:1.0 76:1.0 78:1.0 83:1.0 
-0.32324218750000105 2:1.0 6:1.0 18:1.0 20:1.0 37:1.0 42:1.0 50:1.0 64:1.0 67:1.0 73:1.0 74:1.0 76:1.0 81:1.0 83:1.0 
-0.32324218750000105 2:1.0 10:1.0 17:1.0 20:1.0 37:1.0 42:1.0 55:1.0 64:1.0 67:1.0 73:1.0 74:1.0 76:1.0 80:1.0 83:1.0 
-0.32324218750000105 3:1.0 6:1.0 18:1.0 31:1.0 35:1.0 40:1.0 56:1.0 63:1.0 67:1.0 73:1.0 74:1.0 76:1.0 79:1.0 103:1.0 
-0.32324218750000105 3:1.0 7:1.0 18:1.0 30:1.0 35:1.0 45:1.0 48:1.0 64:1.0 67:1.0 73:1.0 74:1.0 76:1.0 80:1.0 103:1.0 
-0.32324218750000105 4:1.0 6:1.0 18:1.0 30:1.0 35:1.0 42:1.0 49:1.0 62:1.0 67:1.0 73:1.0 74:1.0 76:1.0 78:1.0 83:1.0 
-0.32324218749999695 2:1.0 6:1.0 18:1.0 19:1.0 39:1.0 40:1.0 48:1.0 63:1.0 67:1.0 73:1.0 74:1.0 76:1.0 80:1.0 83:1.0 
-0.32324218750000105 4:1.0 10:1.0 16:1.0 22:1.0 36:1.0 41:1.0 57:1.0 64:1.0 71:1.0 72:1.0 74:1.0 76:1.0 79:1.0 83:1.0 
-0.32324218750000105 5:1.0 6:1.0 15:1.0 25:1.0 38:1.0 44:1.0 52:1.0 64:1.0 67:1.0 72:1.0 74:1.0 76:1.0 79:1.0 83:1.0 
-0.32324218749999256 4:1.0 10:1.0 15:1.0 20:1.0 37:1.0 41:1.0 55:1.0 66:1.0 67:1.0 72:1.0 74:1.0 76:1.0 80:1.0 83:1.0 
-0.3232421874999975 2:1.0 6:1.0 17:1.0 20:1.0 37:1.0 42:1.0 50:1.0 65:1.0 67:1.0 72:1.0 74:1.0 76:1.0 78:1.0 83:1.0 
-0.32421874999999184 1:1.0 6:1.0 17:1.0 19:1.0 39:1.0 42:1.0 51:1.0 64:1.0 67:1.0 73:1.0 74:1.0 76:1.0 80:1.0 83:1.0 
-0.3232421874999968 1:1.0 6:1.0 14:1.0 20:1.0 37:1.0 42:1.0 53:1.0 64:1.0 67:1.0 73:1.0 74:1.0 76:1.0 82:1.0 83:1.0 
-0.32324218750000105 1:1.0 6:1.0 18:1.0 26:1.0 35:1.0 43:1.0 53:1.0 65:1.0 67:1.0 73:1.0 74:1.0 76:1.0 80:1.0 119:1.0 
-0.323242187500001 1:1.0 6:1.0 18:1.0 31:1.0 35:1.0 42:1.0 50:1.0 62:1.0 67:1.0 73:1.0 74:1.0 76:1.0 78:1.0 83:1.0 
-0.32324218750003053 2:1.0 6:1.0 18:1.0 19:1.0 39:1.0 40:1.0 51:1.0 63:1.0 67:1.0 73:1.0 74:1.0 76:1.0 80:1.0 83:1.0 
-0.323242187500001 5:1.0 10:1.0 18:1.0 29:1.0 39:1.0 44:1.0 52:1.0 64:1.0 67:1.0 72:1.0 74:1.0 76:1.0 80:1.0 83:1.0 
-0.3232421875000016 2:1.0 6:1.0 15:1.0 19:1.0 39:1.0 42:1.0 55:1.0 62:1.0 67:1.0 72:1.0 74:1.0 76:1.0 78:1.0 119:1.0 
-0.32421875 5:1.0 6:1.0 15:1.0 33:1.0 35:1.0 40:1.0 53:1.0 63:1.0 67:1.0 73:1.0 74:1.0 76:1.0 82:1.0 
-0.32421875000000006 2:1.0 6:1.0 18:1.0 22:1.0 36:1.0 43:1.0 57:1.0 64:1.0 67:1.0 73:1.0 74:1.0 76:1.0 81:1.0 83:1.0 
-0.3242187500000001 2:1.0 6:1.0 14:1.0 22:1.0 36:1.0 42:1.0 49:1.0 62:1.0 67:1.0 72:1.0 74:1.0 76:1.0 79:1.0 83:1.0 
-0.3242187500000001 4:1.0 7:1.0 17:1.0 19:1.0 39:1.0 40:1.0 51:1.0 63:1.0 67:1.0 73:1.0 74:1.0 76:1.0 82:1.0 88:1.0 
-0.3242187500000001 2:1.0 6:1.0 18:1.0 22:1.0 36:1.0 40:1.0 51:1.0 61:1.0 67:1.0 72:1.0 74:1.0 76:1.0 80:1.0 83:1.0 
-0.3242187500000086 3:1.0 7:1.0 18:1.0 22:1.0 36:1.0 40:1.0 51:1.0 63:1.0 67:1.0 73:1.0 74:1.0 76:1.0 82:1.0 83:1.0 
-0.3242187500000001 4:1.0 6:1.0 18:1.0 20:1.0 37:1.0 40:1.0 47:1.0 63:1.0 67:1.0 73:1.0 74:1.0 76:1.0 80:1.0 83:1.0 
-0.3242187500000001 3:1.0 6:1.0 16:1.0 19:1.0 39:1.0 40:1.0 49:1.0 61:1.0 67:1.0 72:1.0 74:1.0 76:1.0 80:1.0 83:1.0 
-0.3232421874999847 1:1.0 6:1.0 17:1.0 22:1.0 36:1.0 42:1.0 55:1.0 62:1.0 67:1.0 72:1.0 74:1.0 76:1.0 80:1.0 83:1.0 
-0.3242187500000001 5:1.0 6:1.0 15:1.0 20:1.0 37:1.0 41:1.0 48:1.0 64:1.0 67:1.0 73:1.0 75:1.0 76:1.0 80:1.0 83:1.0 
-0.3232421874999926 4:1.0 6:1.0 17:1.0 20:1.0 37:1.0 41:1.0 55:1.0 66:1.0 67:1.0 72:1.0 74:1.0 76:1.0 80:1.0 83:1.0 
-0.3242187500000001 3:1.0 10:1.0 17:1.0 20:1.0 37:1.0 40:1.0 48:1.0 63:1.0 67:1.0 73:1.0 74:1.0 77:1.0 80:1.0 83:1.0 
-0.3242187500000001 3:1.0 6:1.0 16:1.0 22:1.0 36:1.0 42:1.0 58:1.0 66:1.0 71:1.0 72:1.0 74:1.0 76:1.0 78:1.0 
-0.32421875000000006 2:1.0 6:1.0 16:1.0 22:1.0 36:1.0 42:1.0 54:1.0 65:1.0 71:1.0 73:1.0 74:1.0 76:1.0 80:1.0 83:1.0 
-0.32324218749999695 1:1.0 6:1.0 17:1.0 19:1.0 39:1.0 42:1.0 52:1.0 64:1.0 67:1.0 72:1.0 74:1.0 76:1.0 80:1.0 83:1.0 
-0.32421875000000017 3:1.0 6:1.0 14:1.0 19:1.0 39:1.0 42:1.0 50:1.0 62:1.0 71:1.0 72:1.0 74:1.0 76:1.0 80:1.0 83:1.0 
-0.3232421875000014 1:1.0 6:1.0 18:1.0 21:1.0 35:1.0 42:1.0 57:1.0 62:1.0 67:1.0 73:1.0 74:1.0 76:1.0 82:1.0 83:1.0 
-0.32324218749999684 4:1.0 6:1.0 15:1.0 22:1.0 36:1.0 42:1.0 54:1.0 64:1.0 67:1.0 73:1.0 74:1.0 76:1.0 80:1.0 83:1.0 
-0.3232421875000014 1:1.0 10:1.0 16:1.0 20:1.0 37:1.0 40:1.0 56:1.0 63:1.0 67:1.0 73:1.0 74:1.0 76:1.0 80:1.0 83:1.0 
-0.32324218750000133 5:1.0 8:1.0 17:1.0 19:1.0 39:1.0 43:1.0 50:1.0 64:1.0 67:1.0 72:1.0 74:1.0 76:1.0 78:1.0 83:1.0 
-0.323242187500001 4:1.0 6:1.0 14:1.0 22:1.0 36:1.0 41:1.0 54:1.0 64:1.0 67:1.0 72:1.0 74:1.0 76:1.0 78:1.0 83:1.0 
-0.32324218749998085 1:1.0 6:1.0 14:1.0 20:1.0 37:1.0 42:1.0 50:1.0 62:1.0 67:1.0 72:1.0 74:1.0 76:1.0 78:1.0 83:1.0 
-0.323242187500001 5:1.0 8:1.0 15:1.0 20:1.0 37:1.0 41:1.0 51:1.0 64:1.0 67:1.0 73:1.0 74:1.0 76:1.0 82:1.0 83:1.0 
-0.323242187500001 2:1.0 11:1.0 18:1.0 22:1.0 36:1.0 40:1.0 59:1.0 63:1.0 67:1.0 73:1.0 74:1.0 76:1.0 81:1.0 83:1.0 
-0.323242187500001 1:1.0 10:1.0 15:1.0 20:1.0 37:1.0 43:1.0 59:1.0 64:1.0 67:1.0 73:1.0 74:1.0 76:1.0 82:1.0 83:1.0 
-0.32324218749998473 5:1.0 6:1.0 17:1.0 20:1.0 37:1.0 40:1.0 48:1.0 63:1.0 67:1.0 73:1.0 74:1.0 76:1.0 80:1.0 83:1.0 
-0.3242187499999959 5:1.0 6:1.0 18:1.0 31:1.0 35:1.0 41:1.0 48:1.0 64:1.0 67:1.0 73:1.0 74:1.0 76:1.0 80:1.0 83:1.0 
-0.32421874999999606 5:1.0 6:1.0 16:1.0 22:1.0 36:1.0 41:1.0 49:1.0 64:1.0 67:1.0 72:1.0 74:1.0 76:1.0 78:1.0 83:1.0 
-0.323242187500001 2:1.0 6:1.0 18:1.0 22:1.0 36:1.0 40:1.0 57:1.0 63:1.0 71:1.0 73:1.0 74:1.0 76:1.0 80:1.0 83:1.0 
-0.323242187499997 1:1.0 6:1.0 14:1.0 20:1.0 37:1.0 42:1.0 52:1.0 64:1.0 67:1.0 73:1.0 74:1.0 76:1.0 79:1.0 83:1.0 
-0.32324218749998856 2:1.0 6:1.0 16:1.0 19:1.0 39:1.0 42:1.0 52:1.0 64:1.0 67:1.0 72:1.0 74:1.0 76:1.0 80:1.0 83:1.0 
-0.3232421874999929 1:1.0 6:1.0 14:1.0 21:1.0 35:1.0 42:1.0 49:1.0 62:1.0 67:1.0 73:1.0 74:1.0 76:1.0 78:1.0 83:1.0 
-0.3232421874999887 1:1.0 6:1.0 17:1.0 20:1.0 37:1.0 42:1.0 50:1.0 65:1.0 67:1.0 72:1.0 74:1.0 76:1.0 78:1.0 83:1.0 
-0.323242187500001 3:1.0 6:1.0 16:1.0 22:1.0 36:1.0 40:1.0 57:1.0 63:1.0 67:1.0 73:1.0 74:1.0 76:1.0 78:1.0 83:1.0 
-0.323242187500001 5:1.0 7:1.0 18:1.0 22:1.0 36:1.0 44:1.0 51:1.0 66:1.0 68:1.0 72:1.0 74:1.0 76:1.0 82:1.0 93:1.0 
-0.323242187500001 1:1.0 6:1.0 18:1.0 31:1.0 35:1.0 42:1.0 56:1.0 62:1.0 67:1.0 73:1.0 74:1.0 76:1.0 79:1.0 83:1.0 
-0.323242187500001 2:1.0 6:1.0 15:1.0 22:1.0 36:1.0 42:1.0 49:1.0 66:1.0 71:1.0 72:1.0 74:1.0 76:1.0 78:1.0 83:1.0 
-0.323242187500001 2:1.0 6:1.0 15:1.0 27:1.0 35:1.0 44:1.0 55:1.0 64:1.0 67:1.0 72:1.0 74:1.0 76:1.0 79:1.0 83:1.0 
-0.323242187500001 2:1.0 11:1.0 17:1.0 23:1.0 39:1.0 42:1.0 52:1.0 64:1.0 68:1.0 73:1.0 75:1.0 76:1.0 82:1.0 90:1.0 
-0.323242187500001 3:1.0 7:1.0 15:1.0 20:1.0 37:1.0 40:1.0 48:1.0 63:1.0 69:1.0 73:1.0 74:1.0 76:1.0 82:1.0 83:1.0 
-0.323242187500001 3:1.0 17:1.0 25:1.0 38:1.0 42:1.0 62:1.0 67:1.0 72:1.0 74:1.0 76:1.0 80:1.0 83:1.0 
-0.3242187499999959 5:1.0 6:1.0 18:1.0 22:1.0 36:1.0 44:1.0 50:1.0 64:1.0 67:1.0 72:1.0 74:1.0 76:1.0 80:1.0 83:1.0 
-0.3242187482416392 2:1.0 6:1.0 18:1.0 33:1.0 35:1.0 40:1.0 56:1.0 63:1.0 67:1.0 73:1.0 74:1.0 76:1.0 78:1.0 103:1.0 
-0.3232421874999807 1:1.0 15:1.0 20:1.0 37:1.0 42:1.0 62:1.0 67:1.0 72:1.0 74:1.0 76:1.0 78:1.0 83:1.0 
-0.3242187482416392 4:1.0 6:1.0 18:1.0 22:1.0 36:1.0 40:1.0 50:1.0 63:1.0 67:1.0 73:1.0 75:1.0 76:1.0 82:1.0 83:1.0 
-0.32421874824163915 1:1.0 6:1.0 18:1.0 19:1.0 39:1.0 42:1.0 47:1.0 64:1.0 71:1.0 73:1.0 74:1.0 76:1.0 80:1.0 
-0.32421874824163915 2:1.0 6:1.0 14:1.0 19:1.0 39:1.0 42:1.0 52:1.0 64:1.0 67:1.0 72:1.0 75:1.0 76:1.0 80:1.0 83:1.0 
-1.0 2:1.0 6:1.0 14:1.0 19:1.0 39:1.0 40:1.0 50:1.0 63:1.0 67:1.0 73:1.0 74:1.0 76:1.0 82:1.0 83:1.0 
-0.3242187499999996 3:1.0 11:1.0 17:1.0 20:1.0 37:1.0 41:1.0 51:1.0 64:1.0 71:1.0 72:1.0 74:1.0 76:1.0 80:1.0 83:1.0 
-0.3242187499999998 5:1.0 6:1.0 18:1.0 21:1.0 35:1.0 41:1.0 57:1.0 64:1.0 67:1.0 73:1.0 74:1.0 76:1.0 82:1.0 83:1.0 
-0.3242187499999999 5:1.0 6:1.0 16:1.0 22:1.0 36:1.0 40:1.0 52:1.0 63:1.0 67:1.0 73:1.0 75:1.0 76:1.0 80:1.0 83:1.0 
-0.3242187499999999 5:1.0 7:1.0 14:1.0 27:1.0 35:1.0 40:1.0 50:1.0 63:1.0 67:1.0 73:1.0 74:1.0 76:1.0 82:1.0 83:1.0 
-0.3242187499999999 3:1.0 6:1.0 16:1.0 22:1.0 36:1.0 43:1.0 51:1.0 62:1.0 67:1.0 73:1.0 74:1.0 76:1.0 80:1.0 83:1.0 
-0.3242187499999999 3:1.0 9:1.0 14:1.0 20:1.0 37:1.0 41:1.0 47:1.0 66:1.0 69:1.0 72:1.0 74:1.0 76:1.0 78:1.0 83:1.0 
-0.32421874999999994 3:1.0 6:1.0 17:1.0 19:1.0 39:1.0 42:1.0 55:1.0 64:1.0 71:1.0 73:1.0 74:1.0 76:1.0 80:1.0 83:1.0 
-0.32421874999999994 4:1.0 6:1.0 15:1.0 20:1.0 37:1.0 41:1.0 49:1.0 66:1.0 71:1.0 72:1.0 74:1.0 76:1.0 80:1.0 83:1.0 
-0.32421874999999994 3:1.0 6:1.0 18:1.0 19:1.0 39:1.0 40:1.0 51:1.0 61:1.0 67:1.0 72:1.0 74:1.0 76:1.0 82:1.0 88:1.0 
-0.3232421874999968 1:1.0 16:1.0 25:1.0 38:1.0 42:1.0 62:1.0 67:1.0 73:1.0 74:1.0 76:1.0 80:1.0 83:1.0 
-0.3232421874999967 2:1.0 6:1.0 15:1.0 22:1.0 36:1.0 41:1.0 48:1.0 64:1.0 67:1.0 73:1.0 74:1.0 76:1.0 80:1.0 83:1.0 
-0.32421874999999994 1:1.0 6:1.0 16:1.0 22:1.0 36:1.0 42:1.0 49:1.0 62:1.0 67:1.0 72:1.0 75:1.0 76:1.0 78:1.0 83:1.0 
-0.32421874999999994 2:1.0 7:1.0 17:1.0 19:1.0 39:1.0 42:1.0 47:1.0 64:1.0 67:1.0 73:1.0 74:1.0 76:1.0 81:1.0 83:1.0 
-0.3232421875000263 2:1.0 6:1.0 17:1.0 19:1.0 39:1.0 40:1.0 52:1.0 63:1.0 67:1.0 73:1.0 74:1.0 76:1.0 80:1.0 83:1.0 
-0.3242187499999999 4:1.0 11:1.0 18:1.0 19:1.0 39:1.0 41:1.0 59:1.0 64:1.0 67:1.0 72:1.0 74:1.0 76:1.0 80:1.0 83:1.0 
-1.0 2:1.0 6:1.0 14:1.0 22:1.0 36:1.0 40:1.0 48:1.0 63:1.0 67:1.0 73:1.0 74:1.0 76:1.0 80:1.0 83:1.0 
-0.3242187499999999 2:1.0 6:1.0 17:1.0 19:1.0 39:1.0 42:1.0 47:1.0 62:1.0 67:1.0 73:1.0 74:1.0 76:1.0 80:1.0 83:1.0 
-0.32324218749999695 1:1.0 7:1.0 18:1.0 20:1.0 37:1.0 42:1.0 49:1.0 62:1.0 67:1.0 73:1.0 74:1.0 76:1.0 78:1.0 83:1.0 
-0.3242187499999999 5:1.0 18:1.0 22:1.0 36:1.0 40:1.0 61:1.0 67:1.0 72:1.0 74:1.0 76:1.0 78:1.0 83:1.0 
-0.3242187499999999 3:1.0 11:1.0 18:1.0 29:1.0 39:1.0 40:1.0 59:1.0 63:1.0 71:1.0 73:1.0 74:1.0 76:1.0 80:1.0 83:1.0 
-0.3242187499999999 4:1.0 6:1.0 16:1.0 20:1.0 37:1.0 40:1.0 54:1.0 63:1.0 71:1.0 73:1.0 74:1.0 76:1.0 80:1.0 83:1.0 
-0.32324218749998834 3:1.0 6:1.0 16:1.0 22:1.0 36:1.0 40:1.0 48:1.0 63:1.0 67:1.0 73:1.0 74:1.0 76:1.0 82:1.0 83:1.0 
-0.32421874999999173 3:1.0 6:1.0 16:1.0 21:1.0 35:1.0 40:1.0 54:1.0 63:1.0 67:1.0 73:1.0 74:1.0 76:1.0 80:1.0 83:1.0 
-0.32421874999999994 2:1.0 6:1.0 16:1.0 19:1.0 39:1.0 40:1.0 51:1.0 63:1.0 67:1.0 73:1.0 74:1.0 76:1.0 80:1.0 107:1.0 
-0.32421875000000006 3:1.0 6:1.0 15:1.0 22:1.0 36:1.0 41:1.0 55:1.0 64:1.0 67:1.0 72:1.0 74:1.0 76:1.0 80:1.0 83:1.0 
-0.32421875000000017 4:1.0 6:1.0 16:1.0 21:1.0 35:1.0 44:1.0 49:1.0 64:1.0 67:1.0 72:1.0 74:1.0 76:1.0 78:1.0 119:1.0 
-0.3232421874999967 5:1.0 6:1.0 17:1.0 22:1.0 36:1.0 42:1.0 55:1.0 64:1.0 67:1.0 72:1.0 74:1.0 76:1.0 80:1.0 83:1.0 
-0.32421875000000017 4:1.0 6:1.0 14:1.0 20:1.0 37:1.0 41:1.0 55:1.0 64:1.0 68:1.0 72:1.0 74:1.0 76:1.0 80:1.0 83:1.0 
-0.3232421875000009 4:1.0 6:1.0 16:1.0 33:1.0 35:1.0 40:1.0 48:1.0 63:1.0 67:1.0 73:1.0 74:1.0 76:1.0 80:1.0 83:1.0 
-0.3232421875000009 1:1.0 9:1.0 15:1.0 22:1.0 36:1.0 42:1.0 49:1.0 64:1.0 67:1.0 72:1.0 74:1.0 76:1.0 80:1.0 83:1.0 
-0.3242187482416311 1:1.0 15:1.0 20:1.0 37:1.0 42:1.0 65:1.0 67:1.0 72:1.0 74:1.0 76:1.0 78:1.0 83:1.0 
-0.3232421875000009 4:1.0 6:1.0 17:1.0 19:1.0 39:1.0 43:1.0 47:1.0 64:1.0 67:1.0 73:1.0 74:1.0 76:1.0 80:1.0 83:1.0 
-0.32324218750000094 3:1.0 6:1.0 17:1.0 24:1.0 38:1.0 41:1.0 50:1.0 66:1.0 67:1.0 72:1.0 74:1.0 76:1.0 80:1.0 83:1.0 
-0.32324218750000094 4:1.0 6:1.0 14:1.0 22:1.0 36:1.0 41:1.0 52:1.0 64:1.0 67:1.0 72:1.0 74:1.0 76:1.0 81:1.0 83:1.0 
-0.32421874999999184 4:1.0 6:1.0 14:1.0 22:1.0 36:1.0 42:1.0 55:1.0 64:1.0 67:1.0 72:1.0 74:1.0 76:1.0 80:1.0 83:1.0 
-0.32324218749999695 2:1.0 10:1.0 16:1.0 25:1.0 38:1.0 42:1.0 59:1.0 64:1.0 67:1.0 73:1.0 74:1.0 76:1.0 80:1.0 83:1.0 
-0.3232421875000138 4:1.0 6:1.0 16:1.0 22:1.0 36:1.0 40:1.0 51:1.0 63:1.0 67:1.0 73:1.0 74:1.0 76:1.0 81:1.0 83:1.0 
-0.32324218750000083 4:1.0 6:1.0 17:1.0 23:1.0 39:1.0 41:1.0 55:1.0 64:1.0 67:1.0 73:1.0 74:1.0 76:1.0 80:1.0 83:1.0 
-0.3232421875000009 5:1.0 7:1.0 18:1.0 31:1.0 35:1.0 41:1.0 50:1.0 64:1.0 67:1.0 72:1.0 74:1.0 76:1.0 82:1.0 83:1.0 
-0.07324218749998779 3:1.0 6:1.0 15:1.0 22:1.0 36:1.0 40:1.0 54:1.0 63:1.0 67:1.0 73:1.0 74:1.0 76:1.0 80:1.0 83:1.0 
-0.375 4:1.0 7:1.0 14:1.0 19:1.0 39:1.0 40:1.0 56:1.0 63:1.0 67:1.0 73:1.0 74:1.0 76:1.0 82:1.0 83:1.0 
-0.3232421875000009 2:1.0 6:1.0 16:1.0 26:1.0 35:1.0 40:1.0 48:1.0 63:1.0 67:1.0 73:1.0 74:1.0 76:1.0 80:1.0 83:1.0 
-0.3232421875000095 4:1.0 6:1.0 15:1.0 22:1.0 36:1.0 40:1.0 51:1.0 63:1.0 67:1.0 73:1.0 74:1.0 76:1.0 82:1.0 83:1.0 
-0.3232421875000009 5:1.0 7:1.0 15:1.0 22:1.0 36:1.0 40:1.0 50:1.0 63:1.0 68:1.0 73:1.0 74:1.0 76:1.0 82:1.0 93:1.0 
-0.3232421875000009 5:1.0 6:1.0 17:1.0 22:1.0 36:1.0 41:1.0 51:1.0 66:1.0 67:1.0 72:1.0 74:1.0 76:1.0 79:1.0 83:1.0 
-0.32324218750000083 1:1.0 6:1.0 16:1.0 20:1.0 37:1.0 42:1.0 50:1.0 62:1.0 68:1.0 73:1.0 74:1.0 76:1.0 80:1.0 83:1.0 
-0.3242187499999958 1:1.0 6:1.0 14:1.0 19:1.0 39:1.0 42:1.0 55:1.0 64:1.0 67:1.0 72:1.0 74:1.0 76:1.0 80:1.0 83:1.0 
-0.32421875000002526 5:1.0 6:1.0 15:1.0 22:1.0 36:1.0 40:1.0 50:1.0 63:1.0 67:1.0 73:1.0 74:1.0 76:1.0 80:1.0 83:1.0 
-0.32324218750000083 2:1.0 11:1.0 18:1.0 19:1.0 39:1.0 42:1.0 48:1.0 64:1.0 67:1.0 73:1.0 74:1.0 76:1.0 80:1.0 83:1.0 
-0.3242187482416269 2:1.0 6:1.0 17:1.0 22:1.0 36:1.0 40:1.0 50:1.0 63:1.0 67:1.0 73:1.0 74:1.0 76:1.0 80:1.0 83:1.0 
-0.3232421874999888 1:1.0 6:1.0 15:1.0 20:1.0 37:1.0 42:1.0 58:1.0 62:1.0 67:1.0 72:1.0 74:1.0 76:1.0 78:1.0 83:1.0 
-0.32324218750000083 3:1.0 11:1.0 14:1.0 22:1.0 36:1.0 42:1.0 49:1.0 62:1.0 67:1.0 72:1.0 74:1.0 76:1.0 80:1.0 83:1.0 
-0.32324218925836234 2:1.0 6:1.0 17:1.0 25:1.0 38:1.0 42:1.0 51:1.0 62:1.0 67:1.0 73:1.0 74:1.0 76:1.0 82:1.0 83:1.0 
-0.3242187482416391 1:1.0 6:1.0 14:1.0 19:1.0 39:1.0 40:1.0 49:1.0 63:1.0 67:1.0 73:1.0 74:1.0 76:1.0 78:1.0 83:1.0 
-0.3242187499999999 5:1.0 6:1.0 17:1.0 27:1.0 35:1.0 44:1.0 54:1.0 66:1.0 71:1.0 72:1.0 74:1.0 76:1.0 80:1.0 83:1.0 
-0.3232421874999972 3:1.0 14:1.0 22:1.0 36:1.0 40:1.0 63:1.0 67:1.0 73:1.0 74:1.0 76:1.0 80:1.0 83:1.0 
-0.32421874999999994 1:1.0 10:1.0 18:1.0 28:1.0 35:1.0 42:1.0 49:1.0 62:1.0 71:1.0 73:1.0 74:1.0 76:1.0 78:1.0 83:1.0 
-0.32421874999999994 5:1.0 6:1.0 15:1.0 22:1.0 36:1.0 42:1.0 52:1.0 66:1.0 67:1.0 72:1.0 74:1.0 77:1.0 80:1.0 83:1.0 
-0.32421874999999994 3:1.0 6:1.0 17:1.0 20:1.0 37:1.0 42:1.0 49:1.0 64:1.0 67:1.0 73:1.0 74:1.0 76:1.0 80:1.0 83:1.0 
-0.3242187500000086 5:1.0 16:1.0 19:1.0 39:1.0 40:1.0 63:1.0 67:1.0 73:1.0 74:1.0 76:1.0 78:1.0 83:1.0 
-0.3242187500000002 3:1.0 6:1.0 17:1.0 20:1.0 37:1.0 41:1.0 47:1.0 64:1.0 67:1.0 72:1.0 74:1.0 76:1.0 80:1.0 100:1.0 
-0.32324218750000083 1:1.0 6:1.0 17:1.0 22:1.0 36:1.0 42:1.0 50:1.0 64:1.0 67:1.0 73:1.0 74:1.0 77:1.0 82:1.0 83:1.0 
-0.32324218750000083 3:1.0 10:1.0 14:1.0 22:1.0 36:1.0 42:1.0 49:1.0 62:1.0 67:1.0 73:1.0 74:1.0 76:1.0 80:1.0 83:1.0 
-0.32324218750000083 1:1.0 6:1.0 15:1.0 20:1.0 37:1.0 40:1.0 55:1.0 61:1.0 69:1.0 72:1.0 74:1.0 76:1.0 81:1.0 83:1.0 
-0.3232421874999843 2:1.0 6:1.0 17:1.0 20:1.0 37:1.0 40:1.0 48:1.0 63:1.0 67:1.0 73:1.0 74:1.0 76:1.0 80:1.0 83:1.0 
-0.32324218750000083 3:1.0 7:1.0 17:1.0 20:1.0 37:1.0 41:1.0 56:1.0 64:1.0 67:1.0 73:1.0 74:1.0 76:1.0 80:1.0 83:1.0 
-0.32324218750000083 2:1.0 6:1.0 17:1.0 19:1.0 39:1.0 42:1.0 52:1.0 64:1.0 67:1.0 72:1.0 74:1.0 76:1.0 82:1.0 83:1.0 
-0.323242187500001 3:1.0 6:1.0 17:1.0 32:1.0 39:1.0 41:1.0 52:1.0 66:1.0 67:1.0 72:1.0 74:1.0 76:1.0 82:1.0 83:1.0 
-0.32421874999999606 1:1.0 18:1.0 20:1.0 37:1.0 42:1.0 62:1.0 67:1.0 72:1.0 74:1.0 77:1.0 78:1.0 83:1.0 
-0.3232421874999928 2:1.0 6:1.0 17:1.0 22:1.0 36:1.0 42:1.0 48:1.0 62:1.0 67:1.0 73:1.0 74:1.0 76:1.0 80:1.0 83:1.0 
-0.323242187500001 2:1.0 6:1.0 18:1.0 20:1.0 37:1.0 42:1.0 49:1.0 62:1.0 67:1.0 73:1.0 74:1.0 77:1.0 78:1.0 83:1.0 
-0.323242187500001 2:1.0 6:1.0 14:1.0 22:1.0 36:1.0 42:1.0 49:1.0 64:1.0 67:1.0 73:1.0 74:1.0 76:1.0 80:1.0 83:1.0 
-0.323242187500001 3:1.0 6:1.0 15:1.0 20:1.0 37:1.0 43:1.0 54:1.0 62:1.0 67:1.0 73:1.0 74:1.0 76:1.0 80:1.0 83:1.0 
-0.323242187500001 5:1.0 7:1.0 17:1.0 27:1.0 35:1.0 40:1.0 48:1.0 63:1.0 67:1.0 73:1.0 74:1.0 76:1.0 78:1.0 83:1.0 
-0.3242187499999956 1:1.0 6:1.0 15:1.0 20:1.0 37:1.0 42:1.0 55:1.0 62:1.0 68:1.0 73:1.0 74:1.0 76:1.0 78:1.0 83:1.0 
-0.323242187500001 1:1.0 6:1.0 18:1.0 33:1.0 35:1.0 42:1.0 53:1.0 64:1.0 67:1.0 73:1.0 74:1.0 76:1.0 78:1.0 103:1.0 
-0.3232421874999966 1:1.0 6:1.0 16:1.0 22:1.0 36:1.0 42:1.0 53:1.0 64:1.0 67:1.0 73:1.0 74:1.0 76:1.0 82:1.0 83:1.0 
-0.3232421874999926 5:1.0 14:1.0 19:1.0 39:1.0 40:1.0 63:1.0 67:1.0 73:1.0 74:1.0 76:1.0 78:1.0 83:1.0 
-0.3232421874999925 1:1.0 6:1.0 16:1.0 22:1.0 36:1.0 42:1.0 50:1.0 62:1.0 67:1.0 72:1.0 74:1.0 76:1.0 78:1.0 83:1.0 
-0.32324218749999695 4:1.0 6:1.0 17:1.0 22:1.0 36:1.0 40:1.0 48:1.0 63:1.0 70:1.0 73:1.0 74:1.0 76:1.0 80:1.0 83:1.0 
-0.323242187500001 4:1.0 6:1.0 16:1.0 26:1.0 35:1.0 40:1.0 54:1.0 65:1.0 68:1.0 72:1.0 74:1.0 76:1.0 81:1.0 94:1.0 
-0.323242187500001 1:1.0 6:1.0 15:1.0 25:1.0 38:1.0 42:1.0 55:1.0 62:1.0 67:1.0 72:1.0 74:1.0 76:1.0 82:1.0 83:1.0 
-0.32324218750000094 1:1.0 10:1.0 18:1.0 31:1.0 35:1.0 42:1.0 49:1.0 64:1.0 67:1.0 73:1.0 74:1.0 76:1.0 80:1.0 83:1.0 
-0.32421874999999584 1:1.0 6:1.0 14:1.0 20:1.0 37:1.0 42:1.0 57:1.0 64:1.0 67:1.0 73:1.0 74:1.0 76:1.0 82:1.0 83:1.0 
-0.32324218750000094 2:1.0 11:1.0 16:1.0 22:1.0 36:1.0 40:1.0 59:1.0 63:1.0 67:1.0 73:1.0 74:1.0 76:1.0 80:1.0 83:1.0 
-0.32324218750000094 3:1.0 10:1.0 17:1.0 19:1.0 39:1.0 42:1.0 52:1.0 64:1.0 67:1.0 72:1.0 74:1.0 76:1.0 80:1.0 83:1.0 
-0.32324218750000094 3:1.0 10:1.0 17:1.0 29:1.0 39:1.0 44:1.0 52:1.0 64:1.0 67:1.0 72:1.0 74:1.0 76:1.0 80:1.0 83:1.0 
-0.32324218749999317 2:1.0 6:1.0 16:1.0 22:1.0 36:1.0 40:1.0 54:1.0 63:1.0 67:1.0 73:1.0 74:1.0 76:1.0 80:1.0 83:1.0 
-0.3232421875000011 4:1.0 6:1.0 15:1.0 22:1.0 36:1.0 42:1.0 57:1.0 64:1.0 69:1.0 73:1.0 74:1.0 76:1.0 80:1.0 83:1.0 
-0.32324218750000117 1:1.0 6:1.0 16:1.0 22:1.0 36:1.0 42:1.0 52:1.0 66:1.0 67:1.0 72:1.0 74:1.0 76:1.0 82:1.0 83:1.0 
-0.32324218750000094 2:1.0 10:1.0 16:1.0 24:1.0 38:1.0 40:1.0 59:1.0 63:1.0 67:1.0 73:1.0 74:1.0 77:1.0 80:1.0 85:1.0 
-0.32324218750000094 4:1.0 6:1.0 15:1.0 22:1.0 36:1.0 44:1.0 50:1.0 66:1.0 69:1.0 72:1.0 74:1.0 76:1.0 80:1.0 83:1.0 
-0.3232421874999887 1:1.0 6:1.0 15:1.0 20:1.0 37:1.0 42:1.0 50:1.0 65:1.0 67:1.0 72:1.0 74:1.0 76:1.0 78:1.0 83:1.0 
-0.3232421875000011 3:1.0 6:1.0 14:1.0 19:1.0 39:1.0 42:1.0 50:1.0 64:1.0 67:1.0 73:1.0 74:1.0 76:1.0 81:1.0 83:1.0 
-0.32324218750000094 5:1.0 10:1.0 14:1.0 22:1.0 36:1.0 40:1.0 51:1.0 63:1.0 69:1.0 73:1.0 74:1.0 76:1.0 82:1.0 83:1.0 
-0.3232421875000009 4:1.0 7:1.0 16:1.0 19:1.0 39:1.0 40:1.0 52:1.0 63:1.0 67:1.0 73:1.0 74:1.0 76:1.0 80:1.0 83:1.0 
-0.323242187500001 2:1.0 7:1.0 18:1.0 20:1.0 37:1.0 42:1.0 48:1.0 64:1.0 67:1.0 73:1.0 74:1.0 76:1.0 81:1.0 83:1.0 
-0.3232421875000009 3:1.0 6:1.0 18:1.0 22:1.0 36:1.0 40:1.0 52:1.0 63:1.0 67:1.0 73:1.0 74:1.0 77:1.0 82:1.0 83:1.0 
-0.32324218749999684 1:1.0 6:1.0 15:1.0 20:1.0 37:1.0 41:1.0 49:1.0 64:1.0 67:1.0 73:1.0 74:1.0 76:1.0 78:1.0 83:1.0 
-0.323242187500001 5:1.0 16:1.0 21:1.0 35:1.0 42:1.0 66:1.0 67:1.0 73:1.0 74:1.0 76:1.0 80:1.0 83:1.0 
-0.323242187500001 1:1.0 18:1.0 31:1.0 35:1.0 42:1.0 62:1.0 67:1.0 73:1.0 74:1.0 76:1.0 80:1.0 83:1.0 
-0.3232421875000012 3:1.0 6:1.0 17:1.0 20:1.0 37:1.0 40:1.0 48:1.0 63:1.0 67:1.0 73:1.0 74:1.0 76:1.0 80:1.0 83:1.0 
-0.32324218750000083 5:1.0 7:1.0 18:1.0 22:1.0 36:1.0 44:1.0 49:1.0 65:1.0 67:1.0 72:1.0 75:1.0 76:1.0 78:1.0 83:1.0 
-0.32324218750000094 1:1.0 6:1.0 17:1.0 21:1.0 35:1.0 42:1.0 55:1.0 62:1.0 71:1.0 72:1.0 74:1.0 76:1.0 80:1.0 83:1.0 
-0.32324218749999684 2:1.0 6:1.0 18:1.0 19:1.0 39:1.0 42:1.0 55:1.0 64:1.0 67:1.0 73:1.0 74:1.0 76:1.0 81:1.0 83:1.0 
-0.32324218750000083 5:1.0 15:1.0 23:1.0 39:1.0 45:1.0 66:1.0 68:1.0 72:1.0 74:1.0 76:1.0 80:1.0 102:1.0 
-0.999999999999981 5:1.0 6:1.0 15:1.0 22:1.0 36:1.0 40:1.0 48:1.0 63:1.0 67:1.0 73:1.0 74:1.0 76:1.0 80:1.0 83:1.0 
-0.3232421875000008 4:1.0 10:1.0 14:1.0 19:1.0 39:1.0 41:1.0 52:1.0 66:1.0 67:1.0 73:1.0 74:1.0 76:1.0 82:1.0 83:1.0 
-0.32324218749999695 4:1.0 6:1.0 18:1.0 22:1.0 36:1.0 43:1.0 54:1.0 66:1.0 71:1.0 72:1.0 74:1.0 76:1.0 80:1.0 83:1.0 
-0.3232421874999928 4:1.0 6:1.0 14:1.0 22:1.0 36:1.0 42:1.0 50:1.0 64:1.0 67:1.0 72:1.0 74:1.0 76:1.0 80:1.0 83:1.0 
-0.3232421875000007 4:1.0 6:1.0 16:1.0 22:1.0 36:1.0 41:1.0 54:1.0 66:1.0 67:1.0 72:1.0 74:1.0 76:1.0 82:1.0 83:1.0 
-0.3232421875000007 1:1.0 6:1.0 14:1.0 31:1.0 35:1.0 42:1.0 49:1.0 62:1.0 67:1.0 72:1.0 74:1.0 76:1.0 78:1.0 83:1.0 
-0.3232421875000007 2:1.0 10:1.0 18:1.0 19:1.0 39:1.0 42:1.0 59:1.0 62:1.0 71:1.0 73:1.0 74:1.0 76:1.0 82:1.0 83:1.0 
-0.32324218749999273 2:1.0 6:1.0 17:1.0 20:1.0 37:1.0 40:1.0 54:1.0 63:1.0 67:1.0 73:1.0 74:1.0 76:1.0 80:1.0 83:1.0 
-0.3232421874999967 5:1.0 6:1.0 18:1.0 22:1.0 36:1.0 40:1.0 51:1.0 63:1.0 67:1.0 73:1.0 74:1.0 76:1.0 78:1.0 83:1.0 
-0.3232421875000007 1:1.0 6:1.0 17:1.0 22:1.0 36:1.0 42:1.0 54:1.0 65:1.0 67:1.0 73:1.0 74:1.0 76:1.0 80:1.0 103:1.0 
-0.3232421875000009 2:1.0 6:1.0 14:1.0 20:1.0 37:1.0 40:1.0 49:1.0 61:1.0 69:1.0 72:1.0 74:1.0 76:1.0 80:1.0 83:1.0 
-0.32324218749998457 2:1.0 6:1.0 15:1.0 22:1.0 36:1.0 40:1.0 54:1.0 63:1.0 67:1.0 73:1.0 74:1.0 76:1.0 80:1.0 83:1.0 
-0.3232421875000007 2:1.0 6:1.0 15:1.0 31:1.0 35:1.0 40:1.0 48:1.0 61:1.0 70:1.0 72:1.0 74:1.0 76:1.0 82:1.0 114:1.0 
-0.32421875000004635 4:1.0 6:1.0 15:1.0 19:1.0 39:1.0 40:1.0 50:1.0 63:1.0 67:1.0 73:1.0 74:1.0 76:1.0 82:1.0 83:1.0 
-0.3232421875000007 4:1.0 6:1.0 16:1.0 22:1.0 36:1.0 41:1.0 54:1.0 62:1.0 71:1.0 72:1.0 74:1.0 76:1.0 80:1.0 83:1.0 
-0.32324218749999667 1:1.0 6:1.0 18:1.0 20:1.0 37:1.0 42:1.0 57:1.0 62:1.0 71:1.0 73:1.0 74:1.0 76:1.0 80:1.0 83:1.0 
-0.3232421875000007 2:1.0 6:1.0 18:1.0 32:1.0 39:1.0 42:1.0 52:1.0 64:1.0 67:1.0 73:1.0 74:1.0 76:1.0 80:1.0 
-0.32324218750000067 3:1.0 8:1.0 15:1.0 20:1.0 37:1.0 40:1.0 52:1.0 63:1.0 67:1.0 73:1.0 74:1.0 76:1.0 78:1.0 83:1.0 
-0.324218749999996 1:1.0 16:1.0 24:1.0 38:1.0 42:1.0 62:1.0 67:1.0 73:1.0 74:1.0 76:1.0 80:1.0 83:1.0 
-0.32324218750002626 5:1.0 6:1.0 18:1.0 19:1.0 39:1.0 40:1.0 54:1.0 63:1.0 67:1.0 73:1.0 74:1.0 76:1.0 80:1.0 83:1.0 
-0.32324218750000067 1:1.0 6:1.0 16:1.0 21:1.0 35:1.0 42:1.0 53:1.0 62:1.0 67:1.0 73:1.0 74:1.0 76:1.0 78:1.0 83:1.0 
-0.32324218750000083 3:1.0 6:1.0 14:1.0 22:1.0 36:1.0 41:1.0 56:1.0 64:1.0 67:1.0 73:1.0 74:1.0 76:1.0 82:1.0 83:1.0 
-0.32324218750000083 1:1.0 6:1.0 14:1.0 22:1.0 36:1.0 42:1.0 53:1.0 64:1.0 67:1.0 73:1.0 74:1.0 76:1.0 78:1.0 83:1.0 
-0.3232421875000007 1:1.0 6:1.0 14:1.0 27:1.0 35:1.0 42:1.0 54:1.0 62:1.0 67:1.0 73:1.0 74:1.0 76:1.0 80:1.0 83:1.0 
-0.32324218750000944 4:1.0 6:1.0 16:1.0 20:1.0 37:1.0 40:1.0 48:1.0 63:1.0 67:1.0 73:1.0 74:1.0 76:1.0 80:1.0 83:1.0 
-0.324218750000034 5:1.0 9:1.0 14:1.0 22:1.0 36:1.0 40:1.0 47:1.0 63:1.0 67:1.0 73:1.0 74:1.0 76:1.0 80:1.0 83:1.0 
-0.3232421875000007 2:1.0 6:1.0 16:1.0 22:1.0 36:1.0 40:1.0 54:1.0 63:1.0 67:1.0 73:1.0 75:1.0 76:1.0 82:1.0 105:1.0 
-0.32324218749999667 2:1.0 7:1.0 17:1.0 22:1.0 36:1.0 40:1.0 50:1.0 63:1.0 67:1.0 73:1.0 74:1.0 76:1.0 80:1.0 83:1.0 
-0.3242187499999957 5:1.0 7:1.0 17:1.0 22:1.0 36:1.0 40:1.0 48:1.0 63:1.0 67:1.0 73:1.0 74:1.0 76:1.0 82:1.0 83:1.0 
-0.32324218749999667 3:1.0 6:1.0 16:1.0 22:1.0 36:1.0 42:1.0 55:1.0 64:1.0 67:1.0 72:1.0 74:1.0 76:1.0 80:1.0 83:1.0 
-0.3232421875000007 1:1.0 6:1.0 18:1.0 19:1.0 39:1.0 42:1.0 52:1.0 64:1.0 67:1.0 73:1.0 74:1.0 76:1.0 81:1.0 83:1.0 
-0.32324218750000083 5:1.0 6:1.0 15:1.0 34:1.0 35:1.0 42:1.0 54:1.0 64:1.0 67:1.0 73:1.0 74:1.0 76:1.0 80:1.0 107:1.0 
-0.32421874999999606 2:1.0 6:1.0 15:1.0 26:1.0 35:1.0 40:1.0 56:1.0 63:1.0 69:1.0 73:1.0 74:1.0 76:1.0 80:1.0 83:1.0 
-0.32324218750000944 4:1.0 8:1.0 16:1.0 22:1.0 36:1.0 40:1.0 57:1.0 63:1.0 67:1.0 73:1.0 74:1.0 76:1.0 82:1.0 83:1.0 
-0.3242187500000044 5:1.0 6:1.0 15:1.0 22:1.0 36:1.0 40:1.0 59:1.0 63:1.0 67:1.0 73:1.0 74:1.0 76:1.0 80:1.0 83:1.0 
-0.3232421875000007 2:1.0 6:1.0 17:1.0 22:1.0 36:1.0 42:1.0 55:1.0 66:1.0 67:1.0 72:1.0 74:1.0 76:1.0 79:1.0 86:1.0 
-0.32324218750002626 5:1.0 7:1.0 14:1.0 19:1.0 39:1.0 40:1.0 52:1.0 63:1.0 67:1.0 73:1.0 74:1.0 76:1.0 82:1.0 83:1.0 
-0.3232421875000007 1:1.0 6:1.0 15:1.0 22:1.0 36:1.0 42:1.0 54:1.0 64:1.0 67:1.0 72:1.0 74:1.0 76:1.0 78:1.0 83:1.0 
-0.3242187500000213 4:1.0 6:1.0 14:1.0 22:1.0 36:1.0 40:1.0 57:1.0 63:1.0 67:1.0 73:1.0 74:1.0 76:1.0 82:1.0 83:1.0 
-0.3232421875000007 4:1.0 6:1.0 14:1.0 22:1.0 36:1.0 42:1.0 48:1.0 64:1.0 67:1.0 72:1.0 74:1.0 76:1.0 82:1.0 83:1.0 
-0.3232421875000007 3:1.0 8:1.0 15:1.0 22:1.0 36:1.0 40:1.0 57:1.0 63:1.0 67:1.0 73:1.0 74:1.0 76:1.0 82:1.0 83:1.0 
-0.32324218750000117 2:1.0 6:1.0 18:1.0 22:1.0 36:1.0 40:1.0 48:1.0 63:1.0 67:1.0 73:1.0 74:1.0 76:1.0 82:1.0 83:1.0 
-0.32324218750000067 5:1.0 9:1.0 17:1.0 19:1.0 39:1.0 42:1.0 55:1.0 64:1.0 67:1.0 73:1.0 74:1.0 77:1.0 80:1.0 83:1.0 
-0.3242187482416391 1:1.0 6:1.0 18:1.0 19:1.0 39:1.0 42:1.0 55:1.0 62:1.0 67:1.0 72:1.0 74:1.0 76:1.0 80:1.0 83:1.0 
-0.3242187482416391 2:1.0 10:1.0 18:1.0 19:1.0 39:1.0 42:1.0 52:1.0 64:1.0 67:1.0 72:1.0 74:1.0 76:1.0 81:1.0 83:1.0 
-0.3242187499999997 1:1.0 17:1.0 19:1.0 39:1.0 42:1.0 62:1.0 67:1.0 73:1.0 74:1.0 76:1.0 78:1.0 83:1.0 
-0.32324218750000083 1:1.0 6:1.0 15:1.0 21:1.0 35:1.0 42:1.0 49:1.0 62:1.0 71:1.0 73:1.0 74:1.0 76:1.0 78:1.0 83:1.0 
-0.32324218750000083 2:1.0 6:1.0 14:1.0 19:1.0 39:1.0 40:1.0 47:1.0 63:1.0 67:1.0 73:1.0 74:1.0 76:1.0 78:1.0 83:1.0 
-0.32324218749999695 2:1.0 6:1.0 17:1.0 22:1.0 36:1.0 41:1.0 54:1.0 66:1.0 67:1.0 73:1.0 74:1.0 76:1.0 80:1.0 83:1.0 
-0.32324218750000083 5:1.0 6:1.0 14:1.0 20:1.0 37:1.0 41:1.0 48:1.0 64:1.0 71:1.0 72:1.0 74:1.0 76:1.0 81:1.0 83:1.0 
-0.32324218750000083 3:1.0 6:1.0 17:1.0 22:1.0 36:1.0 43:1.0 57:1.0 65:1.0 67:1.0 73:1.0 74:1.0 76:1.0 82:1.0 103:1.0 
-0.3232421874999966 1:1.0 6:1.0 18:1.0 20:1.0 37:1.0 42:1.0 57:1.0 62:1.0 67:1.0 73:1.0 74:1.0 76:1.0 80:1.0 83:1.0 
-0.3242187482416311 1:1.0 6:1.0 18:1.0 20:1.0 37:1.0 42:1.0 56:1.0 62:1.0 67:1.0 73:1.0 74:1.0 76:1.0 78:1.0 83:1.0 
-0.32324218750000083 3:1.0 11:1.0 15:1.0 22:1.0 36:1.0 43:1.0 48:1.0 64:1.0 67:1.0 73:1.0 74:1.0 76:1.0 81:1.0 83:1.0 
-0.32324218750000083 5:1.0 6:1.0 16:1.0 22:1.0 36:1.0 42:1.0 49:1.0 64:1.0 71:1.0 72:1.0 74:1.0 76:1.0 79:1.0 83:1.0 
-0.3242187499999879 1:1.0 6:1.0 17:1.0 22:1.0 36:1.0 42:1.0 50:1.0 62:1.0 67:1.0 72:1.0 74:1.0 76:1.0 78:1.0 83:1.0 
-0.32324218750000083 1:1.0 17:1.0 31:1.0 35:1.0 42:1.0 62:1.0 71:1.0 73:1.0 74:1.0 76:1.0 80:1.0 83:1.0 
-0.32324218750000083 3:1.0 6:1.0 16:1.0 19:1.0 39:1.0 44:1.0 52:1.0 64:1.0 67:1.0 72:1.0 74:1.0 76:1.0 82:1.0 83:1.0 
-0.32324218750000094 3:1.0 10:1.0 17:1.0 22:1.0 36:1.0 40:1.0 48:1.0 63:1.0 67:1.0 73:1.0 74:1.0 76:1.0 80:1.0 
-0.32324218750000094 2:1.0 14:1.0 20:1.0 37:1.0 43:1.0 64:1.0 67:1.0 73:1.0 74:1.0 76:1.0 82:1.0 83:1.0 
-0.32324218750000094 4:1.0 6:1.0 14:1.0 19:1.0 39:1.0 42:1.0 55:1.0 62:1.0 67:1.0 72:1.0 74:1.0 76:1.0 79:1.0 83:1.0 
-0.32324218750000083 2:1.0 6:1.0 15:1.0 27:1.0 35:1.0 41:1.0 53:1.0 65:1.0 67:1.0 73:1.0 74:1.0 76:1.0 82:1.0 83:1.0 
-0.3232421874999926 1:1.0 6:1.0 17:1.0 22:1.0 36:1.0 42:1.0 49:1.0 62:1.0 67:1.0 72:1.0 74:1.0 76:1.0 80:1.0 83:1.0 
-0.32324218750000094 1:1.0 6:1.0 18:1.0 21:1.0 35:1.0 42:1.0 58:1.0 62:1.0 67:1.0 72:1.0 74:1.0 76:1.0 78:1.0 83:1.0 
-0.32324218750000094 5:1.0 6:1.0 16:1.0 22:1.0 36:1.0 42:1.0 51:1.0 64:1.0 67:1.0 72:1.0 74:1.0 76:1.0 79:1.0 83:1.0 
-0.32324218750000094 2:1.0 6:1.0 15:1.0 19:1.0 39:1.0 40:1.0 52:1.0 63:1.0 67:1.0 73:1.0 74:1.0 76:1.0 82:1.0 83:1.0 
-0.323242187500001 3:1.0 6:1.0 14:1.0 31:1.0 35:1.0 42:1.0 50:1.0 66:1.0 67:1.0 72:1.0 74:1.0 76:1.0 79:1.0 
-0.323242187500001 5:1.0 10:1.0 16:1.0 33:1.0 35:1.0 40:1.0 59:1.0 63:1.0 67:1.0 73:1.0 74:1.0 76:1.0 78:1.0 83:1.0 
-0.07324218749999817 3:1.0 6:1.0 15:1.0 20:1.0 37:1.0 40:1.0 48:1.0 63:1.0 67:1.0 73:1.0 74:1.0 76:1.0 80:1.0 83:1.0 
-0.323242187500001 1:1.0 6:1.0 14:1.0 20:1.0 37:1.0 45:1.0 50:1.0 66:1.0 67:1.0 72:1.0 74:1.0 76:1.0 80:1.0 83:1.0 
-0.3232421875000135 4:1.0 10:1.0 14:1.0 19:1.0 39:1.0 40:1.0 52:1.0 61:1.0 67:1.0 72:1.0 74:1.0 76:1.0 81:1.0 83:1.0 
-0.3232421875000009 2:1.0 6:1.0 15:1.0 33:1.0 35:1.0 42:1.0 57:1.0 64:1.0 67:1.0 73:1.0 74:1.0 76:1.0 80:1.0 112:1.0 
-0.323242187500001 3:1.0 6:1.0 17:1.0 19:1.0 39:1.0 41:1.0 52:1.0 64:1.0 67:1.0 72:1.0 74:1.0 76:1.0 80:1.0 83:1.0 
-0.3232421874999933 2:1.0 6:1.0 18:1.0 22:1.0 36:1.0 40:1.0 48:1.0 63:1.0 67:1.0 73:1.0 74:1.0 76:1.0 80:1.0 83:1.0 
-0.3232421874999967 4:1.0 6:1.0 18:1.0 22:1.0 36:1.0 40:1.0 57:1.0 63:1.0 67:1.0 73:1.0 74:1.0 76:1.0 80:1.0 83:1.0 
-0.32324218750000916 4:1.0 10:1.0 16:1.0 22:1.0 36:1.0 40:1.0 57:1.0 63:1.0 67:1.0 73:1.0 74:1.0 76:1.0 82:1.0 83:1.0 
-0.32324218750000083 4:1.0 6:1.0 15:1.0 27:1.0 35:1.0 40:1.0 52:1.0 61:1.0 67:1.0 72:1.0 74:1.0 76:1.0 81:1.0 83:1.0 
-0.32324218750000083 2:1.0 6:1.0 17:1.0 29:1.0 39:1.0 42:1.0 51:1.0 62:1.0 67:1.0 73:1.0 74:1.0 76:1.0 79:1.0 83:1.0 
-0.3232421874999847 1:1.0 6:1.0 16:1.0 20:1.0 37:1.0 42:1.0 49:1.0 62:1.0 67:1.0 73:1.0 74:1.0 76:1.0 78:1.0 83:1.0 
-0.32324218750000083 1:1.0 6:1.0 17:1.0 19:1.0 39:1.0 42:1.0 52:1.0 64:1.0 67:1.0 73:1.0 74:1.0 76:1.0 78:1.0 85:1.0 
-0.3232421874999969 5:1.0 6:1.0 17:1.0 33:1.0 35:1.0 40:1.0 57:1.0 63:1.0 67:1.0 73:1.0 74:1.0 76:1.0 80:1.0 83:1.0 
-0.32324218750001377 4:1.0 6:1.0 16:1.0 22:1.0 36:1.0 40:1.0 48:1.0 63:1.0 67:1.0 73:1.0 74:1.0 76:1.0 80:1.0 83:1.0 
-0.32324218750000083 2:1.0 6:1.0 15:1.0 22:1.0 36:1.0 40:1.0 48:1.0 61:1.0 67:1.0 72:1.0 74:1.0 76:1.0 81:1.0 83:1.0 
-0.32324218750000083 1:1.0 6:1.0 14:1.0 22:1.0 36:1.0 42:1.0 48:1.0 64:1.0 67:1.0 73:1.0 74:1.0 77:1.0 80:1.0 83:1.0 
-0.32324218750000083 1:1.0 6:1.0 16:1.0 20:1.0 37:1.0 42:1.0 52:1.0 62:1.0 67:1.0 72:1.0 75:1.0 76:1.0 78:1.0 83:1.0 
-0.3232421875000007 5:1.0 6:1.0 14:1.0 20:1.0 37:1.0 41:1.0 49:1.0 66:1.0 71:1.0 72:1.0 74:1.0 76:1.0 81:1.0 83:1.0 
-0.3232421875000007 1:1.0 6:1.0 18:1.0 22:1.0 36:1.0 40:1.0 50:1.0 65:1.0 67:1.0 73:1.0 74:1.0 76:1.0 78:1.0 83:1.0 
-0.3242187482416311 1:1.0 6:1.0 17:1.0 22:1.0 36:1.0 42:1.0 49:1.0 62:1.0 67:1.0 73:1.0 74:1.0 76:1.0 78:1.0 83:1.0 
-0.32324218749999684 3:1.0 7:1.0 16:1.0 22:1.0 36:1.0 40:1.0 48:1.0 63:1.0 67:1.0 73:1.0 74:1.0 76:1.0 80:1.0 83:1.0 
-0.32324218750000117 4:1.0 6:1.0 14:1.0 24:1.0 38:1.0 40:1.0 48:1.0 63:1.0 67:1.0 73:1.0 74:1.0 76:1.0 81:1.0 83:1.0 
-0.3232421875000007 2:1.0 6:1.0 15:1.0 22:1.0 36:1.0 42:1.0 48:1.0 64:1.0 67:1.0 73:1.0 74:1.0 76:1.0 80:1.0 114:1.0 
-0.3232421875000007 2:1.0 6:1.0 17:1.0 22:1.0 36:1.0 40:1.0 54:1.0 63:1.0 67:1.0 73:1.0 74:1.0 76:1.0 80:1.0 86:1.0 
-0.32421874824163094 2:1.0 6:1.0 15:1.0 22:1.0 36:1.0 42:1.0 48:1.0 62:1.0 67:1.0 73:1.0 74:1.0 76:1.0 80:1.0 83:1.0 
-0.3232421875000007 2:1.0 7:1.0 18:1.0 19:1.0 39:1.0 40:1.0 50:1.0 63:1.0 67:1.0 73:1.0 74:1.0 76:1.0 82:1.0 83:1.0 
-0.32324218750000067 3:1.0 6:1.0 14:1.0 22:1.0 36:1.0 42:1.0 50:1.0 62:1.0 67:1.0 72:1.0 74:1.0 76:1.0 80:1.0 83:1.0 
-0.32324218749999667 4:1.0 6:1.0 16:1.0 22:1.0 36:1.0 43:1.0 54:1.0 66:1.0 71:1.0 72:1.0 74:1.0 76:1.0 80:1.0 83:1.0 
-0.3232421874999928 1:1.0 6:1.0 18:1.0 20:1.0 37:1.0 42:1.0 55:1.0 64:1.0 67:1.0 73:1.0 74:1.0 76:1.0 80:1.0 83:1.0 
-0.3242187499999961 2:1.0 7:1.0 14:1.0 19:1.0 39:1.0 42:1.0 52:1.0 64:1.0 67:1.0 73:1.0 74:1.0 76:1.0 82:1.0 83:1.0 
-0.32324218750000067 3:1.0 7:1.0 18:1.0 20:1.0 37:1.0 42:1.0 50:1.0 64:1.0 67:1.0 73:1.0 74:1.0 76:1.0 82:1.0 83:1.0 
-0.32324218750002626 5:1.0 18:1.0 20:1.0 37:1.0 40:1.0 63:1.0 67:1.0 73:1.0 74:1.0 76:1.0 80:1.0 83:1.0 
-0.3242187500000003 2:1.0 6:1.0 16:1.0 22:1.0 36:1.0 40:1.0 57:1.0 63:1.0 67:1.0 73:1.0 74:1.0 76:1.0 80:1.0 83:1.0 
-0.32324218750000067 3:1.0 6:1.0 16:1.0 20:1.0 37:1.0 40:1.0 49:1.0 61:1.0 67:1.0 72:1.0 74:1.0 76:1.0 78:1.0 83:1.0 
-0.32324218750000067 2:1.0 6:1.0 17:1.0 20:1.0 37:1.0 42:1.0 52:1.0 64:1.0 71:1.0 72:1.0 75:1.0 76:1.0 82:1.0 83:1.0 
-0.32324218750000067 3:1.0 11:1.0 18:1.0 22:1.0 36:1.0 40:1.0 55:1.0 63:1.0 67:1.0 73:1.0 75:1.0 76:1.0 80:1.0 83:1.0 
-0.3232421875000006 5:1.0 8:1.0 16:1.0 19:1.0 39:1.0 40:1.0 51:1.0 63:1.0 67:1.0 73:1.0 74:1.0 76:1.0 80:1.0 83:1.0 
-0.32324218750000067 3:1.0 6:1.0 17:1.0 22:1.0 36:1.0 43:1.0 49:1.0 66:1.0 71:1.0 72:1.0 74:1.0 76:1.0 79:1.0 83:1.0 
-0.3242187499999959 1:1.0 15:1.0 22:1.0 36:1.0 42:1.0 62:1.0 67:1.0 73:1.0 74:1.0 76:1.0 78:1.0 83:1.0 
-0.32324218750000067 3:1.0 6:1.0 14:1.0 20:1.0 37:1.0 42:1.0 56:1.0 66:1.0 67:1.0 73:1.0 74:1.0 76:1.0 82:1.0 83:1.0 
-0.32324218750000067 4:1.0 6:1.0 18:1.0 20:1.0 37:1.0 40:1.0 56:1.0 61:1.0 67:1.0 72:1.0 74:1.0 76:1.0 78:1.0 83:1.0 
-0.32421874824162744 3:1.0 6:1.0 16:1.0 22:1.0 36:1.0 40:1.0 48:1.0 63:1.0 67:1.0 73:1.0 74:1.0 76:1.0 80:1.0 83:1.0 
-0.32324218750000067 3:1.0 10:1.0 16:1.0 22:1.0 36:1.0 42:1.0 52:1.0 66:1.0 71:1.0 72:1.0 74:1.0 76:1.0 79:1.0 83:1.0 
-0.3232421874999967 5:1.0 6:1.0 14:1.0 22:1.0 36:1.0 44:1.0 55:1.0 66:1.0 67:1.0 72:1.0 74:1.0 76:1.0 80:1.0 83:1.0 
-0.32324218750000067 4:1.0 11:1.0 16:1.0 29:1.0 39:1.0 42:1.0 52:1.0 62:1.0 67:1.0 72:1.0 74:1.0 76:1.0 79:1.0 83:1.0 
-0.3232421875000007 2:1.0 6:1.0 15:1.0 33:1.0 35:1.0 40:1.0 53:1.0 63:1.0 67:1.0 73:1.0 74:1.0 76:1.0 82:1.0 103:1.0 
-0.3232421875000007 2:1.0 18:1.0 22:1.0 36:1.0 42:1.0 66:1.0 67:1.0 72:1.0 74:1.0 76:1.0 78:1.0 83:1.0 
-0.3232421875000007 5:1.0 6:1.0 17:1.0 22:1.0 36:1.0 40:1.0 53:1.0 63:1.0 71:1.0 73:1.0 74:1.0 76:1.0 80:1.0 
-0.3232421875000009 5:1.0 6:1.0 16:1.0 34:1.0 35:1.0 42:1.0 54:1.0 64:1.0 67:1.0 73:1.0 74:1.0 76:1.0 78:1.0 83:1.0 
-0.3232421875000009 1:1.0 7:1.0 18:1.0 22:1.0 36:1.0 42:1.0 56:1.0 62:1.0 67:1.0 73:1.0 74:1.0 76:1.0 80:1.0 83:1.0 
-0.32324218749998873 1:1.0 6:1.0 18:1.0 22:1.0 36:1.0 42:1.0 55:1.0 62:1.0 67:1.0 72:1.0 74:1.0 76:1.0 80:1.0 83:1.0 
-0.32421874824163105 1:1.0 6:1.0 16:1.0 22:1.0 36:1.0 42:1.0 53:1.0 62:1.0 69:1.0 73:1.0 74:1.0 76:1.0 80:1.0 83:1.0 
-0.3232421875000009 3:1.0 7:1.0 16:1.0 19:1.0 39:1.0 41:1.0 51:1.0 64:1.0 67:1.0 73:1.0 74:1.0 76:1.0 78:1.0 83:1.0 
-0.3232421875000009 2:1.0 7:1.0 17:1.0 22:1.0 36:1.0 40:1.0 48:1.0 63:1.0 67:1.0 73:1.0 74:1.0 76:1.0 81:1.0 83:1.0 
-0.3232421875000009 4:1.0 6:1.0 15:1.0 22:1.0 36:1.0 44:1.0 50:1.0 64:1.0 67:1.0 72:1.0 74:1.0 76:1.0 80:1.0 83:1.0 
-0.3232421875000009 4:1.0 6:1.0 14:1.0 28:1.0 35:1.0 42:1.0 57:1.0 64:1.0 68:1.0 73:1.0 74:1.0 76:1.0 79:1.0 83:1.0 
-0.3232421875000009 4:1.0 7:1.0 16:1.0 20:1.0 37:1.0 41:1.0 48:1.0 64:1.0 67:1.0 73:1.0 74:1.0 76:1.0 80:1.0 83:1.0 
-0.3232421875000009 2:1.0 6:1.0 18:1.0 24:1.0 38:1.0 42:1.0 52:1.0 64:1.0 68:1.0 73:1.0 74:1.0 76:1.0 80:1.0 83:1.0 
-0.3242187499999959 1:1.0 11:1.0 16:1.0 20:1.0 37:1.0 42:1.0 49:1.0 62:1.0 71:1.0 73:1.0 74:1.0 76:1.0 78:1.0 83:1.0 
-0.32324218750000083 2:1.0 7:1.0 14:1.0 24:1.0 38:1.0 42:1.0 49:1.0 62:1.0 67:1.0 73:1.0 74:1.0 76:1.0 82:1.0 83:1.0 
-0.3232421874999967 2:1.0 6:1.0 18:1.0 22:1.0 36:1.0 42:1.0 54:1.0 62:1.0 67:1.0 72:1.0 74:1.0 76:1.0 80:1.0 83:1.0 
-0.32324218750000083 5:1.0 6:1.0 15:1.0 22:1.0 36:1.0 42:1.0 54:1.0 62:1.0 67:1.0 72:1.0 74:1.0 76:1.0 80:1.0 83:1.0 
-0.3232421875000008 3:1.0 11:1.0 18:1.0 19:1.0 39:1.0 40:1.0 59:1.0 63:1.0 71:1.0 73:1.0 74:1.0 76:1.0 82:1.0 83:1.0 
-0.3232421875000008 2:1.0 6:1.0 14:1.0 30:1.0 35:1.0 42:1.0 49:1.0 65:1.0 67:1.0 72:1.0 74:1.0 76:1.0 78:1.0 119:1.0 
-0.32324218749999273 1:1.0 6:1.0 15:1.0 28:1.0 35:1.0 42:1.0 50:1.0 62:1.0 67:1.0 72:1.0 74:1.0 76:1.0 78:1.0 83:1.0 
-0.32324218750001366 5:1.0 14:1.0 19:1.0 39:1.0 40:1.0 63:1.0 67:1.0 73:1.0 74:1.0 76:1.0 80:1.0 83:1.0 
-0.3232421875000093 2:1.0 6:1.0 14:1.0 22:1.0 36:1.0 40:1.0 52:1.0 63:1.0 67:1.0 73:1.0 74:1.0 76:1.0 82:1.0 83:1.0 
-0.3232421874999966 5:1.0 6:1.0 15:1.0 22:1.0 36:1.0 40:1.0 51:1.0 61:1.0 67:1.0 72:1.0 74:1.0 76:1.0 80:1.0 83:1.0 
-0.3232421875000008 1:1.0 6:1.0 18:1.0 21:1.0 35:1.0 42:1.0 58:1.0 64:1.0 67:1.0 72:1.0 74:1.0 76:1.0 79:1.0 83:1.0 
-0.3232421875000008 1:1.0 6:1.0 18:1.0 24:1.0 38:1.0 42:1.0 50:1.0 64:1.0 71:1.0 73:1.0 74:1.0 76:1.0 80:1.0 
-0.3232421874999966 1:1.0 6:1.0 14:1.0 20:1.0 37:1.0 42:1.0 55:1.0 62:1.0 67:1.0 72:1.0 74:1.0 76:1.0 79:1.0 83:1.0 
-0.3232421875000007 4:1.0 6:1.0 15:1.0 22:1.0 36:1.0 42:1.0 48:1.0 66:1.0 67:1.0 72:1.0 74:1.0 76:1.0 80:1.0 86:1.0 
-0.3232421875000008 3:1.0 6:1.0 18:1.0 20:1.0 37:1.0 42:1.0 50:1.0 66:1.0 71:1.0 72:1.0 74:1.0 76:1.0 80:1.0 83:1.0 
-0.3232421875000008 3:1.0 6:1.0 16:1.0 22:1.0 36:1.0 42:1.0 49:1.0 64:1.0 67:1.0 73:1.0 74:1.0 76:1.0 80:1.0 83:1.0 
-0.3232421875000008 2:1.0 6:1.0 17:1.0 29:1.0 39:1.0 42:1.0 51:1.0 64:1.0 70:1.0 73:1.0 74:1.0 76:1.0 78:1.0 95:1.0 
-0.3232421875000008 3:1.0 6:1.0 14:1.0 20:1.0 37:1.0 41:1.0 53:1.0 66:1.0 67:1.0 72:1.0 74:1.0 76:1.0 80:1.0 83:1.0 
-0.3242187499999961 1:1.0 6:1.0 16:1.0 28:1.0 35:1.0 42:1.0 49:1.0 62:1.0 67:1.0 73:1.0 74:1.0 76:1.0 78:1.0 83:1.0 
-0.3232421875000008 3:1.0 6:1.0 16:1.0 20:1.0 37:1.0 41:1.0 54:1.0 64:1.0 67:1.0 73:1.0 74:1.0 76:1.0 80:1.0 83:1.0 
-0.3232421874999967 5:1.0 6:1.0 17:1.0 31:1.0 35:1.0 40:1.0 57:1.0 63:1.0 67:1.0 73:1.0 74:1.0 76:1.0 80:1.0 83:1.0 
-0.3232421875000008 2:1.0 6:1.0 16:1.0 20:1.0 37:1.0 41:1.0 55:1.0 64:1.0 67:1.0 72:1.0 74:1.0 76:1.0 79:1.0 83:1.0 
-0.3232421874999967 3:1.0 8:1.0 14:1.0 22:1.0 36:1.0 40:1.0 51:1.0 63:1.0 67:1.0 73:1.0 74:1.0 76:1.0 80:1.0 83:1.0 
-0.3232421875000009 1:1.0 6:1.0 17:1.0 27:1.0 35:1.0 40:1.0 48:1.0 63:1.0 67:1.0 73:1.0 74:1.0 76:1.0 80:1.0 103:1.0 
-0.3232421875000009 2:1.0 6:1.0 14:1.0 20:1.0 37:1.0 40:1.0 55:1.0 63:1.0 67:1.0 73:1.0 74:1.0 76:1.0 82:1.0 83:1.0 
-0.3232421875000009 4:1.0 6:1.0 14:1.0 22:1.0 36:1.0 44:1.0 55:1.0 66:1.0 67:1.0 72:1.0 74:1.0 76:1.0 79:1.0 83:1.0 
-0.3232421875000009 1:1.0 6:1.0 17:1.0 21:1.0 35:1.0 42:1.0 50:1.0 62:1.0 67:1.0 72:1.0 74:1.0 77:1.0 78:1.0 83:1.0 
-0.07324218749999256 1:1.0 17:1.0 20:1.0 37:1.0 42:1.0 62:1.0 67:1.0 73:1.0 74:1.0 76:1.0 78:1.0 83:1.0 
